<?xml version="1.0"?>
<opencv_storage>
<stage6>
  <maxWeakCount>37</maxWeakCount>
  <stageThreshold>-5.1410073041915894e-01</stageThreshold>
  <weakClassifiers>
    <_>
      <internalNodes>
        0 -1 45594 1.8249594140797853e-03</internalNodes>
      <leafValues>
        4.1673856973648071e-01 -1.7277486622333527e-01</leafValues></_>
    <_>
      <internalNodes>
        0 -1 107 2.1332150325179100e-02</internalNodes>
      <leafValues>
        -4.6783670783042908e-02 6.0507792234420776e-01</leafValues></_>
    <_>
      <internalNodes>
        0 -1 107 2.1070931106805801e-02</internalNodes>
      <leafValues>
        2.5843339972198009e-03 -1.</leafValues></_>
    <_>
      <internalNodes>
        0 -1 107 2.0727109163999557e-02</internalNodes>
      <leafValues>
        -1.8728893483057618e-03 8.2475936412811279e-01</leafValues></_>
    <_>
      <internalNodes>
        0 -1 121115 -3.2010828144848347e-03</internalNodes>
      <leafValues>
        -5.9117710590362549e-01 4.4292476028203964e-02</leafValues></_>
    <_>
      <internalNodes>
        0 -1 165348 -6.5444177016615868e-04</internalNodes>
      <leafValues>
        3.1845155358314514e-01 -1.1847041547298431e-01</leafValues></_>
    <_>
      <internalNodes>
        0 -1 70270 -2.3427889682352543e-03</internalNodes>
      <leafValues>
        -3.7687191367149353e-01 1.3083569705486298e-01</leafValues></_>
    <_>
      <internalNodes>
        0 -1 193426 2.3581024724990129e-03</internalNodes>
      <leafValues>
        3.3384077250957489e-02 -5.3278744220733643e-01</leafValues></_>
    <_>
      <internalNodes>
        0 -1 179820 1.5586515655741096e-04</internalNodes>
      <leafValues>
        -1.6021050512790680e-01 2.3855455219745636e-01</leafValues></_>
    <_>
      <internalNodes>
        0 -1 154789 -1.0474420851096511e-03</internalNodes>
      <leafValues>
        3.0706986784934998e-01 -1.2479147315025330e-01</leafValues></_>
    <_>
      <internalNodes>
        0 -1 186188 -2.0367843098938465e-03</internalNodes>
      <leafValues>
        -8.1558328866958618e-01 5.2195917814970016e-02</leafValues></_>
    <_>
      <internalNodes>
        0 -1 177912 -3.7319757975637913e-03</internalNodes>
      <leafValues>
        3.5425016283988953e-01 -1.0820926725864410e-01</leafValues></_>
    <_>
      <internalNodes>
        0 -1 42 7.8300433233380318e-03</internalNodes>
      <leafValues>
        -8.7456390261650085e-02 4.2683374881744385e-01</leafValues></_>
    <_>
      <internalNodes>
        0 -1 20507 9.9473958835005760e-03</internalNodes>
      <leafValues>
        -6.4163506031036377e-02 5.5498713254928589e-01</leafValues></_>
    <_>
      <internalNodes>
        0 -1 84718 1.4206447638571262e-02</internalNodes>
      <leafValues>
        5.8855723589658737e-02 -5.4721969366073608e-01</leafValues></_>
    <_>
      <internalNodes>
        0 -1 114318 3.3096811966970563e-04</internalNodes>
      <leafValues>
        -1.1769314110279083e-01 3.2649347186088562e-01</leafValues></_>
    <_>
      <internalNodes>
        0 -1 4629 -8.1231311196461320e-04</internalNodes>
      <leafValues>
        -4.1911163926124573e-01 9.7940266132354736e-02</leafValues></_>
    <_>
      <internalNodes>
        0 -1 169679 -3.6403222475200891e-04</internalNodes>
      <leafValues>
        2.9572361707687378e-01 -1.2991158664226532e-01</leafValues></_>
    <_>
      <internalNodes>
        0 -1 181017 1.3936875388026237e-02</internalNodes>
      <leafValues>
        -7.9002320766448975e-02 4.8237994313240051e-01</leafValues></_>
    <_>
      <internalNodes>
        0 -1 159169 -6.0472800396382809e-04</internalNodes>
      <leafValues>
        2.8485047817230225e-01 -1.3841198384761810e-01</leafValues></_>
    <_>
      <internalNodes>
        0 -1 21337 -2.1977527067065239e-02</internalNodes>
      <leafValues>
        -2.3313446342945099e-01 1.5707102417945862e-01</leafValues></_>
    <_>
      <internalNodes>
        0 -1 20780 -4.6055009588599205e-03</internalNodes>
      <leafValues>
        -5.6015813350677490e-01 7.1888774633407593e-02</leafValues></_>
    <_>
      <internalNodes>
        0 -1 80357 -3.4892200492322445e-03</internalNodes>
      <leafValues>
        -4.1117790341377258e-01 8.7033562362194061e-02</leafValues></_>
    <_>
      <internalNodes>
        0 -1 62740 8.7294783443212509e-03</internalNodes>
      <leafValues>
        -5.2313841879367828e-02 7.0420950651168823e-01</leafValues></_>
    <_>
      <internalNodes>
        0 -1 77884 1.3047005981206894e-02</internalNodes>
      <leafValues>
        6.6868424415588379e-02 -6.4523452520370483e-01</leafValues></_>
    <_>
      <internalNodes>
        0 -1 17529 -1.0699604451656342e-01</internalNodes>
      <leafValues>
        4.7360613942146301e-01 -8.8837914168834686e-02</leafValues></_>
    <_>
      <internalNodes>
        0 -1 188949 1.3729708269238472e-02</internalNodes>
      <leafValues>
        -7.3312878608703613e-02 4.8428431153297424e-01</leafValues></_>
    <_>
      <internalNodes>
        0 -1 161407 3.8303476758301258e-03</internalNodes>
      <leafValues>
        8.9107535779476166e-02 -4.9567499756813049e-01</leafValues></_>
    <_>
      <internalNodes>
        0 -1 153480 -8.1981699913740158e-03</internalNodes>
      <leafValues>
        3.0511507391929626e-01 -1.2124428898096085e-01</leafValues></_>
    <_>
      <internalNodes>
        0 -1 164654 3.0092149972915649e-03</internalNodes>
      <leafValues>
        -1.4580978453159332e-01 2.8602239489555359e-01</leafValues></_>
    <_>
      <internalNodes>
        0 -1 110131 1.4670402742922306e-02</internalNodes>
      <leafValues>
        5.0654761493206024e-02 -8.2473272085189819e-01</leafValues></_>
    <_>
      <internalNodes>
        0 -1 165347 3.3775556948967278e-04</internalNodes>
      <leafValues>
        -1.5728192031383514e-01 2.3684453964233398e-01</leafValues></_>
    <_>
      <internalNodes>
        0 -1 17002 -9.7339099738746881e-04</internalNodes>
      <leafValues>
        2.6728540658950806e-01 -1.3086916506290436e-01</leafValues></_>
    <_>
      <internalNodes>
        0 -1 92358 3.7536122836172581e-03</internalNodes>
      <leafValues>
        -1.2051125615835190e-01 3.1772562861442566e-01</leafValues></_>
    <_>
      <internalNodes>
        0 -1 91676 3.9476794190704823e-03</internalNodes>
      <leafValues>
        -1.6293497383594513e-01 2.7942743897438049e-01</leafValues></_>
    <_>
      <internalNodes>
        0 -1 198146 2.2858870215713978e-03</internalNodes>
      <leafValues>
        5.0969082862138748e-02 -7.4068415164947510e-01</leafValues></_>
    <_>
      <internalNodes>
        0 -1 199973 1.2001530267298222e-03</internalNodes>
      <leafValues>
        7.5211197137832642e-02 -4.3249362707138062e-01</leafValues></_></weakClassifiers></stage6>
</opencv_storage>
