<?xml version="1.0"?>
<opencv_storage>
<stage19>
  <maxWeakCount>35</maxWeakCount>
  <stageThreshold>-7.4463391304016113e-01</stageThreshold>
  <weakClassifiers>
    <_>
      <internalNodes>
        0 -1 11066 -1.9681556150317192e-03</internalNodes>
      <leafValues>
        5.7528090476989746e-01 -1.3478261232376099e-01</leafValues></_>
    <_>
      <internalNodes>
        0 -1 12315 -6.4172362908720970e-03</internalNodes>
      <leafValues>
        3.2007095217704773e-01 -2.7062323689460754e-01</leafValues></_>
    <_>
      <internalNodes>
        0 -1 9327 -3.5694956779479980e-02</internalNodes>
      <leafValues>
        3.5842919349670410e-01 -2.0863296091556549e-01</leafValues></_>
    <_>
      <internalNodes>
        0 -1 798 1.4839505776762962e-02</internalNodes>
      <leafValues>
        -1.7573115229606628e-01 3.4753760695457458e-01</leafValues></_>
    <_>
      <internalNodes>
        0 -1 4489 -5.0349012017250061e-02</internalNodes>
      <leafValues>
        -4.3305617570877075e-01 7.4214868247509003e-02</leafValues></_>
    <_>
      <internalNodes>
        0 -1 9578 4.7029424458742142e-03</internalNodes>
      <leafValues>
        -1.7829899489879608e-01 2.4730601906776428e-01</leafValues></_>
    <_>
      <internalNodes>
        0 -1 9120 2.6092272251844406e-02</internalNodes>
      <leafValues>
        -1.0437117516994476e-01 4.8352348804473877e-01</leafValues></_>
    <_>
      <internalNodes>
        0 -1 8415 1.8755357712507248e-02</internalNodes>
      <leafValues>
        -1.4501518011093140e-01 3.2419553399085999e-01</leafValues></_>
    <_>
      <internalNodes>
        0 -1 11332 -1.0285176336765289e-02</internalNodes>
      <leafValues>
        -8.5996943712234497e-01 4.1083119809627533e-02</leafValues></_>
    <_>
      <internalNodes>
        0 -1 6906 -7.5671702623367310e-02</internalNodes>
      <leafValues>
        4.7065666317939758e-01 -1.0114032775163651e-01</leafValues></_>
    <_>
      <internalNodes>
        0 -1 13168 -2.0997645333409309e-04</internalNodes>
      <leafValues>
        1.9705390930175781e-01 -2.4002408981323242e-01</leafValues></_>
    <_>
      <internalNodes>
        0 -1 11670 1.8518872559070587e-02</internalNodes>
      <leafValues>
        -7.5407929718494415e-02 6.3913536071777344e-01</leafValues></_>
    <_>
      <internalNodes>
        0 -1 13199 7.9895211383700371e-03</internalNodes>
      <leafValues>
        9.7851276397705078e-02 -5.1652300357818604e-01</leafValues></_>
    <_>
      <internalNodes>
        0 -1 4548 -4.5243268832564354e-03</internalNodes>
      <leafValues>
        2.7349427342414856e-01 -1.6560991108417511e-01</leafValues></_>
    <_>
      <internalNodes>
        0 -1 3651 1.1565008759498596e-01</internalNodes>
      <leafValues>
        -5.9098619967699051e-02 6.6153514385223389e-01</leafValues></_>
    <_>
      <internalNodes>
        0 -1 8566 -1.1944590369239450e-04</internalNodes>
      <leafValues>
        2.2119952738285065e-01 -1.9425572454929352e-01</leafValues></_>
    <_>
      <internalNodes>
        0 -1 11067 -4.4267955236136913e-03</internalNodes>
      <leafValues>
        -3.4578543901443481e-01 1.1623302102088928e-01</leafValues></_>
    <_>
      <internalNodes>
        0 -1 7061 -1.5527767827734351e-03</internalNodes>
      <leafValues>
        2.1693231165409088e-01 -1.8392483890056610e-01</leafValues></_>
    <_>
      <internalNodes>
        0 -1 4419 1.6726449131965637e-02</internalNodes>
      <leafValues>
        7.9968601465225220e-02 -5.6079834699630737e-01</leafValues></_>
    <_>
      <internalNodes>
        0 -1 8509 -2.1184727549552917e-02</internalNodes>
      <leafValues>
        -8.6766684055328369e-01 4.1201617568731308e-02</leafValues></_>
    <_>
      <internalNodes>
        0 -1 13608 -1.2389676645398140e-02</internalNodes>
      <leafValues>
        3.0294841527938843e-01 -1.4582365751266479e-01</leafValues></_>
    <_>
      <internalNodes>
        0 -1 11659 1.4389145188033581e-02</internalNodes>
      <leafValues>
        8.2428492605686188e-02 -5.6180357933044434e-01</leafValues></_>
    <_>
      <internalNodes>
        0 -1 9543 -9.0087130665779114e-02</internalNodes>
      <leafValues>
        4.3474853038787842e-01 -9.4652064144611359e-02</leafValues></_>
    <_>
      <internalNodes>
        0 -1 11069 4.9315169453620911e-03</internalNodes>
      <leafValues>
        -1.8009385466575623e-01 2.3222978413105011e-01</leafValues></_>
    <_>
      <internalNodes>
        0 -1 11260 -2.3280500900000334e-03</internalNodes>
      <leafValues>
        1.9411748647689819e-01 -2.3938368260860443e-01</leafValues></_>
    <_>
      <internalNodes>
        0 -1 13552 3.5131484270095825e-02</internalNodes>
      <leafValues>
        -6.8319991230964661e-02 6.2301164865493774e-01</leafValues></_>
    <_>
      <internalNodes>
        0 -1 5990 -1.5499365329742432e-01</internalNodes>
      <leafValues>
        4.0983769297599792e-01 -9.3650959432125092e-02</leafValues></_>
    <_>
      <internalNodes>
        0 -1 12328 -5.1041515544056892e-03</internalNodes>
      <leafValues>
        -3.5536587238311768e-01 1.2539286911487579e-01</leafValues></_>
    <_>
      <internalNodes>
        0 -1 2944 -1.7685109376907349e-01</internalNodes>
      <leafValues>
        5.4538434743881226e-01 -7.3322810232639313e-02</leafValues></_>
    <_>
      <internalNodes>
        0 -1 11087 -1.9550770521163940e-02</internalNodes>
      <leafValues>
        3.2580250501632690e-01 -1.1473648995161057e-01</leafValues></_>
    <_>
      <internalNodes>
        0 -1 9896 4.3429080396890640e-02</internalNodes>
      <leafValues>
        -5.9057001024484634e-02 6.9042086601257324e-01</leafValues></_>
    <_>
      <internalNodes>
        0 -1 13637 2.7816165238618851e-03</internalNodes>
      <leafValues>
        -1.9636981189250946e-01 2.2285526990890503e-01</leafValues></_>
    <_>
      <internalNodes>
        0 -1 7553 3.9919234812259674e-02</internalNodes>
      <leafValues>
        6.9063469767570496e-02 -6.2430655956268311e-01</leafValues></_>
    <_>
      <internalNodes>
        0 -1 969 1.8979564309120178e-02</internalNodes>
      <leafValues>
        5.2132133394479752e-02 -6.7803913354873657e-01</leafValues></_>
    <_>
      <internalNodes>
        0 -1 8875 4.8163477331399918e-02</internalNodes>
      <leafValues>
        -1.3160510361194611e-01 3.3448675274848938e-01</leafValues></_></weakClassifiers></stage19>
</opencv_storage>
