<?xml version="1.0"?>
<opencv_storage>
<stage5>
  <maxWeakCount>13</maxWeakCount>
  <stageThreshold>-7.6250135898590088e-01</stageThreshold>
  <weakClassifiers>
    <_>
      <internalNodes>
        0 -1 11821 9.3632005155086517e-03</internalNodes>
      <leafValues>
        -1.0906297713518143e-01 7.4535048007965088e-01</leafValues></_>
    <_>
      <internalNodes>
        0 -1 7281 -2.7262546122074127e-02</internalNodes>
      <leafValues>
        6.5393024682998657e-01 -2.0671983063220978e-01</leafValues></_>
    <_>
      <internalNodes>
        0 -1 5461 1.1062704026699066e-02</internalNodes>
      <leafValues>
        -4.0387320518493652e-01 3.0125808715820312e-01</leafValues></_>
    <_>
      <internalNodes>
        0 -1 13141 -1.9922712817788124e-02</internalNodes>
      <leafValues>
        4.4021680951118469e-01 -2.3156796395778656e-01</leafValues></_>
    <_>
      <internalNodes>
        0 -1 12318 -1.9905925728380680e-03</internalNodes>
      <leafValues>
        2.8341096639633179e-01 -3.6221230030059814e-01</leafValues></_>
    <_>
      <internalNodes>
        0 -1 10058 -1.0027775540947914e-02</internalNodes>
      <leafValues>
        -6.8277388811111450e-01 1.2804996967315674e-01</leafValues></_>
    <_>
      <internalNodes>
        0 -1 2541 2.4058824405074120e-02</internalNodes>
      <leafValues>
        -1.9653533399105072e-01 5.6863790750503540e-01</leafValues></_>
    <_>
      <internalNodes>
        0 -1 10051 -8.9814756065607071e-03</internalNodes>
      <leafValues>
        -8.1063020229339600e-01 1.3402152061462402e-01</leafValues></_>
    <_>
      <internalNodes>
        0 -1 9727 9.1257952153682709e-03</internalNodes>
      <leafValues>
        9.1991789638996124e-02 -8.1557846069335938e-01</leafValues></_>
    <_>
      <internalNodes>
        0 -1 10440 1.7234500497579575e-02</internalNodes>
      <leafValues>
        9.0041756629943848e-02 -8.1881165504455566e-01</leafValues></_>
    <_>
      <internalNodes>
        0 -1 798 7.3632872663438320e-03</internalNodes>
      <leafValues>
        -2.9663783311843872e-01 2.8193825483322144e-01</leafValues></_>
    <_>
      <internalNodes>
        0 -1 3033 -1.3884151121601462e-03</internalNodes>
      <leafValues>
        2.9508364200592041e-01 -3.2169565558433533e-01</leafValues></_>
    <_>
      <internalNodes>
        0 -1 8547 4.6031765639781952e-02</internalNodes>
      <leafValues>
        -1.0491837561130524e-01 6.9656330347061157e-01</leafValues></_></weakClassifiers></stage5>
</opencv_storage>
