<?xml version="1.0"?>
<opencv_storage>
<stage17>
  <maxWeakCount>28</maxWeakCount>
  <stageThreshold>-7.7437239885330200e-01</stageThreshold>
  <weakClassifiers>
    <_>
      <internalNodes>
        0 -1 8959 -8.3274058997631073e-03</internalNodes>
      <leafValues>
        6.2815403938293457e-01 -3.8525961339473724e-02</leafValues></_>
    <_>
      <internalNodes>
        0 -1 11823 -1.3981863856315613e-02</internalNodes>
      <leafValues>
        5.1228088140487671e-01 -1.3161718845367432e-01</leafValues></_>
    <_>
      <internalNodes>
        0 -1 7410 1.5769684687256813e-02</internalNodes>
      <leafValues>
        -1.3686284422874451e-01 4.8971056938171387e-01</leafValues></_>
    <_>
      <internalNodes>
        0 -1 793 7.3419194668531418e-03</internalNodes>
      <leafValues>
        -1.7792400717735291e-01 3.0392497777938843e-01</leafValues></_>
    <_>
      <internalNodes>
        0 -1 12283 -7.5406329706311226e-03</internalNodes>
      <leafValues>
        -3.3697903156280518e-01 1.3282427191734314e-01</leafValues></_>
    <_>
      <internalNodes>
        0 -1 6598 1.1162432841956615e-02</internalNodes>
      <leafValues>
        8.7428554892539978e-02 -5.5306130647659302e-01</leafValues></_>
    <_>
      <internalNodes>
        0 -1 6598 -1.1768886819481850e-02</internalNodes>
      <leafValues>
        -6.5441042184829712e-01 7.4328660964965820e-02</leafValues></_>
    <_>
      <internalNodes>
        0 -1 5785 7.7322972938418388e-03</internalNodes>
      <leafValues>
        1.0810698568820953e-01 -4.3662098050117493e-01</leafValues></_>
    <_>
      <internalNodes>
        0 -1 7566 7.4839264154434204e-02</internalNodes>
      <leafValues>
        5.0750464200973511e-02 -8.5431402921676636e-01</leafValues></_>
    <_>
      <internalNodes>
        0 -1 11765 4.3215285986661911e-03</internalNodes>
      <leafValues>
        9.2213898897171021e-02 -4.8598569631576538e-01</leafValues></_>
    <_>
      <internalNodes>
        0 -1 11020 -6.3938021659851074e-02</internalNodes>
      <leafValues>
        4.8973995447158813e-01 -1.0830546915531158e-01</leafValues></_>
    <_>
      <internalNodes>
        0 -1 2092 -1.7267942428588867e-02</internalNodes>
      <leafValues>
        -3.7831157445907593e-01 1.2632976472377777e-01</leafValues></_>
    <_>
      <internalNodes>
        0 -1 7552 4.6138461679220200e-02</internalNodes>
      <leafValues>
        -9.1948129236698151e-02 5.7892662286758423e-01</leafValues></_>
    <_>
      <internalNodes>
        0 -1 11883 -7.5043719261884689e-03</internalNodes>
      <leafValues>
        2.9725545644760132e-01 -1.4890249073505402e-01</leafValues></_>
    <_>
      <internalNodes>
        0 -1 12318 4.7013506991788745e-04</internalNodes>
      <leafValues>
        1.8428438901901245e-01 -3.6076369881629944e-01</leafValues></_>
    <_>
      <internalNodes>
        0 -1 3185 1.1379933357238770e-01</internalNodes>
      <leafValues>
        -1.1159868538379669e-01 4.7328907251358032e-01</leafValues></_>
    <_>
      <internalNodes>
        0 -1 8303 -7.9865837469696999e-03</internalNodes>
      <leafValues>
        -5.1109498739242554e-01 1.0270228981971741e-01</leafValues></_>
    <_>
      <internalNodes>
        0 -1 9727 -8.8131912052631378e-03</internalNodes>
      <leafValues>
        -8.1324762105941772e-01 4.1369952261447906e-02</leafValues></_>
    <_>
      <internalNodes>
        0 -1 1597 -1.7373116686940193e-02</internalNodes>
      <leafValues>
        -4.4937503337860107e-01 8.3473086357116699e-02</leafValues></_>
    <_>
      <internalNodes>
        0 -1 1302 1.8543828278779984e-02</internalNodes>
      <leafValues>
        5.7217087596654892e-02 -6.6819822788238525e-01</leafValues></_>
    <_>
      <internalNodes>
        0 -1 7453 5.7397601194679737e-03</internalNodes>
      <leafValues>
        1.3626354932785034e-01 -3.1264802813529968e-01</leafValues></_>
    <_>
      <internalNodes>
        0 -1 11784 -5.8383584022521973e-02</internalNodes>
      <leafValues>
        -9.5827245712280273e-01 4.7866899520158768e-02</leafValues></_>
    <_>
      <internalNodes>
        0 -1 8290 4.3718656525015831e-03</internalNodes>
      <leafValues>
        -2.2281810641288757e-01 1.8872590363025665e-01</leafValues></_>
    <_>
      <internalNodes>
        0 -1 8402 -1.2550449930131435e-02</internalNodes>
      <leafValues>
        6.9850581884384155e-01 -7.6605618000030518e-02</leafValues></_>
    <_>
      <internalNodes>
        0 -1 11846 -2.9313612729310989e-02</internalNodes>
      <leafValues>
        -8.9782309532165527e-01 6.9210641086101532e-02</leafValues></_>
    <_>
      <internalNodes>
        0 -1 11674 -4.1944924741983414e-03</internalNodes>
      <leafValues>
        1.8597514927387238e-01 -2.2583900392055511e-01</leafValues></_>
    <_>
      <internalNodes>
        0 -1 2540 -1.8103219568729401e-02</internalNodes>
      <leafValues>
        -5.5438989400863647e-01 7.3772378265857697e-02</leafValues></_>
    <_>
      <internalNodes>
        0 -1 6154 5.6759510189294815e-02</internalNodes>
      <leafValues>
        -8.1890374422073364e-02 5.4692751169204712e-01</leafValues></_></weakClassifiers></stage17>
</opencv_storage>
