<?xml version="1.0"?>
<opencv_storage>
<stage18>
  <maxWeakCount>29</maxWeakCount>
  <stageThreshold>-7.3029398918151855e-01</stageThreshold>
  <weakClassifiers>
    <_>
      <internalNodes>
        0 -1 10457 3.3325433731079102e-02</internalNodes>
      <leafValues>
        1.0628571361303329e-01 7.5157892704010010e-01</leafValues></_>
    <_>
      <internalNodes>
        0 -1 9991 -3.1723834574222565e-02</internalNodes>
      <leafValues>
        5.2430802583694458e-01 -1.1931659281253815e-01</leafValues></_>
    <_>
      <internalNodes>
        0 -1 1096 -1.1877729743719101e-01</internalNodes>
      <leafValues>
        3.1187292933464050e-01 -2.1352428197860718e-01</leafValues></_>
    <_>
      <internalNodes>
        0 -1 5461 4.0272288024425507e-03</internalNodes>
      <leafValues>
        -5.5405378341674805e-01 9.1523401439189911e-02</leafValues></_>
    <_>
      <internalNodes>
        0 -1 11332 1.9106569234281778e-03</internalNodes>
      <leafValues>
        -2.6785141229629517e-01 2.0925946533679962e-01</leafValues></_>
    <_>
      <internalNodes>
        0 -1 5468 -3.5525794373825192e-04</internalNodes>
      <leafValues>
        1.3627026975154877e-01 -3.7311753630638123e-01</leafValues></_>
    <_>
      <internalNodes>
        0 -1 2061 5.2043553441762924e-03</internalNodes>
      <leafValues>
        -2.1633082628250122e-01 2.2499053180217743e-01</leafValues></_>
    <_>
      <internalNodes>
        0 -1 8957 -9.6065746620297432e-03</internalNodes>
      <leafValues>
        -8.5761672258377075e-01 5.5877372622489929e-02</leafValues></_>
    <_>
      <internalNodes>
        0 -1 11658 3.6593541502952576e-02</internalNodes>
      <leafValues>
        5.7692244648933411e-02 -6.4085179567337036e-01</leafValues></_>
    <_>
      <internalNodes>
        0 -1 10552 2.3084087297320366e-03</internalNodes>
      <leafValues>
        -1.7292201519012451e-01 2.7435716986656189e-01</leafValues></_>
    <_>
      <internalNodes>
        0 -1 10061 -1.6725456342101097e-02</internalNodes>
      <leafValues>
        3.0340719223022461e-01 -1.5173953771591187e-01</leafValues></_>
    <_>
      <internalNodes>
        0 -1 13727 -1.0866422206163406e-02</internalNodes>
      <leafValues>
        -5.4277873039245605e-01 8.2674466073513031e-02</leafValues></_>
    <_>
      <internalNodes>
        0 -1 6598 1.5603976324200630e-02</internalNodes>
      <leafValues>
        6.2253814190626144e-02 -6.6454476118087769e-01</leafValues></_>
    <_>
      <internalNodes>
        0 -1 4699 1.7492200434207916e-01</internalNodes>
      <leafValues>
        -7.7713042497634888e-02 7.0108330249786377e-01</leafValues></_>
    <_>
      <internalNodes>
        0 -1 6730 7.7037870883941650e-02</internalNodes>
      <leafValues>
        6.6284373402595520e-02 -8.4437334537506104e-01</leafValues></_>
    <_>
      <internalNodes>
        0 -1 2386 2.8469320386648178e-02</internalNodes>
      <leafValues>
        9.9741570651531219e-02 -3.8656812906265259e-01</leafValues></_>
    <_>
      <internalNodes>
        0 -1 3054 3.0865490436553955e-02</internalNodes>
      <leafValues>
        -7.3212675750255585e-02 6.5473258495330811e-01</leafValues></_>
    <_>
      <internalNodes>
        0 -1 10051 8.2963164895772934e-03</internalNodes>
      <leafValues>
        6.3234463334083557e-02 -8.3966785669326782e-01</leafValues></_>
    <_>
      <internalNodes>
        0 -1 4665 -8.1865629181265831e-03</internalNodes>
      <leafValues>
        -4.8702675104141235e-01 7.2303846478462219e-02</leafValues></_>
    <_>
      <internalNodes>
        0 -1 8173 -2.5063456967473030e-02</internalNodes>
      <leafValues>
        -6.5016734600067139e-01 5.9476766735315323e-02</leafValues></_>
    <_>
      <internalNodes>
        0 -1 10092 1.8207974731922150e-02</internalNodes>
      <leafValues>
        -1.1754953861236572e-01 4.2002534866333008e-01</leafValues></_>
    <_>
      <internalNodes>
        0 -1 2403 -3.2598897814750671e-02</internalNodes>
      <leafValues>
        3.5356944799423218e-01 -1.1711546778678894e-01</leafValues></_>
    <_>
      <internalNodes>
        0 -1 4539 -3.5607662051916122e-02</internalNodes>
      <leafValues>
        -8.4679555892944336e-01 4.6408075839281082e-02</leafValues></_>
    <_>
      <internalNodes>
        0 -1 13593 8.7721562013030052e-03</internalNodes>
      <leafValues>
        7.9705476760864258e-02 -4.6181935071945190e-01</leafValues></_>
    <_>
      <internalNodes>
        0 -1 13126 -1.1926944367587566e-02</internalNodes>
      <leafValues>
        4.0811270475387573e-01 -1.1112681031227112e-01</leafValues></_>
    <_>
      <internalNodes>
        0 -1 10187 -7.5323311612010002e-03</internalNodes>
      <leafValues>
        -3.4941458702087402e-01 1.1993542313575745e-01</leafValues></_>
    <_>
      <internalNodes>
        0 -1 7526 2.0663149654865265e-02</internalNodes>
      <leafValues>
        -7.6999455690383911e-02 5.8089154958724976e-01</leafValues></_>
    <_>
      <internalNodes>
        0 -1 8149 -4.2130760848522186e-02</internalNodes>
      <leafValues>
        -8.3591794967651367e-01 5.6698821485042572e-02</leafValues></_>
    <_>
      <internalNodes>
        0 -1 4552 2.4798706173896790e-02</internalNodes>
      <leafValues>
        -1.7202901840209961e-01 2.7019622921943665e-01</leafValues></_></weakClassifiers></stage18>
</opencv_storage>
