<?xml version="1.0"?>
<opencv_storage>
<stage2>
  <maxWeakCount>10</maxWeakCount>
  <stageThreshold>-1.0287668704986572e+00</stageThreshold>
  <weakClassifiers>
    <_>
      <internalNodes>
        0 -1 12315 -3.6209721583873034e-03</internalNodes>
      <leafValues>
        7.4527114629745483e-01 -2.5314182043075562e-01</leafValues></_>
    <_>
      <internalNodes>
        0 -1 10003 3.0583985149860382e-02</internalNodes>
      <leafValues>
        -3.1272089481353760e-01 7.3936432600021362e-01</leafValues></_>
    <_>
      <internalNodes>
        0 -1 6278 -5.2495244890451431e-03</internalNodes>
      <leafValues>
        5.4992616176605225e-01 -2.9513117671012878e-01</leafValues></_>
    <_>
      <internalNodes>
        0 -1 5712 -1.5422949567437172e-02</internalNodes>
      <leafValues>
        7.4264580011367798e-01 -1.9172754883766174e-01</leafValues></_>
    <_>
      <internalNodes>
        0 -1 8945 -5.0828531384468079e-02</internalNodes>
      <leafValues>
        7.9997617006301880e-01 -1.5194340050220490e-01</leafValues></_>
    <_>
      <internalNodes>
        0 -1 9644 1.4522159472107887e-02</internalNodes>
      <leafValues>
        -2.7731332182884216e-01 6.2657094001770020e-01</leafValues></_>
    <_>
      <internalNodes>
        0 -1 8962 1.6796944662928581e-02</internalNodes>
      <leafValues>
        1.6041001677513123e-01 -8.3912152051925659e-01</leafValues></_>
    <_>
      <internalNodes>
        0 -1 9292 -8.0670993775129318e-03</internalNodes>
      <leafValues>
        -9.3828952312469482e-01 1.0847945511341095e-01</leafValues></_>
    <_>
      <internalNodes>
        0 -1 6461 -2.5942181237041950e-03</internalNodes>
      <leafValues>
        1.8966513872146606e-01 -5.2617907524108887e-01</leafValues></_>
    <_>
      <internalNodes>
        0 -1 10569 2.0714621990919113e-02</internalNodes>
      <leafValues>
        -1.9338327646255493e-01 6.2276327610015869e-01</leafValues></_></weakClassifiers></stage2>
</opencv_storage>
