<?xml version="1.0"?>
<opencv_storage>
<stage12>
  <maxWeakCount>26</maxWeakCount>
  <stageThreshold>-7.6180255413055420e-01</stageThreshold>
  <weakClassifiers>
    <_>
      <internalNodes>
        0 -1 10457 2.5946408510208130e-02</internalNodes>
      <leafValues>
        1.7857143655419350e-02 7.7031803131103516e-01</leafValues></_>
    <_>
      <internalNodes>
        0 -1 9990 4.6657495200634003e-02</internalNodes>
      <leafValues>
        -1.2819120287895203e-01 6.0070174932479858e-01</leafValues></_>
    <_>
      <internalNodes>
        0 -1 5458 1.3765935786068439e-02</internalNodes>
      <leafValues>
        -3.5983762145042419e-01 2.7625513076782227e-01</leafValues></_>
    <_>
      <internalNodes>
        0 -1 13421 1.5725968405604362e-03</internalNodes>
      <leafValues>
        -2.7397358417510986e-01 2.5142040848731995e-01</leafValues></_>
    <_>
      <internalNodes>
        0 -1 13914 -6.4502796158194542e-03</internalNodes>
      <leafValues>
        3.5291260480880737e-01 -1.9724756479263306e-01</leafValues></_>
    <_>
      <internalNodes>
        0 -1 9727 6.9510340690612793e-03</internalNodes>
      <leafValues>
        9.8788365721702576e-02 -6.3462668657302856e-01</leafValues></_>
    <_>
      <internalNodes>
        0 -1 11656 1.7031829804182053e-02</internalNodes>
      <leafValues>
        5.9326674789190292e-02 -8.3825784921646118e-01</leafValues></_>
    <_>
      <internalNodes>
        0 -1 11260 -2.5814445689320564e-03</internalNodes>
      <leafValues>
        2.2733817994594574e-01 -2.4819971621036530e-01</leafValues></_>
    <_>
      <internalNodes>
        0 -1 8509 2.8123416006565094e-02</internalNodes>
      <leafValues>
        8.0036304891109467e-02 -7.9333895444869995e-01</leafValues></_>
    <_>
      <internalNodes>
        0 -1 2053 -1.3558979844674468e-04</internalNodes>
      <leafValues>
        1.8096323311328888e-01 -3.2690700888633728e-01</leafValues></_>
    <_>
      <internalNodes>
        0 -1 3243 -2.8545726090669632e-03</internalNodes>
      <leafValues>
        3.0099946260452271e-01 -1.9251245260238647e-01</leafValues></_>
    <_>
      <internalNodes>
        0 -1 6703 4.3520424515008926e-03</internalNodes>
      <leafValues>
        -1.7009557783603668e-01 3.1634414196014404e-01</leafValues></_>
    <_>
      <internalNodes>
        0 -1 5471 1.0104870423674583e-02</internalNodes>
      <leafValues>
        1.0437794774770737e-01 -5.7770854234695435e-01</leafValues></_>
    <_>
      <internalNodes>
        0 -1 258 2.4285122752189636e-01</internalNodes>
      <leafValues>
        -1.3840767741203308e-01 4.4621098041534424e-01</leafValues></_>
    <_>
      <internalNodes>
        0 -1 5931 -5.9594824910163879e-02</internalNodes>
      <leafValues>
        5.2943783998489380e-01 -1.0493726283311844e-01</leafValues></_>
    <_>
      <internalNodes>
        0 -1 12256 7.4002200562972575e-05</internalNodes>
      <leafValues>
        -3.2032865285873413e-01 1.9176621735095978e-01</leafValues></_>
    <_>
      <internalNodes>
        0 -1 12328 -7.1505508385598660e-03</internalNodes>
      <leafValues>
        -4.6772530674934387e-01 1.1322727799415588e-01</leafValues></_>
    <_>
      <internalNodes>
        0 -1 802 7.1975663304328918e-03</internalNodes>
      <leafValues>
        -2.6107370853424072e-01 2.0022903382778168e-01</leafValues></_>
    <_>
      <internalNodes>
        0 -1 3033 -3.0384608544409275e-03</internalNodes>
      <leafValues>
        2.7646222710609436e-01 -2.3103347420692444e-01</leafValues></_>
    <_>
      <internalNodes>
        0 -1 302 4.9408469349145889e-03</internalNodes>
      <leafValues>
        1.4819261431694031e-01 -4.1550421714782715e-01</leafValues></_>
    <_>
      <internalNodes>
        0 -1 12170 -2.7667898684740067e-03</internalNodes>
      <leafValues>
        2.1076557040214539e-01 -2.4659889936447144e-01</leafValues></_>
    <_>
      <internalNodes>
        0 -1 8399 -6.9390083663165569e-03</internalNodes>
      <leafValues>
        3.2414999604225159e-01 -1.7029121518135071e-01</leafValues></_>
    <_>
      <internalNodes>
        0 -1 9881 1.9530393183231354e-02</internalNodes>
      <leafValues>
        -1.1521995812654495e-01 5.1533776521682739e-01</leafValues></_>
    <_>
      <internalNodes>
        0 -1 2226 1.9127111881971359e-02</internalNodes>
      <leafValues>
        8.4635928273200989e-02 -8.6850512027740479e-01</leafValues></_>
    <_>
      <internalNodes>
        0 -1 11332 1.3250960037112236e-02</internalNodes>
      <leafValues>
        6.8374581634998322e-02 -6.8531882762908936e-01</leafValues></_>
    <_>
      <internalNodes>
        0 -1 8961 -1.8569357693195343e-02</internalNodes>
      <leafValues>
        -7.3715126514434814e-01 6.2264993786811829e-02</leafValues></_></weakClassifiers></stage12>
</opencv_storage>
