<?xml version="1.0"?>
<opencv_storage>
<cascade>
  <stageType>BOOST</stageType>
  <featureType>HAAR</featureType>
  <height>40</height>
  <width>16</width>
  <stageParams>
    <boostType>GAB</boostType>
    <minHitRate>9.9500000476837158e-01</minHitRate>
    <maxFalseAlarm>5.0000000000000000e-01</maxFalseAlarm>
    <weightTrimRate>9.4999999999999996e-01</weightTrimRate>
    <maxDepth>1</maxDepth>
    <maxWeakCount>100</maxWeakCount></stageParams>
  <featureParams>
    <maxCatCount>0</maxCatCount>
    <featSize>1</featSize>
    <mode>BASIC</mode></featureParams>
  <stageNum>10</stageNum>
  <stages>
    <!-- stage 0 -->
    <_>
      <maxWeakCount>30</maxWeakCount>
      <stageThreshold>-7.1124708652496338e-01</stageThreshold>
      <weakClassifiers>
        <_>
          <internalNodes>
            0 -1 135 3.4212763421237469e-03</internalNodes>
          <leafValues>
            3.8656127452850342e-01 -4.5882353186607361e-01</leafValues></_>
        <_>
          <internalNodes>
            0 -1 307 -2.8535131365060806e-02</internalNodes>
          <leafValues>
            6.3786250352859497e-01 -4.0923025459051132e-02</leafValues></_>
        <_>
          <internalNodes>
            0 -1 210 5.1482615526765585e-04</internalNodes>
          <leafValues>
            -1.5265767276287079e-01 3.4693866968154907e-01</leafValues></_>
        <_>
          <internalNodes>
            0 -1 79 4.8169940710067749e-02</internalNodes>
          <leafValues>
            8.1952363252639771e-02 -5.2857393026351929e-01</leafValues></_>
        <_>
          <internalNodes>
            0 -1 196 -3.3083721064031124e-04</internalNodes>
          <leafValues>
            3.1093627214431763e-01 -1.8557249009609222e-01</leafValues></_>
        <_>
          <internalNodes>
            0 -1 134 2.8267786838114262e-03</internalNodes>
          <leafValues>
            -1.3766697049140930e-01 3.2603585720062256e-01</leafValues></_>
        <_>
          <internalNodes>
            0 -1 88 3.2075950875878334e-03</internalNodes>
          <leafValues>
            7.8182980418205261e-02 -5.4753744602203369e-01</leafValues></_>
        <_>
          <internalNodes>
            0 -1 48 -2.0641434937715530e-02</internalNodes>
          <leafValues>
            6.5214288234710693e-01 -7.0269003510475159e-02</leafValues></_>
        <_>
          <internalNodes>
            0 -1 50 2.0438104867935181e-02</internalNodes>
          <leafValues>
            -9.9621355533599854e-02 5.4061931371688843e-01</leafValues></_>
        <_>
          <internalNodes>
            0 -1 282 5.5650621652603149e-03</internalNodes>
          <leafValues>
            6.7632652819156647e-02 -7.9106229543685913e-01</leafValues></_>
        <_>
          <internalNodes>
            0 -1 28 9.3168746680021286e-03</internalNodes>
          <leafValues>
            5.9439558535814285e-02 -6.5524178743362427e-01</leafValues></_>
        <_>
          <internalNodes>
            0 -1 267 -2.0033471286296844e-02</internalNodes>
          <leafValues>
            5.6207835674285889e-01 -8.0025546252727509e-02</leafValues></_>
        <_>
          <internalNodes>
            0 -1 280 -2.4088309146463871e-03</internalNodes>
          <leafValues>
            3.5136011242866516e-01 -1.2652656435966492e-01</leafValues></_>
        <_>
          <internalNodes>
            0 -1 15 -1.4494302449747920e-03</internalNodes>
          <leafValues>
            -4.5197725296020508e-01 9.3280926346778870e-02</leafValues></_>
        <_>
          <internalNodes>
            0 -1 218 5.4738693870604038e-04</internalNodes>
          <leafValues>
            -1.4656016230583191e-01 3.2521218061447144e-01</leafValues></_>
        <_>
          <internalNodes>
            0 -1 245 -4.1935194167308509e-04</internalNodes>
          <leafValues>
            2.7764663100242615e-01 -1.6718634963035583e-01</leafValues></_>
        <_>
          <internalNodes>
            0 -1 63 1.0829658713191748e-03</internalNodes>
          <leafValues>
            8.4777370095252991e-02 -5.3392064571380615e-01</leafValues></_>
        <_>
          <internalNodes>
            0 -1 361 -2.9487069696187973e-03</internalNodes>
          <leafValues>
            -7.0504373311996460e-01 5.0950363278388977e-02</leafValues></_>
        <_>
          <internalNodes>
            0 -1 170 1.4740678481757641e-02</internalNodes>
          <leafValues>
            -1.1137235909700394e-01 3.8713553547859192e-01</leafValues></_>
        <_>
          <internalNodes>
            0 -1 30 -2.3667183704674244e-03</internalNodes>
          <leafValues>
            -4.2206206917762756e-01 1.0127237439155579e-01</leafValues></_>
        <_>
          <internalNodes>
            0 -1 228 5.7357986224815249e-04</internalNodes>
          <leafValues>
            -1.5029448270797729e-01 2.8874915838241577e-01</leafValues></_>
        <_>
          <internalNodes>
            0 -1 223 2.7201650664210320e-04</internalNodes>
          <leafValues>
            -1.4940236508846283e-01 3.8680365681648254e-01</leafValues></_>
        <_>
          <internalNodes>
            0 -1 125 7.1800313889980316e-03</internalNodes>
          <leafValues>
            7.7723778784275055e-02 -6.0864657163619995e-01</leafValues></_>
        <_>
          <internalNodes>
            0 -1 306 8.2107115304097533e-04</internalNodes>
          <leafValues>
            -1.6428604722023010e-01 2.7837467193603516e-01</leafValues></_>
        <_>
          <internalNodes>
            0 -1 106 -4.6816244721412659e-03</internalNodes>
          <leafValues>
            2.5785478949546814e-01 -1.6285547614097595e-01</leafValues></_>
        <_>
          <internalNodes>
            0 -1 10 7.7022377809043974e-05</internalNodes>
          <leafValues>
            2.0590536296367645e-01 -2.1339648962020874e-01</leafValues></_>
        <_>
          <internalNodes>
            0 -1 140 4.5800330117344856e-03</internalNodes>
          <leafValues>
            7.4067413806915283e-02 -5.6817728281021118e-01</leafValues></_>
        <_>
          <internalNodes>
            0 -1 56 -2.2215627133846283e-02</internalNodes>
          <leafValues>
            4.6668559312820435e-01 -8.9650109410285950e-02</leafValues></_>
        <_>
          <internalNodes>
            0 -1 349 -2.2497992031276226e-03</internalNodes>
          <leafValues>
            -5.3248590230941772e-01 8.0999970436096191e-02</leafValues></_>
        <_>
          <internalNodes>
            0 -1 301 -2.4738260544836521e-03</internalNodes>
          <leafValues>
            -5.1790934801101685e-01 7.7257990837097168e-02</leafValues></_></weakClassifiers></_>
    <!-- stage 1 -->
    <_>
      <maxWeakCount>31</maxWeakCount>
      <stageThreshold>-7.4369210004806519e-01</stageThreshold>
      <weakClassifiers>
        <_>
          <internalNodes>
            0 -1 100 -2.5474883615970612e-02</internalNodes>
          <leafValues>
            8.0952382087707520e-01 2.2404371201992035e-01</leafValues></_>
        <_>
          <internalNodes>
            0 -1 312 -1.5050584450364113e-02</internalNodes>
          <leafValues>
            4.9070134758949280e-01 -9.0062238276004791e-02</leafValues></_>
        <_>
          <internalNodes>
            0 -1 297 -1.3015791773796082e-02</internalNodes>
          <leafValues>
            4.4935455918312073e-01 -1.3022138178348541e-01</leafValues></_>
        <_>
          <internalNodes>
            0 -1 278 -5.9850106481462717e-04</internalNodes>
          <leafValues>
            4.2161315679550171e-01 -1.4984102547168732e-01</leafValues></_>
        <_>
          <internalNodes>
            0 -1 279 5.4789864225313067e-04</internalNodes>
          <leafValues>
            -1.3709068298339844e-01 3.7932690978050232e-01</leafValues></_>
        <_>
          <internalNodes>
            0 -1 171 1.0209701955318451e-02</internalNodes>
          <leafValues>
            -1.1472555249929428e-01 4.7583225369453430e-01</leafValues></_>
        <_>
          <internalNodes>
            0 -1 155 -1.7448578029870987e-02</internalNodes>
          <leafValues>
            4.4268506765365601e-01 -1.3191439211368561e-01</leafValues></_>
        <_>
          <internalNodes>
            0 -1 122 -4.7221649438142776e-03</internalNodes>
          <leafValues>
            4.1393607854843140e-01 -1.2106396257877350e-01</leafValues></_>
        <_>
          <internalNodes>
            0 -1 147 -7.3970615863800049e-02</internalNodes>
          <leafValues>
            -5.5233800411224365e-01 1.0436128824949265e-01</leafValues></_>
        <_>
          <internalNodes>
            0 -1 293 5.8509008958935738e-03</internalNodes>
          <leafValues>
            -1.0121232271194458e-01 5.0696194171905518e-01</leafValues></_>
        <_>
          <internalNodes>
            0 -1 242 -2.1909977658651769e-04</internalNodes>
          <leafValues>
            3.2744869589805603e-01 -1.6823424398899078e-01</leafValues></_>
        <_>
          <internalNodes>
            0 -1 27 -2.9139295220375061e-02</internalNodes>
          <leafValues>
            4.6653681993484497e-01 -1.1762847751379013e-01</leafValues></_>
        <_>
          <internalNodes>
            0 -1 243 -1.1057825759053230e-04</internalNodes>
          <leafValues>
            2.9956811666488647e-01 -1.8773645162582397e-01</leafValues></_>
        <_>
          <internalNodes>
            0 -1 186 -4.5665665529668331e-03</internalNodes>
          <leafValues>
            4.0448418259620667e-01 -1.1677371710538864e-01</leafValues></_>
        <_>
          <internalNodes>
            0 -1 26 2.0284641534090042e-02</internalNodes>
          <leafValues>
            -9.4646334648132324e-02 5.2022337913513184e-01</leafValues></_>
        <_>
          <internalNodes>
            0 -1 150 3.6697890609502792e-03</internalNodes>
          <leafValues>
            1.0559552162885666e-01 -4.9049648642539978e-01</leafValues></_>
        <_>
          <internalNodes>
            0 -1 332 -3.4522444009780884e-02</internalNodes>
          <leafValues>
            7.2807890176773071e-01 -6.8745546042919159e-02</leafValues></_>
        <_>
          <internalNodes>
            0 -1 49 2.0383163355290890e-03</internalNodes>
          <leafValues>
            1.2694482505321503e-01 -3.9404043555259705e-01</leafValues></_>
        <_>
          <internalNodes>
            0 -1 31 -4.2620004387572408e-04</internalNodes>
          <leafValues>
            -1.9305138289928436e-01 2.3371018469333649e-01</leafValues></_>
        <_>
          <internalNodes>
            0 -1 160 -2.7479720301926136e-03</internalNodes>
          <leafValues>
            3.1627219915390015e-01 -1.4117702841758728e-01</leafValues></_>
        <_>
          <internalNodes>
            0 -1 158 -9.0874031186103821e-02</internalNodes>
          <leafValues>
            -5.7439053058624268e-01 8.3854891359806061e-02</leafValues></_>
        <_>
          <internalNodes>
            0 -1 221 -1.2664485257118940e-03</internalNodes>
          <leafValues>
            4.1154360771179199e-01 -1.2491410970687866e-01</leafValues></_>
        <_>
          <internalNodes>
            0 -1 222 1.2744094710797071e-03</internalNodes>
          <leafValues>
            -1.1151488125324249e-01 4.2250549793243408e-01</leafValues></_>
        <_>
          <internalNodes>
            0 -1 271 1.3046357780694962e-02</internalNodes>
          <leafValues>
            1.0292783379554749e-01 -5.1850652694702148e-01</leafValues></_>
        <_>
          <internalNodes>
            0 -1 52 5.0257616676390171e-03</internalNodes>
          <leafValues>
            -1.0825590789318085e-01 5.0458383560180664e-01</leafValues></_>
        <_>
          <internalNodes>
            0 -1 346 5.2053211256861687e-03</internalNodes>
          <leafValues>
            -8.6246408522129059e-02 5.1635098457336426e-01</leafValues></_>
        <_>
          <internalNodes>
            0 -1 173 -5.1549550145864487e-02</internalNodes>
          <leafValues>
            -4.1069725155830383e-01 1.2357655912637711e-01</leafValues></_>
        <_>
          <internalNodes>
            0 -1 193 -1.0727418120950460e-03</internalNodes>
          <leafValues>
            5.1961499452590942e-01 -9.1845534741878510e-02</leafValues></_>
        <_>
          <internalNodes>
            0 -1 67 -7.5537646189332008e-03</internalNodes>
          <leafValues>
            3.5378846526145935e-01 -1.1842618137598038e-01</leafValues></_>
        <_>
          <internalNodes>
            0 -1 167 -4.8138297279365361e-04</internalNodes>
          <leafValues>
            3.2458585500717163e-01 -1.3978886604309082e-01</leafValues></_>
        <_>
          <internalNodes>
            0 -1 72 4.9130053957924247e-04</internalNodes>
          <leafValues>
            -1.4977385103702545e-01 3.0093607306480408e-01</leafValues></_></weakClassifiers></_>
    <!-- stage 2 -->
    <_>
      <maxWeakCount>29</maxWeakCount>
      <stageThreshold>-6.3231945037841797e-01</stageThreshold>
      <weakClassifiers>
        <_>
          <internalNodes>
            0 -1 13 -2.5956181809306145e-02</internalNodes>
          <leafValues>
            -2.9687500000000000e-01 3.9934533834457397e-01</leafValues></_>
        <_>
          <internalNodes>
            0 -1 97 5.2757756784558296e-03</internalNodes>
          <leafValues>
            -9.9881283938884735e-02 5.0844383239746094e-01</leafValues></_>
        <_>
          <internalNodes>
            0 -1 177 1.5789989382028580e-02</internalNodes>
          <leafValues>
            -8.4418460726737976e-02 6.2419265508651733e-01</leafValues></_>
        <_>
          <internalNodes>
            0 -1 318 1.9568117335438728e-02</internalNodes>
          <leafValues>
            -6.6483758389949799e-02 7.6920449733734131e-01</leafValues></_>
        <_>
          <internalNodes>
            0 -1 281 9.9700409919023514e-03</internalNodes>
          <leafValues>
            -1.5611277520656586e-01 3.9475589990615845e-01</leafValues></_>
        <_>
          <internalNodes>
            0 -1 231 1.7573978751897812e-02</internalNodes>
          <leafValues>
            -7.8337267041206360e-02 5.5377817153930664e-01</leafValues></_>
        <_>
          <internalNodes>
            0 -1 288 -6.4975535497069359e-03</internalNodes>
          <leafValues>
            -7.9982060194015503e-01 5.8590505272150040e-02</leafValues></_>
        <_>
          <internalNodes>
            0 -1 42 -8.0644786357879639e-03</internalNodes>
          <leafValues>
            5.3055375814437866e-01 -1.0016487538814545e-01</leafValues></_>
        <_>
          <internalNodes>
            0 -1 8 1.1674201115965843e-02</internalNodes>
          <leafValues>
            -7.2615049779415131e-02 5.7107383012771606e-01</leafValues></_>
        <_>
          <internalNodes>
            0 -1 315 -1.1721478775143623e-02</internalNodes>
          <leafValues>
            8.3988898992538452e-01 -4.8098359256982803e-02</leafValues></_>
        <_>
          <internalNodes>
            0 -1 236 2.1228441037237644e-03</internalNodes>
          <leafValues>
            -9.1211140155792236e-02 4.4076320528984070e-01</leafValues></_>
        <_>
          <internalNodes>
            0 -1 86 2.1339353173971176e-02</internalNodes>
          <leafValues>
            -7.2193749248981476e-02 5.5843377113342285e-01</leafValues></_>
        <_>
          <internalNodes>
            0 -1 360 -7.6801925897598267e-03</internalNodes>
          <leafValues>
            4.8506265878677368e-01 -8.2613766193389893e-02</leafValues></_>
        <_>
          <internalNodes>
            0 -1 68 2.4056043475866318e-03</internalNodes>
          <leafValues>
            8.9187398552894592e-02 -5.5848467350006104e-01</leafValues></_>
        <_>
          <internalNodes>
            0 -1 363 1.7163813114166260e-02</internalNodes>
          <leafValues>
            -8.0886401236057281e-02 5.6749522686004639e-01</leafValues></_>
        <_>
          <internalNodes>
            0 -1 2 5.6361192837357521e-03</internalNodes>
          <leafValues>
            8.1677921116352081e-02 -6.2728393077850342e-01</leafValues></_>
        <_>
          <internalNodes>
            0 -1 291 1.8043776508420706e-03</internalNodes>
          <leafValues>
            -9.7633890807628632e-02 5.3010213375091553e-01</leafValues></_>
        <_>
          <internalNodes>
            0 -1 314 -2.2565894760191441e-03</internalNodes>
          <leafValues>
            2.5695937871932983e-01 -1.8735352158546448e-01</leafValues></_>
        <_>
          <internalNodes>
            0 -1 196 -4.8237130977213383e-04</internalNodes>
          <leafValues>
            3.9757344126701355e-01 -1.4012520015239716e-01</leafValues></_>
        <_>
          <internalNodes>
            0 -1 276 -3.0368033796548843e-02</internalNodes>
          <leafValues>
            6.9428008794784546e-01 -6.9808289408683777e-02</leafValues></_>
        <_>
          <internalNodes>
            0 -1 3 -1.2165725929662585e-03</internalNodes>
          <leafValues>
            -2.9458540678024292e-01 1.7013174295425415e-01</leafValues></_>
        <_>
          <internalNodes>
            0 -1 89 -6.7697931081056595e-04</internalNodes>
          <leafValues>
            3.7869596481323242e-01 -1.1798541992902756e-01</leafValues></_>
        <_>
          <internalNodes>
            0 -1 38 6.3828844577074051e-03</internalNodes>
          <leafValues>
            8.5073545575141907e-02 -5.7844895124435425e-01</leafValues></_>
        <_>
          <internalNodes>
            0 -1 290 -3.1418516300618649e-03</internalNodes>
          <leafValues>
            -5.1852416992187500e-01 8.1863798201084137e-02</leafValues></_>
        <_>
          <internalNodes>
            0 -1 213 -5.5348593741655350e-04</internalNodes>
          <leafValues>
            3.6294433474540710e-01 -1.2976166605949402e-01</leafValues></_>
        <_>
          <internalNodes>
            0 -1 96 2.2050915285944939e-03</internalNodes>
          <leafValues>
            -1.0985947400331497e-01 3.9954292774200439e-01</leafValues></_>
        <_>
          <internalNodes>
            0 -1 32 1.1146421544253826e-02</internalNodes>
          <leafValues>
            6.3113428652286530e-02 -7.4872022867202759e-01</leafValues></_>
        <_>
          <internalNodes>
            0 -1 80 2.4668745696544647e-02</internalNodes>
          <leafValues>
            5.4073162376880646e-02 -6.3569360971450806e-01</leafValues></_>
        <_>
          <internalNodes>
            0 -1 338 1.5782482922077179e-02</internalNodes>
          <leafValues>
            -6.4009226858615875e-02 6.9046723842620850e-01</leafValues></_></weakClassifiers></_>
    <!-- stage 3 -->
    <_>
      <maxWeakCount>35</maxWeakCount>
      <stageThreshold>-7.2081756591796875e-01</stageThreshold>
      <weakClassifiers>
        <_>
          <internalNodes>
            0 -1 327 7.7716130763292313e-03</internalNodes>
          <leafValues>
            3.6529681086540222e-01 -8.3333331346511841e-01</leafValues></_>
        <_>
          <internalNodes>
            0 -1 53 2.0946096628904343e-02</internalNodes>
          <leafValues>
            -7.4391029775142670e-02 5.0948071479797363e-01</leafValues></_>
        <_>
          <internalNodes>
            0 -1 65 -1.4228519052267075e-02</internalNodes>
          <leafValues>
            5.2621096372604370e-01 -8.8159963488578796e-02</leafValues></_>
        <_>
          <internalNodes>
            0 -1 266 -9.2550888657569885e-03</internalNodes>
          <leafValues>
            5.2156192064285278e-01 -7.6209798455238342e-02</leafValues></_>
        <_>
          <internalNodes>
            0 -1 55 2.5276377797126770e-02</internalNodes>
          <leafValues>
            7.9169929027557373e-02 -4.3413692712783813e-01</leafValues></_>
        <_>
          <internalNodes>
            0 -1 348 2.9707591980695724e-02</internalNodes>
          <leafValues>
            -7.0572927594184875e-02 6.0620325803756714e-01</leafValues></_>
        <_>
          <internalNodes>
            0 -1 108 -5.0753587856888771e-03</internalNodes>
          <leafValues>
            -4.8881724476814270e-01 7.5663052499294281e-02</leafValues></_>
        <_>
          <internalNodes>
            0 -1 153 3.9145834743976593e-02</internalNodes>
          <leafValues>
            -6.0726344585418701e-02 6.9131028652191162e-01</leafValues></_>
        <_>
          <internalNodes>
            0 -1 355 -1.3091331347823143e-03</internalNodes>
          <leafValues>
            3.0078837275505066e-01 -1.3137966394424438e-01</leafValues></_>
        <_>
          <internalNodes>
            0 -1 185 2.0047817379236221e-03</internalNodes>
          <leafValues>
            1.0326945036649704e-01 -3.9368024468421936e-01</leafValues></_>
        <_>
          <internalNodes>
            0 -1 275 2.0772013813257217e-02</internalNodes>
          <leafValues>
            -9.0378515422344208e-02 4.5550465583801270e-01</leafValues></_>
        <_>
          <internalNodes>
            0 -1 249 -5.4961326532065868e-04</internalNodes>
          <leafValues>
            3.1476971507072449e-01 -1.3708217442035675e-01</leafValues></_>
        <_>
          <internalNodes>
            0 -1 351 2.5929349940270185e-03</internalNodes>
          <leafValues>
            7.0117719471454620e-02 -6.7558109760284424e-01</leafValues></_>
        <_>
          <internalNodes>
            0 -1 164 -3.6611777613870800e-04</internalNodes>
          <leafValues>
            3.0935937166213989e-01 -1.3790199160575867e-01</leafValues></_>
        <_>
          <internalNodes>
            0 -1 207 1.0837267618626356e-03</internalNodes>
          <leafValues>
            9.8762743175029755e-02 -4.2002281546592712e-01</leafValues></_>
        <_>
          <internalNodes>
            0 -1 138 -3.3609144389629364e-02</internalNodes>
          <leafValues>
            -6.0808032751083374e-01 6.2737174332141876e-02</leafValues></_>
        <_>
          <internalNodes>
            0 -1 51 -5.4663908667862415e-03</internalNodes>
          <leafValues>
            4.1451156139373779e-01 -1.0473424196243286e-01</leafValues></_>
        <_>
          <internalNodes>
            0 -1 35 2.7449754998087883e-03</internalNodes>
          <leafValues>
            9.4644002616405487e-02 -4.9217283725738525e-01</leafValues></_>
        <_>
          <internalNodes>
            0 -1 240 -2.7074594981968403e-04</internalNodes>
          <leafValues>
            2.9647779464721680e-01 -1.5470463037490845e-01</leafValues></_>
        <_>
          <internalNodes>
            0 -1 181 -3.8494085893034935e-03</internalNodes>
          <leafValues>
            4.4750431180000305e-01 -9.1289035975933075e-02</leafValues></_>
        <_>
          <internalNodes>
            0 -1 201 -1.5618102625012398e-02</internalNodes>
          <leafValues>
            4.4715541601181030e-01 -9.4733074307441711e-02</leafValues></_>
        <_>
          <internalNodes>
            0 -1 118 -1.6157091595232487e-03</internalNodes>
          <leafValues>
            -3.7202629446983337e-01 1.1464940756559372e-01</leafValues></_>
        <_>
          <internalNodes>
            0 -1 289 -5.5052479729056358e-03</internalNodes>
          <leafValues>
            5.5849415063858032e-01 -7.9109445214271545e-02</leafValues></_>
        <_>
          <internalNodes>
            0 -1 105 -8.5992775857448578e-03</internalNodes>
          <leafValues>
            3.4279105067253113e-01 -1.1494977027177811e-01</leafValues></_>
        <_>
          <internalNodes>
            0 -1 113 9.8672136664390564e-03</internalNodes>
          <leafValues>
            -7.8122548758983612e-02 5.3037518262863159e-01</leafValues></_>
        <_>
          <internalNodes>
            0 -1 248 -5.4056313820183277e-04</internalNodes>
          <leafValues>
            3.0478060245513916e-01 -1.3820087909698486e-01</leafValues></_>
        <_>
          <internalNodes>
            0 -1 70 -2.2925974335521460e-03</internalNodes>
          <leafValues>
            -3.9807978272438049e-01 1.1614158749580383e-01</leafValues></_>
        <_>
          <internalNodes>
            0 -1 159 -9.5775161753408611e-05</internalNodes>
          <leafValues>
            2.1691103279590607e-01 -1.8753181397914886e-01</leafValues></_>
        <_>
          <internalNodes>
            0 -1 371 -1.2329397723078728e-03</internalNodes>
          <leafValues>
            -5.9812241792678833e-01 6.8746663630008698e-02</leafValues></_>
        <_>
          <internalNodes>
            0 -1 148 -9.9620874971151352e-03</internalNodes>
          <leafValues>
            6.1139571666717529e-01 -7.3820747435092926e-02</leafValues></_>
        <_>
          <internalNodes>
            0 -1 1 4.6109891263768077e-04</internalNodes>
          <leafValues>
            1.6125948727130890e-01 -3.0848488211631775e-01</leafValues></_>
        <_>
          <internalNodes>
            0 -1 81 1.2403556611388922e-03</internalNodes>
          <leafValues>
            -1.1731053143739700e-01 3.3465856313705444e-01</leafValues></_>
        <_>
          <internalNodes>
            0 -1 69 -7.7218478545546532e-03</internalNodes>
          <leafValues>
            -6.7359495162963867e-01 6.6417053341865540e-02</leafValues></_>
        <_>
          <internalNodes>
            0 -1 95 -2.0386774558573961e-03</internalNodes>
          <leafValues>
            -4.0879011154174805e-01 8.9570142328739166e-02</leafValues></_>
        <_>
          <internalNodes>
            0 -1 331 1.6730174422264099e-02</internalNodes>
          <leafValues>
            -8.1409350037574768e-02 4.9810105562210083e-01</leafValues></_></weakClassifiers></_>
    <!-- stage 4 -->
    <_>
      <maxWeakCount>37</maxWeakCount>
      <stageThreshold>-6.5834802389144897e-01</stageThreshold>
      <weakClassifiers>
        <_>
          <internalNodes>
            0 -1 232 -1.4125186949968338e-02</internalNodes>
          <leafValues>
            7.3333334922790527e-01 2.4018265306949615e-01</leafValues></_>
        <_>
          <internalNodes>
            0 -1 136 3.6807721480727196e-03</internalNodes>
          <leafValues>
            -9.6859887242317200e-02 3.5993057489395142e-01</leafValues></_>
        <_>
          <internalNodes>
            0 -1 321 -2.1593114361166954e-03</internalNodes>
          <leafValues>
            -5.6727975606918335e-01 5.5689457803964615e-02</leafValues></_>
        <_>
          <internalNodes>
            0 -1 163 -1.0167417116463184e-02</internalNodes>
          <leafValues>
            -6.2391459941864014e-01 6.4546629786491394e-02</leafValues></_>
        <_>
          <internalNodes>
            0 -1 33 3.1386590562760830e-03</internalNodes>
          <leafValues>
            5.4564587771892548e-02 -6.2490582466125488e-01</leafValues></_>
        <_>
          <internalNodes>
            0 -1 132 -1.1931519955396652e-02</internalNodes>
          <leafValues>
            6.2774753570556641e-01 -6.2866918742656708e-02</leafValues></_>
        <_>
          <internalNodes>
            0 -1 320 2.7881161076948047e-04</internalNodes>
          <leafValues>
            -1.6465926170349121e-01 2.5755739212036133e-01</leafValues></_>
        <_>
          <internalNodes>
            0 -1 90 -1.7140784766525030e-03</internalNodes>
          <leafValues>
            -6.4359611272811890e-01 6.6886126995086670e-02</leafValues></_>
        <_>
          <internalNodes>
            0 -1 265 1.7559156985953450e-03</internalNodes>
          <leafValues>
            -1.0721693933010101e-01 4.0004643797874451e-01</leafValues></_>
        <_>
          <internalNodes>
            0 -1 334 5.7499943068251014e-05</internalNodes>
          <leafValues>
            -1.8881337344646454e-01 2.2726871073246002e-01</leafValues></_>
        <_>
          <internalNodes>
            0 -1 257 -2.0142633467912674e-02</internalNodes>
          <leafValues>
            5.5170983076095581e-01 -6.6808432340621948e-02</leafValues></_>
        <_>
          <internalNodes>
            0 -1 189 1.5095081180334091e-02</internalNodes>
          <leafValues>
            1.0615824908018112e-01 -3.8646590709686279e-01</leafValues></_>
        <_>
          <internalNodes>
            0 -1 91 -8.5789766162633896e-03</internalNodes>
          <leafValues>
            -3.3851850032806396e-01 1.3037373125553131e-01</leafValues></_>
        <_>
          <internalNodes>
            0 -1 73 -3.5613183863461018e-03</internalNodes>
          <leafValues>
            -4.8787793517112732e-01 8.5988380014896393e-02</leafValues></_>
        <_>
          <internalNodes>
            0 -1 154 -3.1775906682014465e-02</internalNodes>
          <leafValues>
            6.4126008749008179e-01 -6.1909276992082596e-02</leafValues></_>
        <_>
          <internalNodes>
            0 -1 191 -3.4080952173098922e-04</internalNodes>
          <leafValues>
            3.1841289997100830e-01 -1.1391171067953110e-01</leafValues></_>
        <_>
          <internalNodes>
            0 -1 328 2.9989011585712433e-02</internalNodes>
          <leafValues>
            -6.8033032119274139e-02 5.7000482082366943e-01</leafValues></_>
        <_>
          <internalNodes>
            0 -1 11 -7.2225858457386494e-04</internalNodes>
          <leafValues>
            -3.7064024806022644e-01 1.1478637903928757e-01</leafValues></_>
        <_>
          <internalNodes>
            0 -1 352 6.7331204190850258e-03</internalNodes>
          <leafValues>
            -1.2600898742675781e-01 3.4182828664779663e-01</leafValues></_>
        <_>
          <internalNodes>
            0 -1 304 -1.8839209806174040e-03</internalNodes>
          <leafValues>
            -3.9125412702560425e-01 1.0480652004480362e-01</leafValues></_>
        <_>
          <internalNodes>
            0 -1 235 -1.5053782844915986e-03</internalNodes>
          <leafValues>
            3.2845607399940491e-01 -1.2073309719562531e-01</leafValues></_>
        <_>
          <internalNodes>
            0 -1 362 1.0201359167695045e-02</internalNodes>
          <leafValues>
            -1.1631546169519424e-01 3.2250666618347168e-01</leafValues></_>
        <_>
          <internalNodes>
            0 -1 179 -2.1301060914993286e-03</internalNodes>
          <leafValues>
            -5.5157148838043213e-01 6.9710358977317810e-02</leafValues></_>
        <_>
          <internalNodes>
            0 -1 258 -1.0135994525626302e-03</internalNodes>
          <leafValues>
            2.5048607587814331e-01 -1.7842151224613190e-01</leafValues></_>
        <_>
          <internalNodes>
            0 -1 12 -6.4976781606674194e-02</internalNodes>
          <leafValues>
            -6.3544762134552002e-01 6.8737298250198364e-02</leafValues></_>
        <_>
          <internalNodes>
            0 -1 114 -7.2416663169860840e-03</internalNodes>
          <leafValues>
            3.2446244359016418e-01 -1.2455628067255020e-01</leafValues></_>
        <_>
          <internalNodes>
            0 -1 98 2.2625241428613663e-02</internalNodes>
          <leafValues>
            -8.3295390009880066e-02 4.7596332430839539e-01</leafValues></_>
        <_>
          <internalNodes>
            0 -1 41 2.3605348542332649e-03</internalNodes>
          <leafValues>
            5.6183956563472748e-02 -6.9908505678176880e-01</leafValues></_>
        <_>
          <internalNodes>
            0 -1 296 1.8859128467738628e-03</internalNodes>
          <leafValues>
            7.4093155562877655e-02 -4.3396070599555969e-01</leafValues></_>
        <_>
          <internalNodes>
            0 -1 353 2.1586962975561619e-03</internalNodes>
          <leafValues>
            4.7533895820379257e-02 -8.0015611648559570e-01</leafValues></_>
        <_>
          <internalNodes>
            0 -1 36 -2.6420380454510450e-03</internalNodes>
          <leafValues>
            3.2365593314170837e-01 -1.2678685784339905e-01</leafValues></_>
        <_>
          <internalNodes>
            0 -1 43 -1.3891451526433229e-03</internalNodes>
          <leafValues>
            -3.5690331459045410e-01 1.0954280197620392e-01</leafValues></_>
        <_>
          <internalNodes>
            0 -1 269 1.0273185372352600e-01</internalNodes>
          <leafValues>
            7.9549781978130341e-02 -5.2431893348693848e-01</leafValues></_>
        <_>
          <internalNodes>
            0 -1 272 -2.5089655537158251e-04</internalNodes>
          <leafValues>
            2.6757922768592834e-01 -1.4879442751407623e-01</leafValues></_>
        <_>
          <internalNodes>
            0 -1 323 -1.2101840227842331e-02</internalNodes>
          <leafValues>
            4.0756136178970337e-01 -9.0207405388355255e-02</leafValues></_>
        <_>
          <internalNodes>
            0 -1 233 -7.3019787669181824e-03</internalNodes>
          <leafValues>
            -4.3381240963935852e-01 1.0051544755697250e-01</leafValues></_>
        <_>
          <internalNodes>
            0 -1 37 1.7596394754946232e-03</internalNodes>
          <leafValues>
            6.6544599831104279e-02 -5.4523462057113647e-01</leafValues></_></weakClassifiers></_>
    <!-- stage 5 -->
    <_>
      <maxWeakCount>37</maxWeakCount>
      <stageThreshold>-5.7107180356979370e-01</stageThreshold>
      <weakClassifiers>
        <_>
          <internalNodes>
            0 -1 110 -2.3326775990426540e-03</internalNodes>
          <leafValues>
            5.7142859697341919e-01 2.1507760882377625e-01</leafValues></_>
        <_>
          <internalNodes>
            0 -1 178 2.4448648095130920e-02</internalNodes>
          <leafValues>
            -3.7581972777843475e-02 6.6287690401077271e-01</leafValues></_>
        <_>
          <internalNodes>
            0 -1 175 -2.4732123129069805e-03</internalNodes>
          <leafValues>
            2.2932714223861694e-01 -2.2306533157825470e-01</leafValues></_>
        <_>
          <internalNodes>
            0 -1 256 2.7623321861028671e-02</internalNodes>
          <leafValues>
            -2.1675786003470421e-02 6.4135062694549561e-01</leafValues></_>
        <_>
          <internalNodes>
            0 -1 286 1.0846278630197048e-02</internalNodes>
          <leafValues>
            -1.1605931073427200e-01 3.3793282508850098e-01</leafValues></_>
        <_>
          <internalNodes>
            0 -1 341 1.9629397429525852e-03</internalNodes>
          <leafValues>
            -1.2635704874992371e-01 2.8208097815513611e-01</leafValues></_>
        <_>
          <internalNodes>
            0 -1 347 1.4118272811174393e-02</internalNodes>
          <leafValues>
            -6.4571656286716461e-02 5.9884363412857056e-01</leafValues></_>
        <_>
          <internalNodes>
            0 -1 263 2.6425402611494064e-03</internalNodes>
          <leafValues>
            8.8664129376411438e-02 -4.7393813729286194e-01</leafValues></_>
        <_>
          <internalNodes>
            0 -1 329 -1.0655649006366730e-02</internalNodes>
          <leafValues>
            3.3581626415252686e-01 -1.0459276288747787e-01</leafValues></_>
        <_>
          <internalNodes>
            0 -1 184 -1.1753211729228497e-03</internalNodes>
          <leafValues>
            3.7320700287818909e-01 -9.1100014746189117e-02</leafValues></_>
        <_>
          <internalNodes>
            0 -1 54 -1.3307116925716400e-01</internalNodes>
          <leafValues>
            -6.7967689037322998e-01 5.6582432240247726e-02</leafValues></_>
        <_>
          <internalNodes>
            0 -1 268 -1.2785853818058968e-02</internalNodes>
          <leafValues>
            2.2786965966224670e-01 -1.5740336477756500e-01</leafValues></_>
        <_>
          <internalNodes>
            0 -1 127 -1.0603250935673714e-02</internalNodes>
          <leafValues>
            -4.1476181149482727e-01 8.0715708434581757e-02</leafValues></_>
        <_>
          <internalNodes>
            0 -1 325 -4.2311558499932289e-03</internalNodes>
          <leafValues>
            3.4345173835754395e-01 -1.1179322004318237e-01</leafValues></_>
        <_>
          <internalNodes>
            0 -1 322 3.1119065824896097e-03</internalNodes>
          <leafValues>
            6.6364310681819916e-02 -5.6892418861389160e-01</leafValues></_>
        <_>
          <internalNodes>
            0 -1 29 5.0566229037940502e-04</internalNodes>
          <leafValues>
            -1.0701830685138702e-01 3.5587343573570251e-01</leafValues></_>
        <_>
          <internalNodes>
            0 -1 5 4.1221920400857925e-03</internalNodes>
          <leafValues>
            6.7250765860080719e-02 -5.2257812023162842e-01</leafValues></_>
        <_>
          <internalNodes>
            0 -1 227 -7.6729070860892534e-04</internalNodes>
          <leafValues>
            3.1586349010467529e-01 -1.2577478587627411e-01</leafValues></_>
        <_>
          <internalNodes>
            0 -1 120 -1.7764161748345941e-04</internalNodes>
          <leafValues>
            2.7708417177200317e-01 -1.4127880334854126e-01</leafValues></_>
        <_>
          <internalNodes>
            0 -1 246 -1.0985611006617546e-03</internalNodes>
          <leafValues>
            3.8248455524444580e-01 -8.5793271660804749e-02</leafValues></_>
        <_>
          <internalNodes>
            0 -1 117 -3.7939748726785183e-03</internalNodes>
          <leafValues>
            -6.2151008844375610e-01 5.8784935623407364e-02</leafValues></_>
        <_>
          <internalNodes>
            0 -1 354 1.1722736060619354e-02</internalNodes>
          <leafValues>
            -6.5056249499320984e-02 5.8302652835845947e-01</leafValues></_>
        <_>
          <internalNodes>
            0 -1 23 -3.4867604263126850e-03</internalNodes>
          <leafValues>
            -5.4415607452392578e-01 6.6917143762111664e-02</leafValues></_>
        <_>
          <internalNodes>
            0 -1 188 -2.5499536423012614e-04</internalNodes>
          <leafValues>
            2.5843602418899536e-01 -1.3930183649063110e-01</leafValues></_>
        <_>
          <internalNodes>
            0 -1 209 -1.2388186529278755e-02</internalNodes>
          <leafValues>
            -5.4461324214935303e-01 7.1159005165100098e-02</leafValues></_>
        <_>
          <internalNodes>
            0 -1 249 -4.0564773371443152e-04</internalNodes>
          <leafValues>
            2.5360101461410522e-01 -1.3276760280132294e-01</leafValues></_>
        <_>
          <internalNodes>
            0 -1 119 -2.1735001355409622e-03</internalNodes>
          <leafValues>
            3.2673788070678711e-01 -1.0712089389562607e-01</leafValues></_>
        <_>
          <internalNodes>
            0 -1 310 -2.5242781266570091e-03</internalNodes>
          <leafValues>
            -6.4072382450103760e-01 5.5482666939496994e-02</leafValues></_>
        <_>
          <internalNodes>
            0 -1 16 -3.3507023006677628e-02</internalNodes>
          <leafValues>
            7.4810522794723511e-01 -5.3077723830938339e-02</leafValues></_>
        <_>
          <internalNodes>
            0 -1 18 8.6978431791067123e-03</internalNodes>
          <leafValues>
            -6.8922579288482666e-02 4.9144220352172852e-01</leafValues></_>
        <_>
          <internalNodes>
            0 -1 62 9.3277096748352051e-02</internalNodes>
          <leafValues>
            -5.7406146079301834e-02 5.4211914539337158e-01</leafValues></_>
        <_>
          <internalNodes>
            0 -1 216 -2.4346273858100176e-04</internalNodes>
          <leafValues>
            2.6996359229087830e-01 -1.3140287995338440e-01</leafValues></_>
        <_>
          <internalNodes>
            0 -1 103 3.8866038084961474e-04</internalNodes>
          <leafValues>
            -2.0870891213417053e-01 1.8288958072662354e-01</leafValues></_>
        <_>
          <internalNodes>
            0 -1 24 -2.4564382620155811e-03</internalNodes>
          <leafValues>
            -3.9754104614257812e-01 9.8286911845207214e-02</leafValues></_>
        <_>
          <internalNodes>
            0 -1 22 2.4488523602485657e-01</internalNodes>
          <leafValues>
            7.1386933326721191e-02 -5.0434446334838867e-01</leafValues></_>
        <_>
          <internalNodes>
            0 -1 238 1.6853432171046734e-03</internalNodes>
          <leafValues>
            -1.1524011194705963e-01 3.6249107122421265e-01</leafValues></_>
        <_>
          <internalNodes>
            0 -1 316 -1.8309408915229142e-04</internalNodes>
          <leafValues>
            1.9905649125576019e-01 -1.7383930087089539e-01</leafValues></_></weakClassifiers></_>
    <!-- stage 6 -->
    <_>
      <maxWeakCount>42</maxWeakCount>
      <stageThreshold>-6.3790845870971680e-01</stageThreshold>
      <weakClassifiers>
        <_>
          <internalNodes>
            0 -1 311 -4.1504958644509315e-03</internalNodes>
          <leafValues>
            -2.8000000119209290e-01 3.8240000605583191e-01</leafValues></_>
        <_>
          <internalNodes>
            0 -1 259 1.2567339465022087e-02</internalNodes>
          <leafValues>
            -7.3762111365795135e-02 4.4466063380241394e-01</leafValues></_>
        <_>
          <internalNodes>
            0 -1 262 -2.6520909741520882e-03</internalNodes>
          <leafValues>
            3.6022356152534485e-01 -9.8239302635192871e-02</leafValues></_>
        <_>
          <internalNodes>
            0 -1 215 3.5011337604373693e-04</internalNodes>
          <leafValues>
            -1.0474474728107452e-01 3.0933642387390137e-01</leafValues></_>
        <_>
          <internalNodes>
            0 -1 216 3.5781634505838156e-04</internalNodes>
          <leafValues>
            -1.7597021162509918e-01 2.9158347845077515e-01</leafValues></_>
        <_>
          <internalNodes>
            0 -1 182 -7.9349742736667395e-04</internalNodes>
          <leafValues>
            -2.4774317443370819e-01 1.4080956578254700e-01</leafValues></_>
        <_>
          <internalNodes>
            0 -1 143 2.0076351938769221e-04</internalNodes>
          <leafValues>
            -1.5825510025024414e-01 2.1872250735759735e-01</leafValues></_>
        <_>
          <internalNodes>
            0 -1 71 7.2538508102297783e-03</internalNodes>
          <leafValues>
            3.8206215947866440e-02 -8.1865304708480835e-01</leafValues></_>
        <_>
          <internalNodes>
            0 -1 141 -3.3611408434808254e-03</internalNodes>
          <leafValues>
            3.0079445242881775e-01 -1.0878708958625793e-01</leafValues></_>
        <_>
          <internalNodes>
            0 -1 145 4.4120915117673576e-04</internalNodes>
          <leafValues>
            -1.8481160700321198e-01 2.3317062854766846e-01</leafValues></_>
        <_>
          <internalNodes>
            0 -1 123 1.8650107085704803e-03</internalNodes>
          <leafValues>
            6.6247455775737762e-02 -5.1765036582946777e-01</leafValues></_>
        <_>
          <internalNodes>
            0 -1 6 -1.5390982152894139e-03</internalNodes>
          <leafValues>
            -2.9850235581398010e-01 1.0833209753036499e-01</leafValues></_>
        <_>
          <internalNodes>
            0 -1 313 9.4633791595697403e-03</internalNodes>
          <leafValues>
            -8.5979603230953217e-02 4.3009752035140991e-01</leafValues></_>
        <_>
          <internalNodes>
            0 -1 59 -1.1877204524353147e-03</internalNodes>
          <leafValues>
            2.6493349671363831e-01 -1.3086754083633423e-01</leafValues></_>
        <_>
          <internalNodes>
            0 -1 44 -2.2168077994138002e-03</internalNodes>
          <leafValues>
            5.1810085773468018e-01 -7.5004607439041138e-02</leafValues></_>
        <_>
          <internalNodes>
            0 -1 303 2.2893194109201431e-03</internalNodes>
          <leafValues>
            -1.3317441940307617e-01 2.6718875765800476e-01</leafValues></_>
        <_>
          <internalNodes>
            0 -1 75 1.2695131823420525e-02</internalNodes>
          <leafValues>
            -7.5324624776840210e-02 4.4430667161941528e-01</leafValues></_>
        <_>
          <internalNodes>
            0 -1 305 -1.0437020100653172e-03</internalNodes>
          <leafValues>
            2.7155658602714539e-01 -1.2231307476758957e-01</leafValues></_>
        <_>
          <internalNodes>
            0 -1 342 1.4861507806926966e-03</internalNodes>
          <leafValues>
            8.4218338131904602e-02 -4.1277423501014709e-01</leafValues></_>
        <_>
          <internalNodes>
            0 -1 229 5.1440775860100985e-04</internalNodes>
          <leafValues>
            -9.8668418824672699e-02 3.4736672043800354e-01</leafValues></_>
        <_>
          <internalNodes>
            0 -1 61 1.1339723132550716e-03</internalNodes>
          <leafValues>
            1.0490355640649796e-01 -3.1997546553611755e-01</leafValues></_>
        <_>
          <internalNodes>
            0 -1 57 1.1448268778622150e-03</internalNodes>
          <leafValues>
            -1.3620953261852264e-01 2.3947419226169586e-01</leafValues></_>
        <_>
          <internalNodes>
            0 -1 58 -1.6823250916786492e-04</internalNodes>
          <leafValues>
            -1.5823231637477875e-01 2.1664631366729736e-01</leafValues></_>
        <_>
          <internalNodes>
            0 -1 365 -2.3626624606549740e-03</internalNodes>
          <leafValues>
            -6.0366505384445190e-01 5.8552399277687073e-02</leafValues></_>
        <_>
          <internalNodes>
            0 -1 367 -3.7117856554687023e-03</internalNodes>
          <leafValues>
            4.6042466163635254e-01 -8.2027487456798553e-02</leafValues></_>
        <_>
          <internalNodes>
            0 -1 361 3.6333384923636913e-04</internalNodes>
          <leafValues>
            1.2810111045837402e-01 -2.7092039585113525e-01</leafValues></_>
        <_>
          <internalNodes>
            0 -1 336 4.8416573554277420e-03</internalNodes>
          <leafValues>
            -1.1944750696420670e-01 3.2500448822975159e-01</leafValues></_>
        <_>
          <internalNodes>
            0 -1 92 -1.2349431926850230e-04</internalNodes>
          <leafValues>
            -2.4695253372192383e-01 1.3574689626693726e-01</leafValues></_>
        <_>
          <internalNodes>
            0 -1 198 -5.4899865062907338e-04</internalNodes>
          <leafValues>
            3.5117930173873901e-01 -1.0046105086803436e-01</leafValues></_>
        <_>
          <internalNodes>
            0 -1 374 1.2104685883969069e-03</internalNodes>
          <leafValues>
            6.6035464406013489e-02 -5.0642973184585571e-01</leafValues></_>
        <_>
          <internalNodes>
            0 -1 283 1.1462007649242878e-02</internalNodes>
          <leafValues>
            9.4001643359661102e-02 -3.4074178338050842e-01</leafValues></_>
        <_>
          <internalNodes>
            0 -1 87 2.6400759816169739e-02</internalNodes>
          <leafValues>
            -1.0446369647979736e-01 3.2531741261482239e-01</leafValues></_>
        <_>
          <internalNodes>
            0 -1 239 -4.6552778803743422e-04</internalNodes>
          <leafValues>
            2.6340773701667786e-01 -1.3767471909523010e-01</leafValues></_>
        <_>
          <internalNodes>
            0 -1 344 1.5949514927342534e-03</internalNodes>
          <leafValues>
            -1.2242504954338074e-01 2.6720318198204041e-01</leafValues></_>
        <_>
          <internalNodes>
            0 -1 343 -3.0344049446284771e-03</internalNodes>
          <leafValues>
            3.6016702651977539e-01 -1.0466670244932175e-01</leafValues></_>
        <_>
          <internalNodes>
            0 -1 244 -6.9802394136786461e-04</internalNodes>
          <leafValues>
            3.9708617329597473e-01 -9.0320616960525513e-02</leafValues></_>
        <_>
          <internalNodes>
            0 -1 372 -6.4606964588165283e-04</internalNodes>
          <leafValues>
            -3.6437711119651794e-01 1.0020191222429276e-01</leafValues></_>
        <_>
          <internalNodes>
            0 -1 284 5.3061214275658131e-03</internalNodes>
          <leafValues>
            4.6517003327608109e-02 -7.6650178432464600e-01</leafValues></_>
        <_>
          <internalNodes>
            0 -1 60 8.7518580257892609e-03</internalNodes>
          <leafValues>
            4.6020433306694031e-02 -5.9330362081527710e-01</leafValues></_>
        <_>
          <internalNodes>
            0 -1 206 -1.5351432375609875e-03</internalNodes>
          <leafValues>
            -7.0686662197113037e-01 4.1505314409732819e-02</leafValues></_>
        <_>
          <internalNodes>
            0 -1 261 -3.0857650563120842e-04</internalNodes>
          <leafValues>
            3.0676499009132385e-01 -1.1457243561744690e-01</leafValues></_>
        <_>
          <internalNodes>
            0 -1 241 2.1222692157607526e-04</internalNodes>
          <leafValues>
            -1.4823196828365326e-01 2.4498519301414490e-01</leafValues></_></weakClassifiers></_>
    <!-- stage 7 -->
    <_>
      <maxWeakCount>45</maxWeakCount>
      <stageThreshold>-6.2488955259323120e-01</stageThreshold>
      <weakClassifiers>
        <_>
          <internalNodes>
            0 -1 204 -9.1182906180620193e-03</internalNodes>
          <leafValues>
            -6.0000002384185791e-01 3.6551722884178162e-01</leafValues></_>
        <_>
          <internalNodes>
            0 -1 83 3.1041707843542099e-02</internalNodes>
          <leafValues>
            -2.8980307281017303e-02 6.7104893922805786e-01</leafValues></_>
        <_>
          <internalNodes>
            0 -1 252 5.5046468973159790e-02</internalNodes>
          <leafValues>
            -7.8551195561885834e-02 1.</leafValues></_>
        <_>
          <internalNodes>
            0 -1 82 -8.7369456887245178e-03</internalNodes>
          <leafValues>
            3.2461878657341003e-01 -1.0449820011854172e-01</leafValues></_>
        <_>
          <internalNodes>
            0 -1 345 -1.2006338220089674e-03</internalNodes>
          <leafValues>
            -2.9107680916786194e-01 1.3844040036201477e-01</leafValues></_>
        <_>
          <internalNodes>
            0 -1 358 1.3825667556375265e-03</internalNodes>
          <leafValues>
            6.3422389328479767e-02 -4.2381155490875244e-01</leafValues></_>
        <_>
          <internalNodes>
            0 -1 137 -2.7477326802909374e-03</internalNodes>
          <leafValues>
            -4.9349126219749451e-01 7.1005485951900482e-02</leafValues></_>
        <_>
          <internalNodes>
            0 -1 172 1.3379773125052452e-02</internalNodes>
          <leafValues>
            -8.5756517946720123e-02 3.7826797366142273e-01</leafValues></_>
        <_>
          <internalNodes>
            0 -1 139 2.1622355561703444e-03</internalNodes>
          <leafValues>
            6.7647583782672882e-02 -4.3198373913764954e-01</leafValues></_>
        <_>
          <internalNodes>
            0 -1 192 4.3045805068686604e-04</internalNodes>
          <leafValues>
            -1.1778464913368225e-01 2.7162790298461914e-01</leafValues></_>
        <_>
          <internalNodes>
            0 -1 166 2.7926089242100716e-02</internalNodes>
          <leafValues>
            6.8281218409538269e-02 -4.5046132802963257e-01</leafValues></_>
        <_>
          <internalNodes>
            0 -1 357 -6.8131822627037764e-04</internalNodes>
          <leafValues>
            -3.4968209266662598e-01 9.5160856842994690e-02</leafValues></_>
        <_>
          <internalNodes>
            0 -1 249 -1.0834289714694023e-03</internalNodes>
          <leafValues>
            3.5362932085990906e-01 -9.6635542809963226e-02</leafValues></_>
        <_>
          <internalNodes>
            0 -1 250 1.0785495396703482e-03</internalNodes>
          <leafValues>
            -1.1576102674007416e-01 2.9015171527862549e-01</leafValues></_>
        <_>
          <internalNodes>
            0 -1 152 -2.2771027870476246e-03</internalNodes>
          <leafValues>
            -4.9040937423706055e-01 8.6446784436702728e-02</leafValues></_>
        <_>
          <internalNodes>
            0 -1 4 2.2384645417332649e-02</internalNodes>
          <leafValues>
            -6.8808384239673615e-02 5.0372874736785889e-01</leafValues></_>
        <_>
          <internalNodes>
            0 -1 77 2.0946166478097439e-03</internalNodes>
          <leafValues>
            8.9076779782772064e-02 -3.4149867296218872e-01</leafValues></_>
        <_>
          <internalNodes>
            0 -1 76 -1.2107235379517078e-03</internalNodes>
          <leafValues>
            -3.3593460917472839e-01 8.1677027046680450e-02</leafValues></_>
        <_>
          <internalNodes>
            0 -1 237 -8.8558485731482506e-03</internalNodes>
          <leafValues>
            6.2819391489028931e-01 -4.8670955002307892e-02</leafValues></_>
        <_>
          <internalNodes>
            0 -1 370 7.1646325523033738e-04</internalNodes>
          <leafValues>
            8.6011335253715515e-02 -3.8074859976768494e-01</leafValues></_>
        <_>
          <internalNodes>
            0 -1 292 1.0030212579295039e-03</internalNodes>
          <leafValues>
            -8.1009179353713989e-02 3.8177955150604248e-01</leafValues></_>
        <_>
          <internalNodes>
            0 -1 264 3.7211105227470398e-03</internalNodes>
          <leafValues>
            -8.9504435658454895e-02 3.5602161288261414e-01</leafValues></_>
        <_>
          <internalNodes>
            0 -1 350 -8.7687913328409195e-03</internalNodes>
          <leafValues>
            4.6140614151954651e-01 -7.2121173143386841e-02</leafValues></_>
        <_>
          <internalNodes>
            0 -1 339 6.3860798254609108e-03</internalNodes>
          <leafValues>
            1.4432770013809204e-01 -2.3496271669864655e-01</leafValues></_>
        <_>
          <internalNodes>
            0 -1 84 -9.9860364571213722e-04</internalNodes>
          <leafValues>
            -4.7686961293220520e-01 7.1843892335891724e-02</leafValues></_>
        <_>
          <internalNodes>
            0 -1 85 -2.0321182091720402e-04</internalNodes>
          <leafValues>
            1.9228574633598328e-01 -1.7509593069553375e-01</leafValues></_>
        <_>
          <internalNodes>
            0 -1 46 -3.6699473857879639e-03</internalNodes>
          <leafValues>
            -4.3173110485076904e-01 8.0217055976390839e-02</leafValues></_>
        <_>
          <internalNodes>
            0 -1 298 -2.8432207182049751e-04</internalNodes>
          <leafValues>
            2.2675800323486328e-01 -1.5981608629226685e-01</leafValues></_>
        <_>
          <internalNodes>
            0 -1 174 7.2760280454531312e-04</internalNodes>
          <leafValues>
            8.9267514646053314e-02 -3.7495687603950500e-01</leafValues></_>
        <_>
          <internalNodes>
            0 -1 274 9.1619754675775766e-04</internalNodes>
          <leafValues>
            -8.4475681185722351e-02 3.8634929060935974e-01</leafValues></_>
        <_>
          <internalNodes>
            0 -1 340 1.4864863827824593e-02</internalNodes>
          <leafValues>
            7.0541091263294220e-02 -4.9496632814407349e-01</leafValues></_>
        <_>
          <internalNodes>
            0 -1 337 4.5305071398615837e-03</internalNodes>
          <leafValues>
            4.1478186845779419e-02 -7.6256579160690308e-01</leafValues></_>
        <_>
          <internalNodes>
            0 -1 285 -1.5475158579647541e-02</internalNodes>
          <leafValues>
            6.0568809509277344e-01 -6.2033552676439285e-02</leafValues></_>
        <_>
          <internalNodes>
            0 -1 302 -1.8618240952491760e-02</internalNodes>
          <leafValues>
            6.4803826808929443e-01 -4.4546190649271011e-02</leafValues></_>
        <_>
          <internalNodes>
            0 -1 162 6.4848661422729492e-03</internalNodes>
          <leafValues>
            6.7900761961936951e-02 -5.6130498647689819e-01</leafValues></_>
        <_>
          <internalNodes>
            0 -1 200 7.0894765667617321e-04</internalNodes>
          <leafValues>
            -1.0614854842424393e-01 3.1868547201156616e-01</leafValues></_>
        <_>
          <internalNodes>
            0 -1 299 -2.1873996593058109e-03</internalNodes>
          <leafValues>
            3.2036605477333069e-01 -9.4950653612613678e-02</leafValues></_>
        <_>
          <internalNodes>
            0 -1 308 -1.3432071544229984e-02</internalNodes>
          <leafValues>
            3.1567481160163879e-01 -1.1505368351936340e-01</leafValues></_>
        <_>
          <internalNodes>
            0 -1 373 -1.5561447071377188e-04</internalNodes>
          <leafValues>
            -2.5006917119026184e-01 1.4369615912437439e-01</leafValues></_>
        <_>
          <internalNodes>
            0 -1 165 -5.5337749654427171e-04</internalNodes>
          <leafValues>
            3.2630836963653564e-01 -1.0236755758523941e-01</leafValues></_>
        <_>
          <internalNodes>
            0 -1 211 1.5390368178486824e-02</internalNodes>
          <leafValues>
            8.5947781801223755e-02 -4.5450556278228760e-01</leafValues></_>
        <_>
          <internalNodes>
            0 -1 270 4.3768719770014286e-03</internalNodes>
          <leafValues>
            4.2318880558013916e-02 -7.5772857666015625e-01</leafValues></_>
        <_>
          <internalNodes>
            0 -1 359 -7.7245468273758888e-03</internalNodes>
          <leafValues>
            4.2276418209075928e-01 -8.6235128343105316e-02</leafValues></_>
        <_>
          <internalNodes>
            0 -1 14 -1.1921424418687820e-02</internalNodes>
          <leafValues>
            4.4229727983474731e-01 -6.9191247224807739e-02</leafValues></_>
        <_>
          <internalNodes>
            0 -1 247 8.1194311380386353e-02</internalNodes>
          <leafValues>
            -6.1104841530323029e-02 5.5654954910278320e-01</leafValues></_></weakClassifiers></_>
    <!-- stage 8 -->
    <_>
      <maxWeakCount>46</maxWeakCount>
      <stageThreshold>-4.6699926257133484e-01</stageThreshold>
      <weakClassifiers>
        <_>
          <internalNodes>
            0 -1 187 3.4376318217255175e-04</internalNodes>
          <leafValues>
            2.0279720425605774e-01 5.6097561120986938e-01</leafValues></_>
        <_>
          <internalNodes>
            0 -1 224 -2.6662490563467145e-04</internalNodes>
          <leafValues>
            2.8197747468948364e-01 -1.1085645854473114e-01</leafValues></_>
        <_>
          <internalNodes>
            0 -1 199 3.6414409987628460e-04</internalNodes>
          <leafValues>
            -1.5424701571464539e-01 2.8488329052925110e-01</leafValues></_>
        <_>
          <internalNodes>
            0 -1 183 8.0584757961332798e-04</internalNodes>
          <leafValues>
            -1.2269858270883560e-01 3.3145597577095032e-01</leafValues></_>
        <_>
          <internalNodes>
            0 -1 226 -8.5411116015166044e-04</internalNodes>
          <leafValues>
            2.8599292039871216e-01 -1.2478734552860260e-01</leafValues></_>
        <_>
          <internalNodes>
            0 -1 101 -1.1562893632799387e-03</internalNodes>
          <leafValues>
            2.5555545091629028e-01 -1.4039197564125061e-01</leafValues></_>
        <_>
          <internalNodes>
            0 -1 208 3.5666231997311115e-04</internalNodes>
          <leafValues>
            -1.3025726377964020e-01 2.6597157120704651e-01</leafValues></_>
        <_>
          <internalNodes>
            0 -1 39 -2.1576755680143833e-03</internalNodes>
          <leafValues>
            -2.5844928622245789e-01 1.1061365902423859e-01</leafValues></_>
        <_>
          <internalNodes>
            0 -1 230 4.5826262794435024e-03</internalNodes>
          <leafValues>
            -8.5387706756591797e-02 3.3663868904113770e-01</leafValues></_>
        <_>
          <internalNodes>
            0 -1 146 -3.2587491441518068e-03</internalNodes>
          <leafValues>
            3.1787806749343872e-01 -1.0018930584192276e-01</leafValues></_>
        <_>
          <internalNodes>
            0 -1 142 1.3151943683624268e-02</internalNodes>
          <leafValues>
            -7.9897135496139526e-02 4.4933164119720459e-01</leafValues></_>
        <_>
          <internalNodes>
            0 -1 168 1.2018228881061077e-03</internalNodes>
          <leafValues>
            -9.7170613706111908e-02 2.8793945908546448e-01</leafValues></_>
        <_>
          <internalNodes>
            0 -1 212 5.4105576127767563e-03</internalNodes>
          <leafValues>
            7.9802408814430237e-02 -3.9584279060363770e-01</leafValues></_>
        <_>
          <internalNodes>
            0 -1 124 6.4004007726907730e-03</internalNodes>
          <leafValues>
            -1.1341863125562668e-01 2.6687687635421753e-01</leafValues></_>
        <_>
          <internalNodes>
            0 -1 214 5.1953187212347984e-03</internalNodes>
          <leafValues>
            5.3567171096801758e-02 -5.7172864675521851e-01</leafValues></_>
        <_>
          <internalNodes>
            0 -1 219 1.6850056126713753e-03</internalNodes>
          <leafValues>
            -8.2659840583801270e-02 4.0043309330940247e-01</leafValues></_>
        <_>
          <internalNodes>
            0 -1 156 -5.7212653337046504e-04</internalNodes>
          <leafValues>
            2.1524029970169067e-01 -1.4748890697956085e-01</leafValues></_>
        <_>
          <internalNodes>
            0 -1 220 -1.3546337140724063e-03</internalNodes>
          <leafValues>
            2.6745170354843140e-01 -1.1675922572612762e-01</leafValues></_>
        <_>
          <internalNodes>
            0 -1 109 7.4064853833988309e-05</internalNodes>
          <leafValues>
            -1.3692058622837067e-01 2.1431492269039154e-01</leafValues></_>
        <_>
          <internalNodes>
            0 -1 161 9.5099061727523804e-03</internalNodes>
          <leafValues>
            6.6009029746055603e-02 -5.1556766033172607e-01</leafValues></_>
        <_>
          <internalNodes>
            0 -1 195 -4.4438516488298774e-04</internalNodes>
          <leafValues>
            3.4864994883537292e-01 -1.1271717399358749e-01</leafValues></_>
        <_>
          <internalNodes>
            0 -1 319 -1.2813117355108261e-03</internalNodes>
          <leafValues>
            -5.6076091527938843e-01 6.7678652703762054e-02</leafValues></_>
        <_>
          <internalNodes>
            0 -1 0 -2.9479570686817169e-02</internalNodes>
          <leafValues>
            5.1914447546005249e-01 -6.4807735383510590e-02</leafValues></_>
        <_>
          <internalNodes>
            0 -1 260 1.6286477330140769e-04</internalNodes>
          <leafValues>
            -1.2460787594318390e-01 2.1849694848060608e-01</leafValues></_>
        <_>
          <internalNodes>
            0 -1 287 -6.5397995058447123e-04</internalNodes>
          <leafValues>
            2.2893373668193817e-01 -1.2817841768264771e-01</leafValues></_>
        <_>
          <internalNodes>
            0 -1 253 -4.4762471225112677e-04</internalNodes>
          <leafValues>
            2.3142328858375549e-01 -1.2899264693260193e-01</leafValues></_>
        <_>
          <internalNodes>
            0 -1 203 1.3159969821572304e-02</internalNodes>
          <leafValues>
            9.9665887653827667e-02 -3.0351507663726807e-01</leafValues></_>
        <_>
          <internalNodes>
            0 -1 157 1.5940773487091064e-01</internalNodes>
          <leafValues>
            -5.9621501713991165e-02 5.1436257362365723e-01</leafValues></_>
        <_>
          <internalNodes>
            0 -1 180 -1.1710353428497910e-03</internalNodes>
          <leafValues>
            2.8308621048927307e-01 -1.0478316247463226e-01</leafValues></_>
        <_>
          <internalNodes>
            0 -1 176 5.6302109733223915e-03</internalNodes>
          <leafValues>
            -8.4664985537528992e-02 3.7567180395126343e-01</leafValues></_>
        <_>
          <internalNodes>
            0 -1 17 -7.6554686529561877e-04</internalNodes>
          <leafValues>
            -4.1288393735885620e-01 7.9653672873973846e-02</leafValues></_>
        <_>
          <internalNodes>
            0 -1 131 1.8994529091287404e-04</internalNodes>
          <leafValues>
            -1.3450790941715240e-01 2.8797182440757751e-01</leafValues></_>
        <_>
          <internalNodes>
            0 -1 130 -3.1484167557209730e-03</internalNodes>
          <leafValues>
            -5.7687747478485107e-01 6.2359225004911423e-02</leafValues></_>
        <_>
          <internalNodes>
            0 -1 169 -1.2924224138259888e-03</internalNodes>
          <leafValues>
            -6.1322933435440063e-01 4.1177123785018921e-02</leafValues></_>
        <_>
          <internalNodes>
            0 -1 45 1.6513059381395578e-03</internalNodes>
          <leafValues>
            -8.9092515408992767e-02 3.3234873414039612e-01</leafValues></_>
        <_>
          <internalNodes>
            0 -1 74 -3.1270971521735191e-03</internalNodes>
          <leafValues>
            -4.2845425009727478e-01 6.8946696817874908e-02</leafValues></_>
        <_>
          <internalNodes>
            0 -1 364 -9.9212571512907743e-04</internalNodes>
          <leafValues>
            2.6262515783309937e-01 -1.0447419434785843e-01</leafValues></_>
        <_>
          <internalNodes>
            0 -1 273 -2.4501400184817612e-04</internalNodes>
          <leafValues>
            2.0046198368072510e-01 -1.3689939677715302e-01</leafValues></_>
        <_>
          <internalNodes>
            0 -1 133 1.9863963825628161e-04</internalNodes>
          <leafValues>
            -1.1758065968751907e-01 2.5086072087287903e-01</leafValues></_>
        <_>
          <internalNodes>
            0 -1 366 -8.0878124572336674e-04</internalNodes>
          <leafValues>
            -4.1334649920463562e-01 7.2785027325153351e-02</leafValues></_>
        <_>
          <internalNodes>
            0 -1 197 1.7797673353925347e-03</internalNodes>
          <leafValues>
            -7.1056149899959564e-02 4.8303174972534180e-01</leafValues></_>
        <_>
          <internalNodes>
            0 -1 278 5.6801264872774482e-04</internalNodes>
          <leafValues>
            -9.6098572015762329e-02 2.9307112097740173e-01</leafValues></_>
        <_>
          <internalNodes>
            0 -1 102 -4.5550201088190079e-02</internalNodes>
          <leafValues>
            -6.8743419647216797e-01 4.6107865869998932e-02</leafValues></_>
        <_>
          <internalNodes>
            0 -1 93 8.6352685466408730e-03</internalNodes>
          <leafValues>
            3.8915175944566727e-02 -7.2287017107009888e-01</leafValues></_>
        <_>
          <internalNodes>
            0 -1 295 -1.2553869746625423e-03</internalNodes>
          <leafValues>
            2.1154336631298065e-01 -1.5449541807174683e-01</leafValues></_>
        <_>
          <internalNodes>
            0 -1 107 2.5875580031424761e-03</internalNodes>
          <leafValues>
            -8.8511668145656586e-02 3.6261540651321411e-01</leafValues></_></weakClassifiers></_>
    <!-- stage 9 -->
    <_>
      <maxWeakCount>52</maxWeakCount>
      <stageThreshold>-4.6581086516380310e-01</stageThreshold>
      <weakClassifiers>
        <_>
          <internalNodes>
            0 -1 40 6.7536300048232079e-03</internalNodes>
          <leafValues>
            3.8164252042770386e-01 -2.2222222387790680e-01</leafValues></_>
        <_>
          <internalNodes>
            0 -1 66 1.7607618123292923e-02</internalNodes>
          <leafValues>
            -4.2935684323310852e-02 4.9744719266891479e-01</leafValues></_>
        <_>
          <internalNodes>
            0 -1 66 1.6717396676540375e-02</internalNodes>
          <leafValues>
            6.3275964930653572e-03 -8.1748181581497192e-01</leafValues></_>
        <_>
          <internalNodes>
            0 -1 64 1.6741607338190079e-02</internalNodes>
          <leafValues>
            -8.0871637910604477e-03 7.4527192115783691e-01</leafValues></_>
        <_>
          <internalNodes>
            0 -1 78 -3.7942905910313129e-03</internalNodes>
          <leafValues>
            -4.6677246689796448e-01 6.3482478260993958e-02</leafValues></_>
        <_>
          <internalNodes>
            0 -1 317 -7.4799091089516878e-04</internalNodes>
          <leafValues>
            2.0150448381900787e-01 -1.7383264005184174e-01</leafValues></_>
        <_>
          <internalNodes>
            0 -1 144 -6.1387913301587105e-03</internalNodes>
          <leafValues>
            -4.6609741449356079e-01 9.5686100423336029e-02</leafValues></_>
        <_>
          <internalNodes>
            0 -1 149 -6.9871079176664352e-03</internalNodes>
          <leafValues>
            -5.1662665605545044e-01 4.9536630511283875e-02</leafValues></_>
        <_>
          <internalNodes>
            0 -1 34 2.1550564095377922e-02</internalNodes>
          <leafValues>
            -6.2067605555057526e-02 8.0601078271865845e-01</leafValues></_>
        <_>
          <internalNodes>
            0 -1 116 -1.0950653813779354e-03</internalNodes>
          <leafValues>
            -5.1606404781341553e-01 7.7925883233547211e-02</leafValues></_>
        <_>
          <internalNodes>
            0 -1 115 -4.6409582137130201e-04</internalNodes>
          <leafValues>
            2.6153838634490967e-01 -1.3804480433464050e-01</leafValues></_>
        <_>
          <internalNodes>
            0 -1 94 1.9458736060187221e-03</internalNodes>
          <leafValues>
            -1.0627358406782150e-01 2.7243083715438843e-01</leafValues></_>
        <_>
          <internalNodes>
            0 -1 111 -2.4708490818738937e-03</internalNodes>
          <leafValues>
            -4.1904118657112122e-01 6.5629757940769196e-02</leafValues></_>
        <_>
          <internalNodes>
            0 -1 112 1.8713949248194695e-04</internalNodes>
          <leafValues>
            1.8491715192794800e-01 -1.9807034730911255e-01</leafValues></_>
        <_>
          <internalNodes>
            0 -1 234 3.8265385664999485e-03</internalNodes>
          <leafValues>
            -8.2485154271125793e-02 3.4220945835113525e-01</leafValues></_>
        <_>
          <internalNodes>
            0 -1 21 -4.5933859655633569e-04</internalNodes>
          <leafValues>
            -3.0648037791252136e-01 9.1395892202854156e-02</leafValues></_>
        <_>
          <internalNodes>
            0 -1 194 1.1936683440580964e-03</internalNodes>
          <leafValues>
            -8.9400008320808411e-02 3.4004271030426025e-01</leafValues></_>
        <_>
          <internalNodes>
            0 -1 226 1.8582567572593689e-03</internalNodes>
          <leafValues>
            -8.4316067397594452e-02 3.0780366063117981e-01</leafValues></_>
        <_>
          <internalNodes>
            0 -1 335 3.8654531817883253e-03</internalNodes>
          <leafValues>
            5.6631464511156082e-02 -4.9522119760513306e-01</leafValues></_>
        <_>
          <internalNodes>
            0 -1 356 3.9033830398693681e-04</internalNodes>
          <leafValues>
            -1.3507051765918732e-01 2.1476507186889648e-01</leafValues></_>
        <_>
          <internalNodes>
            0 -1 217 -6.0580680146813393e-03</internalNodes>
          <leafValues>
            -6.3915991783142090e-01 4.4657688587903976e-02</leafValues></_>
        <_>
          <internalNodes>
            0 -1 99 3.9575595292262733e-04</internalNodes>
          <leafValues>
            8.7427526712417603e-02 -3.1099152565002441e-01</leafValues></_>
        <_>
          <internalNodes>
            0 -1 126 1.9595238845795393e-03</internalNodes>
          <leafValues>
            -8.8380977511405945e-02 3.4659713506698608e-01</leafValues></_>
        <_>
          <internalNodes>
            0 -1 324 2.9600732959806919e-03</internalNodes>
          <leafValues>
            -9.5252543687820435e-02 3.1847900152206421e-01</leafValues></_>
        <_>
          <internalNodes>
            0 -1 254 3.0563762993551791e-04</internalNodes>
          <leafValues>
            -1.4063677191734314e-01 2.0646616816520691e-01</leafValues></_>
        <_>
          <internalNodes>
            0 -1 202 -7.9657480120658875e-02</internalNodes>
          <leafValues>
            7.1262985467910767e-01 -4.1137225925922394e-02</leafValues></_>
        <_>
          <internalNodes>
            0 -1 205 3.5700239823199809e-04</internalNodes>
          <leafValues>
            1.0341113060712814e-01 -2.8483581542968750e-01</leafValues></_>
        <_>
          <internalNodes>
            0 -1 264 8.5084140300750732e-03</internalNodes>
          <leafValues>
            -5.1466260105371475e-02 5.0993275642395020e-01</leafValues></_>
        <_>
          <internalNodes>
            0 -1 190 5.1754224114120007e-03</internalNodes>
          <leafValues>
            9.6616886556148529e-02 -3.0656775832176208e-01</leafValues></_>
        <_>
          <internalNodes>
            0 -1 294 -2.2337287664413452e-02</internalNodes>
          <leafValues>
            4.4352927803993225e-01 -6.4706087112426758e-02</leafValues></_>
        <_>
          <internalNodes>
            0 -1 300 6.5811518579721451e-03</internalNodes>
          <leafValues>
            1.4327928423881531e-01 -2.0456960797309875e-01</leafValues></_>
        <_>
          <internalNodes>
            0 -1 7 5.3157240152359009e-01</internalNodes>
          <leafValues>
            -3.4834291785955429e-02 8.4450441598892212e-01</leafValues></_>
        <_>
          <internalNodes>
            0 -1 326 -2.2206157445907593e-03</internalNodes>
          <leafValues>
            2.2842416167259216e-01 -1.2193308770656586e-01</leafValues></_>
        <_>
          <internalNodes>
            0 -1 251 4.2173312976956367e-04</internalNodes>
          <leafValues>
            -1.1372064054012299e-01 2.4524566531181335e-01</leafValues></_>
        <_>
          <internalNodes>
            0 -1 225 -6.6737714223563671e-04</internalNodes>
          <leafValues>
            3.3679834008216858e-01 -8.7264053523540497e-02</leafValues></_>
        <_>
          <internalNodes>
            0 -1 9 -3.6867158487439156e-03</internalNodes>
          <leafValues>
            2.2608236968517303e-01 -1.2634074687957764e-01</leafValues></_>
        <_>
          <internalNodes>
            0 -1 25 -2.5527826510369778e-03</internalNodes>
          <leafValues>
            -6.2362205982208252e-01 4.9483921378850937e-02</leafValues></_>
        <_>
          <internalNodes>
            0 -1 277 -8.2136772107332945e-04</internalNodes>
          <leafValues>
            -2.0779781043529510e-01 1.4918400347232819e-01</leafValues></_>
        <_>
          <internalNodes>
            0 -1 255 -9.0571976033970714e-04</internalNodes>
          <leafValues>
            -2.5133904814720154e-01 1.1652457714080811e-01</leafValues></_>
        <_>
          <internalNodes>
            0 -1 19 -4.9300797283649445e-02</internalNodes>
          <leafValues>
            3.9837095141410828e-01 -7.6032169163227081e-02</leafValues></_>
        <_>
          <internalNodes>
            0 -1 20 -8.3054968854412436e-05</internalNodes>
          <leafValues>
            -2.0123860239982605e-01 1.4780801534652710e-01</leafValues></_>
        <_>
          <internalNodes>
            0 -1 368 -7.5349911639932543e-05</internalNodes>
          <leafValues>
            -1.9716264307498932e-01 1.4210268855094910e-01</leafValues></_>
        <_>
          <internalNodes>
            0 -1 151 1.4162773266434669e-02</internalNodes>
          <leafValues>
            -9.5876283943653107e-02 2.8643411397933960e-01</leafValues></_>
        <_>
          <internalNodes>
            0 -1 309 -2.1882712841033936e-02</internalNodes>
          <leafValues>
            6.2549847364425659e-01 -4.6690709888935089e-02</leafValues></_>
        <_>
          <internalNodes>
            0 -1 104 -7.0801647379994392e-03</internalNodes>
          <leafValues>
            -2.0813603699207306e-01 1.5123099088668823e-01</leafValues></_>
        <_>
          <internalNodes>
            0 -1 129 5.2988959942013025e-04</internalNodes>
          <leafValues>
            -1.4410661160945892e-01 2.1286378800868988e-01</leafValues></_>
        <_>
          <internalNodes>
            0 -1 369 -1.0739827121142298e-04</internalNodes>
          <leafValues>
            -2.3497192561626434e-01 1.3857854902744293e-01</leafValues></_>
        <_>
          <internalNodes>
            0 -1 330 3.8332156836986542e-03</internalNodes>
          <leafValues>
            -1.1277073621749878e-01 3.0059736967086792e-01</leafValues></_>
        <_>
          <internalNodes>
            0 -1 121 1.2811523629352450e-04</internalNodes>
          <leafValues>
            1.4948375523090363e-01 -2.3728320002555847e-01</leafValues></_>
        <_>
          <internalNodes>
            0 -1 333 -3.2901145517826080e-02</internalNodes>
          <leafValues>
            4.8900654911994934e-01 -7.2932213544845581e-02</leafValues></_>
        <_>
          <internalNodes>
            0 -1 128 -2.1884471178054810e-02</internalNodes>
          <leafValues>
            -6.3983845710754395e-01 5.6769881397485733e-02</leafValues></_>
        <_>
          <internalNodes>
            0 -1 47 -3.4864740446209908e-03</internalNodes>
          <leafValues>
            2.3626235127449036e-01 -1.3308340311050415e-01</leafValues></_></weakClassifiers></_></stages>
  <features>
    <_>
      <rects>
        <_>
          0 0 3 26 -1.</_>
        <_>
          1 0 1 26 3.</_></rects>
      <tilted>0</tilted></_>
    <_>
      <rects>
        <_>
          0 0 3 3 -1.</_>
        <_>
          0 1 3 1 3.</_></rects>
      <tilted>0</tilted></_>
    <_>
      <rects>
        <_>
          0 0 10 2 -1.</_>
        <_>
          0 1 10 1 2.</_></rects>
      <tilted>0</tilted></_>
    <_>
      <rects>
        <_>
          0 0 13 3 -1.</_>
        <_>
          0 1 13 1 3.</_></rects>
      <tilted>0</tilted></_>
    <_>
      <rects>
        <_>
          0 1 2 36 -1.</_>
        <_>
          0 1 1 18 2.</_>
        <_>
          1 19 1 18 2.</_></rects>
      <tilted>0</tilted></_>
    <_>
      <rects>
        <_>
          0 1 7 3 -1.</_>
        <_>
          0 2 7 1 3.</_></rects>
      <tilted>0</tilted></_>
    <_>
      <rects>
        <_>
          0 1 8 3 -1.</_>
        <_>
          0 2 8 1 3.</_></rects>
      <tilted>0</tilted></_>
    <_>
      <rects>
        <_>
          0 1 13 38 -1.</_>
        <_>
          0 20 13 19 2.</_></rects>
      <tilted>0</tilted></_>
    <_>
      <rects>
        <_>
          0 2 3 11 -1.</_>
        <_>
          1 2 1 11 3.</_></rects>
      <tilted>0</tilted></_>
    <_>
      <rects>
        <_>
          0 3 3 19 -1.</_>
        <_>
          1 3 1 19 3.</_></rects>
      <tilted>0</tilted></_>
    <_>
      <rects>
        <_>
          0 4 4 2 -1.</_>
        <_>
          0 5 4 1 2.</_></rects>
      <tilted>0</tilted></_>
    <_>
      <rects>
        <_>
          0 5 2 3 -1.</_>
        <_>
          0 6 2 1 3.</_></rects>
      <tilted>0</tilted></_>
    <_>
      <rects>
        <_>
          0 5 11 12 -1.</_>
        <_>
          0 9 11 4 3.</_></rects>
      <tilted>0</tilted></_>
    <_>
      <rects>
        <_>
          0 5 15 6 -1.</_>
        <_>
          0 7 15 2 3.</_></rects>
      <tilted>0</tilted></_>
    <_>
      <rects>
        <_>
          0 6 2 24 -1.</_>
        <_>
          0 6 1 12 2.</_>
        <_>
          1 18 1 12 2.</_></rects>
      <tilted>0</tilted></_>
    <_>
      <rects>
        <_>
          0 6 2 3 -1.</_>
        <_>
          0 7 2 1 3.</_></rects>
      <tilted>0</tilted></_>
    <_>
      <rects>
        <_>
          0 7 2 26 -1.</_>
        <_>
          1 7 1 26 2.</_></rects>
      <tilted>0</tilted></_>
    <_>
      <rects>
        <_>
          0 8 1 3 -1.</_>
        <_>
          0 9 1 1 3.</_></rects>
      <tilted>0</tilted></_>
    <_>
      <rects>
        <_>
          0 8 3 7 -1.</_>
        <_>
          1 8 1 7 3.</_></rects>
      <tilted>0</tilted></_>
    <_>
      <rects>
        <_>
          0 8 13 10 -1.</_>
        <_>
          0 13 13 5 2.</_></rects>
      <tilted>0</tilted></_>
    <_>
      <rects>
        <_>
          0 12 1 2 -1.</_>
        <_>
          0 13 1 1 2.</_></rects>
      <tilted>0</tilted></_>
    <_>
      <rects>
        <_>
          0 13 1 3 -1.</_>
        <_>
          0 14 1 1 3.</_></rects>
      <tilted>0</tilted></_>
    <_>
      <rects>
        <_>
          0 13 15 20 -1.</_>
        <_>
          5 13 5 20 3.</_></rects>
      <tilted>0</tilted></_>
    <_>
      <rects>
        <_>
          0 14 5 3 -1.</_>
        <_>
          0 15 5 1 3.</_></rects>
      <tilted>0</tilted></_>
    <_>
      <rects>
        <_>
          0 17 7 3 -1.</_>
        <_>
          0 18 7 1 3.</_></rects>
      <tilted>0</tilted></_>
    <_>
      <rects>
        <_>
          0 18 2 3 -1.</_>
        <_>
          0 19 2 1 3.</_></rects>
      <tilted>0</tilted></_>
    <_>
      <rects>
        <_>
          0 19 6 6 -1.</_>
        <_>
          2 19 2 6 3.</_></rects>
      <tilted>0</tilted></_>
    <_>
      <rects>
        <_>
          0 19 6 14 -1.</_>
        <_>
          2 19 2 14 3.</_></rects>
      <tilted>0</tilted></_>
    <_>
      <rects>
        <_>
          0 19 3 6 -1.</_>
        <_>
          0 21 3 2 3.</_></rects>
      <tilted>0</tilted></_>
    <_>
      <rects>
        <_>
          0 20 2 1 -1.</_>
        <_>
          1 20 1 1 2.</_></rects>
      <tilted>0</tilted></_>
    <_>
      <rects>
        <_>
          0 20 6 3 -1.</_>
        <_>
          0 21 6 1 3.</_></rects>
      <tilted>0</tilted></_>
    <_>
      <rects>
        <_>
          0 20 15 18 -1.</_>
        <_>
          0 26 15 6 3.</_></rects>
      <tilted>0</tilted></_>
    <_>
      <rects>
        <_>
          0 20 16 3 -1.</_>
        <_>
          0 21 16 1 3.</_></rects>
      <tilted>0</tilted></_>
    <_>
      <rects>
        <_>
          0 21 3 3 -1.</_>
        <_>
          0 22 3 1 3.</_></rects>
      <tilted>0</tilted></_>
    <_>
      <rects>
        <_>
          0 23 3 6 -1.</_>
        <_>
          1 23 1 6 3.</_></rects>
      <tilted>0</tilted></_>
    <_>
      <rects>
        <_>
          0 23 5 3 -1.</_>
        <_>
          0 24 5 1 3.</_></rects>
      <tilted>0</tilted></_>
    <_>
      <rects>
        <_>
          0 24 2 12 -1.</_>
        <_>
          0 24 1 6 2.</_>
        <_>
          1 30 1 6 2.</_></rects>
      <tilted>0</tilted></_>
    <_>
      <rects>
        <_>
          0 24 2 3 -1.</_>
        <_>
          0 25 2 1 3.</_></rects>
      <tilted>0</tilted></_>
    <_>
      <rects>
        <_>
          0 24 15 3 -1.</_>
        <_>
          0 25 15 1 3.</_></rects>
      <tilted>0</tilted></_>
    <_>
      <rects>
        <_>
          0 27 14 3 -1.</_>
        <_>
          0 28 14 1 3.</_></rects>
      <tilted>0</tilted></_>
    <_>
      <rects>
        <_>
          0 29 12 3 -1.</_>
        <_>
          0 30 12 1 3.</_></rects>
      <tilted>0</tilted></_>
    <_>
      <rects>
        <_>
          0 32 2 3 -1.</_>
        <_>
          0 33 2 1 3.</_></rects>
      <tilted>0</tilted></_>
    <_>
      <rects>
        <_>
          0 33 3 7 -1.</_>
        <_>
          1 33 1 7 3.</_></rects>
      <tilted>0</tilted></_>
    <_>
      <rects>
        <_>
          0 33 6 2 -1.</_>
        <_>
          0 33 3 1 2.</_>
        <_>
          3 34 3 1 2.</_></rects>
      <tilted>0</tilted></_>
    <_>
      <rects>
        <_>
          0 34 3 1 -1.</_>
        <_>
          1 34 1 1 3.</_></rects>
      <tilted>0</tilted></_>
    <_>
      <rects>
        <_>
          0 34 1 6 -1.</_>
        <_>
          0 37 1 3 2.</_></rects>
      <tilted>0</tilted></_>
    <_>
      <rects>
        <_>
          0 34 10 2 -1.</_>
        <_>
          0 35 10 1 2.</_></rects>
      <tilted>0</tilted></_>
    <_>
      <rects>
        <_>
          1 0 2 14 -1.</_>
        <_>
          2 0 1 14 2.</_></rects>
      <tilted>0</tilted></_>
    <_>
      <rects>
        <_>
          1 0 3 17 -1.</_>
        <_>
          2 0 1 17 3.</_></rects>
      <tilted>0</tilted></_>
    <_>
      <rects>
        <_>
          1 0 3 4 -1.</_>
        <_>
          1 2 3 2 2.</_></rects>
      <tilted>0</tilted></_>
    <_>
      <rects>
        <_>
          1 3 3 22 -1.</_>
        <_>
          2 3 1 22 3.</_></rects>
      <tilted>0</tilted></_>
    <_>
      <rects>
        <_>
          1 4 3 5 -1.</_>
        <_>
          2 4 1 5 3.</_></rects>
      <tilted>0</tilted></_>
    <_>
      <rects>
        <_>
          1 5 2 12 -1.</_>
        <_>
          1 5 1 6 2.</_>
        <_>
          2 11 1 6 2.</_></rects>
      <tilted>0</tilted></_>
    <_>
      <rects>
        <_>
          1 5 3 31 -1.</_>
        <_>
          2 5 1 31 3.</_></rects>
      <tilted>0</tilted></_>
    <_>
      <rects>
        <_>
          1 6 12 20 -1.</_>
        <_>
          1 6 6 10 2.</_>
        <_>
          7 16 6 10 2.</_></rects>
      <tilted>0</tilted></_>
    <_>
      <rects>
        <_>
          1 6 11 9 -1.</_>
        <_>
          1 9 11 3 3.</_></rects>
      <tilted>0</tilted></_>
    <_>
      <rects>
        <_>
          1 8 3 25 -1.</_>
        <_>
          2 8 1 25 3.</_></rects>
      <tilted>0</tilted></_>
    <_>
      <rects>
        <_>
          1 9 3 5 -1.</_>
        <_>
          2 9 1 5 3.</_></rects>
      <tilted>0</tilted></_>
    <_>
      <rects>
        <_>
          1 9 1 14 -1.</_>
        <_>
          1 16 1 7 2.</_></rects>
      <tilted>0</tilted></_>
    <_>
      <rects>
        <_>
          1 9 6 1 -1.</_>
        <_>
          4 9 3 1 2.</_></rects>
      <tilted>0</tilted></_>
    <_>
      <rects>
        <_>
          1 9 8 1 -1.</_>
        <_>
          5 9 4 1 2.</_></rects>
      <tilted>0</tilted></_>
    <_>
      <rects>
        <_>
          1 12 3 3 -1.</_>
        <_>
          1 13 3 1 3.</_></rects>
      <tilted>0</tilted></_>
    <_>
      <rects>
        <_>
          1 13 6 25 -1.</_>
        <_>
          3 13 2 25 3.</_></rects>
      <tilted>0</tilted></_>
    <_>
      <rects>
        <_>
          1 14 1 3 -1.</_>
        <_>
          1 15 1 1 3.</_></rects>
      <tilted>0</tilted></_>
    <_>
      <rects>
        <_>
          1 20 3 15 -1.</_>
        <_>
          2 20 1 15 3.</_></rects>
      <tilted>0</tilted></_>
    <_>
      <rects>
        <_>
          1 21 3 12 -1.</_>
        <_>
          2 21 1 12 3.</_></rects>
      <tilted>0</tilted></_>
    <_>
      <rects>
        <_>
          1 21 3 14 -1.</_>
        <_>
          2 21 1 14 3.</_></rects>
      <tilted>0</tilted></_>
    <_>
      <rects>
        <_>
          1 22 3 17 -1.</_>
        <_>
          2 22 1 17 3.</_></rects>
      <tilted>0</tilted></_>
    <_>
      <rects>
        <_>
          1 27 3 3 -1.</_>
        <_>
          1 28 3 1 3.</_></rects>
      <tilted>0</tilted></_>
    <_>
      <rects>
        <_>
          1 28 12 3 -1.</_>
        <_>
          1 29 12 1 3.</_></rects>
      <tilted>0</tilted></_>
    <_>
      <rects>
        <_>
          1 29 7 3 -1.</_>
        <_>
          1 30 7 1 3.</_></rects>
      <tilted>0</tilted></_>
    <_>
      <rects>
        <_>
          1 30 6 3 -1.</_>
        <_>
          1 31 6 1 3.</_></rects>
      <tilted>0</tilted></_>
    <_>
      <rects>
        <_>
          1 31 2 2 -1.</_>
        <_>
          2 31 1 2 2.</_></rects>
      <tilted>0</tilted></_>
    <_>
      <rects>
        <_>
          1 32 9 3 -1.</_>
        <_>
          1 33 9 1 3.</_></rects>
      <tilted>0</tilted></_>
    <_>
      <rects>
        <_>
          1 35 10 2 -1.</_>
        <_>
          1 35 5 1 2.</_>
        <_>
          6 36 5 1 2.</_></rects>
      <tilted>0</tilted></_>
    <_>
      <rects>
        <_>
          2 0 2 19 -1.</_>
        <_>
          3 0 1 19 2.</_></rects>
      <tilted>0</tilted></_>
    <_>
      <rects>
        <_>
          2 0 4 3 -1.</_>
        <_>
          2 1 4 1 3.</_></rects>
      <tilted>0</tilted></_>
    <_>
      <rects>
        <_>
          2 0 6 3 -1.</_>
        <_>
          2 1 6 1 3.</_></rects>
      <tilted>0</tilted></_>
    <_>
      <rects>
        <_>
          2 1 6 3 -1.</_>
        <_>
          2 2 6 1 3.</_></rects>
      <tilted>0</tilted></_>
    <_>
      <rects>
        <_>
          2 2 13 12 -1.</_>
        <_>
          2 6 13 4 3.</_></rects>
      <tilted>0</tilted></_>
    <_>
      <rects>
        <_>
          2 4 7 9 -1.</_>
        <_>
          2 7 7 3 3.</_></rects>
      <tilted>0</tilted></_>
    <_>
      <rects>
        <_>
          2 5 8 2 -1.</_>
        <_>
          2 5 4 1 2.</_>
        <_>
          6 6 4 1 2.</_></rects>
      <tilted>0</tilted></_>
    <_>
      <rects>
        <_>
          2 6 3 13 -1.</_>
        <_>
          3 6 1 13 3.</_></rects>
      <tilted>0</tilted></_>
    <_>
      <rects>
        <_>
          2 11 3 18 -1.</_>
        <_>
          3 11 1 18 3.</_></rects>
      <tilted>0</tilted></_>
    <_>
      <rects>
        <_>
          2 13 1 3 -1.</_>
        <_>
          2 14 1 1 3.</_></rects>
      <tilted>0</tilted></_>
    <_>
      <rects>
        <_>
          2 13 2 8 -1.</_>
        <_>
          2 13 1 4 2.</_>
        <_>
          3 17 1 4 2.</_></rects>
      <tilted>0</tilted></_>
    <_>
      <rects>
        <_>
          2 14 3 15 -1.</_>
        <_>
          3 14 1 15 3.</_></rects>
      <tilted>0</tilted></_>
    <_>
      <rects>
        <_>
          2 15 9 12 -1.</_>
        <_>
          2 21 9 6 2.</_></rects>
      <tilted>0</tilted></_>
    <_>
      <rects>
        <_>
          2 18 6 3 -1.</_>
        <_>
          2 19 6 1 3.</_></rects>
      <tilted>0</tilted></_>
    <_>
      <rects>
        <_>
          2 20 2 1 -1.</_>
        <_>
          3 20 1 1 2.</_></rects>
      <tilted>0</tilted></_>
    <_>
      <rects>
        <_>
          2 21 1 3 -1.</_>
        <_>
          2 22 1 1 3.</_></rects>
      <tilted>0</tilted></_>
    <_>
      <rects>
        <_>
          2 26 14 6 -1.</_>
        <_>
          2 28 14 2 3.</_></rects>
      <tilted>0</tilted></_>
    <_>
      <rects>
        <_>
          2 27 1 3 -1.</_>
        <_>
          2 28 1 1 3.</_></rects>
      <tilted>0</tilted></_>
    <_>
      <rects>
        <_>
          2 31 12 3 -1.</_>
        <_>
          2 32 12 1 3.</_></rects>
      <tilted>0</tilted></_>
    <_>
      <rects>
        <_>
          2 33 2 4 -1.</_>
        <_>
          3 33 1 4 2.</_></rects>
      <tilted>0</tilted></_>
    <_>
      <rects>
        <_>
          2 34 5 3 -1.</_>
        <_>
          2 35 5 1 3.</_></rects>
      <tilted>0</tilted></_>
    <_>
      <rects>
        <_>
          2 35 2 4 -1.</_>
        <_>
          3 35 1 4 2.</_></rects>
      <tilted>0</tilted></_>
    <_>
      <rects>
        <_>
          3 0 3 8 -1.</_>
        <_>
          4 0 1 8 3.</_></rects>
      <tilted>0</tilted></_>
    <_>
      <rects>
        <_>
          3 0 3 36 -1.</_>
        <_>
          4 0 1 36 3.</_></rects>
      <tilted>0</tilted></_>
    <_>
      <rects>
        <_>
          3 1 1 3 -1.</_>
        <_>
          3 2 1 1 3.</_></rects>
      <tilted>0</tilted></_>
    <_>
      <rects>
        <_>
          3 2 3 38 -1.</_>
        <_>
          4 2 1 38 3.</_></rects>
      <tilted>0</tilted></_>
    <_>
      <rects>
        <_>
          3 3 2 12 -1.</_>
        <_>
          3 3 1 6 2.</_>
        <_>
          4 9 1 6 2.</_></rects>
      <tilted>0</tilted></_>
    <_>
      <rects>
        <_>
          3 4 10 9 -1.</_>
        <_>
          3 7 10 3 3.</_></rects>
      <tilted>0</tilted></_>
    <_>
      <rects>
        <_>
          3 7 4 12 -1.</_>
        <_>
          3 7 2 6 2.</_>
        <_>
          5 13 2 6 2.</_></rects>
      <tilted>0</tilted></_>
    <_>
      <rects>
        <_>
          3 9 9 8 -1.</_>
        <_>
          3 13 9 4 2.</_></rects>
      <tilted>0</tilted></_>
    <_>
      <rects>
        <_>
          3 12 3 13 -1.</_>
        <_>
          4 12 1 13 3.</_></rects>
      <tilted>0</tilted></_>
    <_>
      <rects>
        <_>
          3 12 4 10 -1.</_>
        <_>
          3 17 4 5 2.</_></rects>
      <tilted>0</tilted></_>
    <_>
      <rects>
        <_>
          3 13 2 8 -1.</_>
        <_>
          3 13 1 4 2.</_>
        <_>
          4 17 1 4 2.</_></rects>
      <tilted>0</tilted></_>
    <_>
      <rects>
        <_>
          3 16 12 2 -1.</_>
        <_>
          3 17 12 1 2.</_></rects>
      <tilted>0</tilted></_>
    <_>
      <rects>
        <_>
          3 17 1 4 -1.</_>
        <_>
          3 19 1 2 2.</_></rects>
      <tilted>0</tilted></_>
    <_>
      <rects>
        <_>
          3 17 3 3 -1.</_>
        <_>
          4 17 1 3 3.</_></rects>
      <tilted>0</tilted></_>
    <_>
      <rects>
        <_>
          3 17 4 3 -1.</_>
        <_>
          3 18 4 1 3.</_></rects>
      <tilted>0</tilted></_>
    <_>
      <rects>
        <_>
          3 17 11 3 -1.</_>
        <_>
          3 18 11 1 3.</_></rects>
      <tilted>0</tilted></_>
    <_>
      <rects>
        <_>
          3 19 3 10 -1.</_>
        <_>
          4 19 1 10 3.</_></rects>
      <tilted>0</tilted></_>
    <_>
      <rects>
        <_>
          3 22 3 11 -1.</_>
        <_>
          4 22 1 11 3.</_></rects>
      <tilted>0</tilted></_>
    <_>
      <rects>
        <_>
          3 24 2 1 -1.</_>
        <_>
          4 24 1 1 2.</_></rects>
      <tilted>0</tilted></_>
    <_>
      <rects>
        <_>
          3 24 1 2 -1.</_>
        <_>
          3 25 1 1 2.</_></rects>
      <tilted>0</tilted></_>
    <_>
      <rects>
        <_>
          3 24 4 3 -1.</_>
        <_>
          3 25 4 1 3.</_></rects>
      <tilted>0</tilted></_>
    <_>
      <rects>
        <_>
          3 32 5 3 -1.</_>
        <_>
          3 33 5 1 3.</_></rects>
      <tilted>0</tilted></_>
    <_>
      <rects>
        <_>
          3 36 3 4 -1.</_>
        <_>
          4 36 1 4 3.</_></rects>
      <tilted>0</tilted></_>
    <_>
      <rects>
        <_>
          4 1 3 1 -1.</_>
        <_>
          5 1 1 1 3.</_></rects>
      <tilted>0</tilted></_>
    <_>
      <rects>
        <_>
          4 1 1 3 -1.</_>
        <_>
          4 2 1 1 3.</_></rects>
      <tilted>0</tilted></_>
    <_>
      <rects>
        <_>
          4 1 3 8 -1.</_>
        <_>
          5 1 1 8 3.</_></rects>
      <tilted>0</tilted></_>
    <_>
      <rects>
        <_>
          4 1 2 3 -1.</_>
        <_>
          4 2 2 1 3.</_></rects>
      <tilted>0</tilted></_>
    <_>
      <rects>
        <_>
          4 1 7 8 -1.</_>
        <_>
          4 5 7 4 2.</_></rects>
      <tilted>0</tilted></_>
    <_>
      <rects>
        <_>
          4 1 11 3 -1.</_>
        <_>
          4 2 11 1 3.</_></rects>
      <tilted>0</tilted></_>
    <_>
      <rects>
        <_>
          4 2 2 6 -1.</_>
        <_>
          4 2 1 3 2.</_>
        <_>
          5 5 1 3 2.</_></rects>
      <tilted>0</tilted></_>
    <_>
      <rects>
        <_>
          4 5 3 8 -1.</_>
        <_>
          4 9 3 4 2.</_></rects>
      <tilted>0</tilted></_>
    <_>
      <rects>
        <_>
          4 7 6 3 -1.</_>
        <_>
          6 7 2 3 3.</_></rects>
      <tilted>0</tilted></_>
    <_>
      <rects>
        <_>
          4 7 8 2 -1.</_>
        <_>
          4 7 4 1 2.</_>
        <_>
          8 8 4 1 2.</_></rects>
      <tilted>0</tilted></_>
    <_>
      <rects>
        <_>
          4 8 2 4 -1.</_>
        <_>
          4 8 1 2 2.</_>
        <_>
          5 10 1 2 2.</_></rects>
      <tilted>0</tilted></_>
    <_>
      <rects>
        <_>
          4 9 1 2 -1.</_>
        <_>
          4 10 1 1 2.</_></rects>
      <tilted>0</tilted></_>
    <_>
      <rects>
        <_>
          4 13 3 6 -1.</_>
        <_>
          5 13 1 6 3.</_></rects>
      <tilted>0</tilted></_>
    <_>
      <rects>
        <_>
          4 14 1 3 -1.</_>
        <_>
          4 15 1 1 3.</_></rects>
      <tilted>0</tilted></_>
    <_>
      <rects>
        <_>
          4 15 3 7 -1.</_>
        <_>
          5 15 1 7 3.</_></rects>
      <tilted>0</tilted></_>
    <_>
      <rects>
        <_>
          4 17 3 3 -1.</_>
        <_>
          4 18 3 1 3.</_></rects>
      <tilted>0</tilted></_>
    <_>
      <rects>
        <_>
          4 18 3 5 -1.</_>
        <_>
          5 18 1 5 3.</_></rects>
      <tilted>0</tilted></_>
    <_>
      <rects>
        <_>
          4 18 3 3 -1.</_>
        <_>
          4 19 3 1 3.</_></rects>
      <tilted>0</tilted></_>
    <_>
      <rects>
        <_>
          4 18 3 15 -1.</_>
        <_>
          4 23 3 5 3.</_></rects>
      <tilted>0</tilted></_>
    <_>
      <rects>
        <_>
          4 18 4 3 -1.</_>
        <_>
          4 19 4 1 3.</_></rects>
      <tilted>0</tilted></_>
    <_>
      <rects>
        <_>
          4 18 12 2 -1.</_>
        <_>
          4 18 6 1 2.</_>
        <_>
          10 19 6 1 2.</_></rects>
      <tilted>0</tilted></_>
    <_>
      <rects>
        <_>
          4 19 2 8 -1.</_>
        <_>
          5 19 1 8 2.</_></rects>
      <tilted>0</tilted></_>
    <_>
      <rects>
        <_>
          4 19 3 10 -1.</_>
        <_>
          5 19 1 10 3.</_></rects>
      <tilted>0</tilted></_>
    <_>
      <rects>
        <_>
          4 20 2 1 -1.</_>
        <_>
          5 20 1 1 2.</_></rects>
      <tilted>0</tilted></_>
    <_>
      <rects>
        <_>
          4 21 11 3 -1.</_>
        <_>
          4 22 11 1 3.</_></rects>
      <tilted>0</tilted></_>
    <_>
      <rects>
        <_>
          4 22 2 3 -1.</_>
        <_>
          5 22 1 3 2.</_></rects>
      <tilted>0</tilted></_>
    <_>
      <rects>
        <_>
          4 24 3 3 -1.</_>
        <_>
          5 24 1 3 3.</_></rects>
      <tilted>0</tilted></_>
    <_>
      <rects>
        <_>
          4 25 11 15 -1.</_>
        <_>
          4 30 11 5 3.</_></rects>
      <tilted>0</tilted></_>
    <_>
      <rects>
        <_>
          4 34 3 5 -1.</_>
        <_>
          5 34 1 5 3.</_></rects>
      <tilted>0</tilted></_>
    <_>
      <rects>
        <_>
          4 36 11 3 -1.</_>
        <_>
          4 37 11 1 3.</_></rects>
      <tilted>0</tilted></_>
    <_>
      <rects>
        <_>
          4 37 7 3 -1.</_>
        <_>
          4 38 7 1 3.</_></rects>
      <tilted>0</tilted></_>
    <_>
      <rects>
        <_>
          5 0 2 24 -1.</_>
        <_>
          5 8 2 8 3.</_></rects>
      <tilted>0</tilted></_>
    <_>
      <rects>
        <_>
          5 0 3 3 -1.</_>
        <_>
          5 1 3 1 3.</_></rects>
      <tilted>0</tilted></_>
    <_>
      <rects>
        <_>
          5 1 3 34 -1.</_>
        <_>
          6 1 1 34 3.</_></rects>
      <tilted>0</tilted></_>
    <_>
      <rects>
        <_>
          5 1 2 37 -1.</_>
        <_>
          6 1 1 37 2.</_></rects>
      <tilted>0</tilted></_>
    <_>
      <rects>
        <_>
          5 1 3 37 -1.</_>
        <_>
          6 1 1 37 3.</_></rects>
      <tilted>0</tilted></_>
    <_>
      <rects>
        <_>
          5 1 3 4 -1.</_>
        <_>
