<?xml version="1.0"?>
<opencv_storage>
<stage3>
  <maxWeakCount>15</maxWeakCount>
  <stageThreshold>-5.9698128700256348e-01</stageThreshold>
  <weakClassifiers>
    <_>
      <internalNodes>
        0 -1 121150 1.5835282392799854e-03</internalNodes>
      <leafValues>
        1.6420361353084445e-03 6.0593789815902710e-01</leafValues></_>
    <_>
      <internalNodes>
        0 -1 128468 1.9594617187976837e-03</internalNodes>
      <leafValues>
        -1.7272390425205231e-01 6.0862201452255249e-01</leafValues></_>
    <_>
      <internalNodes>
        0 -1 159356 4.5330054126679897e-04</internalNodes>
      <leafValues>
        -2.8083214163780212e-01 3.3281496167182922e-01</leafValues></_>
    <_>
      <internalNodes>
        0 -1 147394 -7.2821899084374309e-04</internalNodes>
      <leafValues>
        3.8086763024330139e-01 -2.9512000083923340e-01</leafValues></_>
    <_>
      <internalNodes>
        0 -1 135317 6.8864472210407257e-02</internalNodes>
      <leafValues>
        1.7282751202583313e-01 -8.1016075611114502e-01</leafValues></_>
    <_>
      <internalNodes>
        0 -1 133283 3.3242031931877136e-02</internalNodes>
      <leafValues>
        1.1209309101104736e-01 -5.5758148431777954e-01</leafValues></_>
    <_>
      <internalNodes>
        0 -1 146848 -5.5742720142006874e-03</internalNodes>
      <leafValues>
        3.6071327328681946e-01 -2.4634364247322083e-01</leafValues></_>
    <_>
      <internalNodes>
        0 -1 161169 2.5942409411072731e-03</internalNodes>
      <leafValues>
        -2.5699728727340698e-01 3.4337314963340759e-01</leafValues></_>
    <_>
      <internalNodes>
        0 -1 161549 -2.7724171523004770e-03</internalNodes>
      <leafValues>
        4.4258227944374084e-01 -2.0519268512725830e-01</leafValues></_>
    <_>
      <internalNodes>
        0 -1 148122 -3.1731143593788147e-02</internalNodes>
      <leafValues>
        -6.3901311159133911e-01 1.6234329342842102e-01</leafValues></_>
    <_>
      <internalNodes>
        0 -1 114347 -7.5057623907923698e-03</internalNodes>
      <leafValues>
        -8.2638186216354370e-01 8.3483569324016571e-02</leafValues></_>
    <_>
      <internalNodes>
        0 -1 178330 5.8996002189815044e-04</internalNodes>
      <leafValues>
        -2.0799778401851654e-01 4.1124957799911499e-01</leafValues></_>
    <_>
      <internalNodes>
        0 -1 217683 6.2963925302028656e-03</internalNodes>
      <leafValues>
        -7.7595204114913940e-02 7.7880197763442993e-01</leafValues></_>
    <_>
      <internalNodes>
        0 -1 164482 2.5652986951172352e-03</internalNodes>
      <leafValues>
        1.5443094074726105e-01 -5.2895283699035645e-01</leafValues></_>
    <_>
      <internalNodes>
        0 -1 135311 -6.2343478202819824e-02</internalNodes>
      <leafValues>
        -8.6402326822280884e-01 7.9473771154880524e-02</leafValues></_></weakClassifiers></stage3>
</opencv_storage>
