<?xml version="1.0"?>
<opencv_storage>
<stage1>
  <maxWeakCount>22</maxWeakCount>
  <stageThreshold>-6.8514025211334229e-01</stageThreshold>
  <weakClassifiers>
    <_>
      <internalNodes>
        0 -1 2375 3.4250825643539429e-01</internalNodes>
      <leafValues>
        4.3379789590835571e-01 -2.3762376606464386e-01</leafValues></_>
    <_>
      <internalNodes>
        0 -1 73405 -1.7762580886483192e-02</internalNodes>
      <leafValues>
        7.0666265487670898e-01 -6.4016550779342651e-02</leafValues></_>
    <_>
      <internalNodes>
        0 -1 80857 1.5489130746573210e-03</internalNodes>
      <leafValues>
        -2.7109092473983765e-01 4.1004097461700439e-01</leafValues></_>
    <_>
      <internalNodes>
        0 -1 149577 2.6946954894810915e-03</internalNodes>
      <leafValues>
        -7.8463390469551086e-02 4.6957543492317200e-01</leafValues></_>
    <_>
      <internalNodes>
        0 -1 149673 -9.0172537602484226e-04</internalNodes>
      <leafValues>
        3.6738076806068420e-01 -2.2494491934776306e-01</leafValues></_>
    <_>
      <internalNodes>
        0 -1 136546 -5.4693187121301889e-04</internalNodes>
      <leafValues>
        3.0225694179534912e-01 -1.7085787653923035e-01</leafValues></_>
    <_>
      <internalNodes>
        0 -1 47493 -1.8867551989387721e-04</internalNodes>
      <leafValues>
        2.9058393836021423e-01 -1.9714622199535370e-01</leafValues></_>
    <_>
      <internalNodes>
        0 -1 189443 -6.0571203939616680e-03</internalNodes>
      <leafValues>
        4.2162394523620605e-01 -1.2328521907329559e-01</leafValues></_>
    <_>
      <internalNodes>
        0 -1 116696 -9.3973726034164429e-02</internalNodes>
      <leafValues>
        -4.8357251286506653e-01 1.2549699842929840e-01</leafValues></_>
    <_>
      <internalNodes>
        0 -1 146875 5.9650164097547531e-02</internalNodes>
      <leafValues>
        1.1479081213474274e-01 -5.6254684925079346e-01</leafValues></_>
    <_>
      <internalNodes>
        0 -1 196814 8.8438624516129494e-03</internalNodes>
      <leafValues>
        -1.0380779206752777e-01 6.7119073867797852e-01</leafValues></_>
    <_>
      <internalNodes>
        0 -1 189719 1.9528580596670508e-03</internalNodes>
      <leafValues>
        -1.8520975112915039e-01 2.7400487661361694e-01</leafValues></_>
    <_>
      <internalNodes>
        0 -1 180383 9.3575543724000454e-04</internalNodes>
      <leafValues>
        -1.8968138098716736e-01 2.8575187921524048e-01</leafValues></_>
    <_>
      <internalNodes>
        0 -1 162759 -6.3368263654410839e-03</internalNodes>
      <leafValues>
        8.0868583917617798e-01 -6.7651405930519104e-02</leafValues></_>
    <_>
      <internalNodes>
        0 -1 156874 -7.4938806938007474e-04</internalNodes>
      <leafValues>
        3.2928651571273804e-01 -1.6660396754741669e-01</leafValues></_>
    <_>
      <internalNodes>
        0 -1 143557 -1.1832382297143340e-03</internalNodes>
      <leafValues>
        3.0040100216865540e-01 -1.7946942150592804e-01</leafValues></_>
    <_>
      <internalNodes>
        0 -1 147943 3.3908407203853130e-04</internalNodes>
      <leafValues>
        -1.7867286503314972e-01 2.9055964946746826e-01</leafValues></_>
    <_>
      <internalNodes>
        0 -1 50110 2.7003061026334763e-02</internalNodes>
      <leafValues>
        -9.1357298195362091e-02 5.4934203624725342e-01</leafValues></_>
    <_>
      <internalNodes>
        0 -1 187082 -2.4261777289211750e-03</internalNodes>
      <leafValues>
        -5.6068766117095947e-01 1.0584786534309387e-01</leafValues></_>
    <_>
      <internalNodes>
        0 -1 132891 -2.1119220764376223e-04</internalNodes>
      <leafValues>
        3.2872122526168823e-01 -1.5530577301979065e-01</leafValues></_>
    <_>
      <internalNodes>
        0 -1 121059 -1.6505124513059855e-03</internalNodes>
      <leafValues>
        3.3235457539558411e-01 -1.5826199948787689e-01</leafValues></_>
    <_>
      <internalNodes>
        0 -1 120745 3.2988118473440409e-03</internalNodes>
      <leafValues>
        -1.3974463939666748e-01 4.3610486388206482e-01</leafValues></_></weakClassifiers></stage1>
</opencv_storage>
