<?xml version="1.0"?>
<opencv_storage>
<stage1>
  <maxWeakCount>12</maxWeakCount>
  <stageThreshold>-6.7364817857742310e-01</stageThreshold>
  <weakClassifiers>
    <_>
      <internalNodes>
        0 -1 133977 8.1221394240856171e-02</internalNodes>
      <leafValues>
        4.5499181747436523e-01 -8.2812500000000000e-01</leafValues></_>
    <_>
      <internalNodes>
        0 -1 123637 1.4944717986509204e-03</internalNodes>
      <leafValues>
        -3.0670058727264404e-01 5.1110857725143433e-01</leafValues></_>
    <_>
      <internalNodes>
        0 -1 148947 -5.0152190029621124e-02</internalNodes>
      <leafValues>
        -7.1635341644287109e-01 1.8696190416812897e-01</leafValues></_>
    <_>
      <internalNodes>
        0 -1 218254 -1.5633800067007542e-03</internalNodes>
      <leafValues>
        3.2526865601539612e-01 -3.9115709066390991e-01</leafValues></_>
    <_>
      <internalNodes>
        0 -1 199129 1.8922400195151567e-03</internalNodes>
      <leafValues>
        -2.7181193232536316e-01 4.6459639072418213e-01</leafValues></_>
    <_>
      <internalNodes>
        0 -1 93160 1.7860960215330124e-03</internalNodes>
      <leafValues>
        -2.4701355397701263e-01 5.0538569688796997e-01</leafValues></_>
    <_>
      <internalNodes>
        0 -1 106333 -1.0541692376136780e-02</internalNodes>
      <leafValues>
        6.0877281427383423e-01 -2.2747468948364258e-01</leafValues></_>
    <_>
      <internalNodes>
        0 -1 110874 -1.2848067283630371e-01</internalNodes>
      <leafValues>
        -8.9834648370742798e-01 1.6191802918910980e-01</leafValues></_>
    <_>
      <internalNodes>
        0 -1 89789 9.4857558608055115e-02</internalNodes>
      <leafValues>
        1.3074974715709686e-01 -6.8928289413452148e-01</leafValues></_>
    <_>
      <internalNodes>
        0 -1 176545 -4.2873967322520912e-04</internalNodes>
      <leafValues>
        4.5889922976493835e-01 -2.7599340677261353e-01</leafValues></_>
    <_>
      <internalNodes>
        0 -1 175808 1.9395744893699884e-03</internalNodes>
      <leafValues>
        -2.1868033707141876e-01 5.1974034309387207e-01</leafValues></_>
    <_>
      <internalNodes>
        0 -1 161238 5.4058795794844627e-03</internalNodes>
      <leafValues>
        -2.3718400299549103e-01 4.8802950978279114e-01</leafValues></_></weakClassifiers></stage1>
</opencv_storage>
