<?xml version="1.0"?>
<opencv_storage>
<stage9>
  <maxWeakCount>19</maxWeakCount>
  <stageThreshold>-6.2621980905532837e-01</stageThreshold>
  <weakClassifiers>
    <_>
      <internalNodes>
        0 -1 158873 7.3502183659002185e-04</internalNodes>
      <leafValues>
        4.3062202632427216e-02 5.8506226539611816e-01</leafValues></_>
    <_>
      <internalNodes>
        0 -1 135276 1.5020068734884262e-02</internalNodes>
      <leafValues>
        -1.3154783844947815e-01 4.6939274668693542e-01</leafValues></_>
    <_>
      <internalNodes>
        0 -1 206626 -5.9988382272422314e-03</internalNodes>
      <leafValues>
        2.5339832901954651e-01 -2.3998591303825378e-01</leafValues></_>
    <_>
      <internalNodes>
        0 -1 154114 -3.2528348267078400e-02</internalNodes>
      <leafValues>
        5.8168315887451172e-01 -1.4801819622516632e-01</leafValues></_>
    <_>
      <internalNodes>
        0 -1 124123 1.6011751722544432e-03</internalNodes>
      <leafValues>
        -3.1023654341697693e-01 2.1891395747661591e-01</leafValues></_>
    <_>
      <internalNodes>
        0 -1 28721 -3.8258978165686131e-03</internalNodes>
      <leafValues>
        -6.0787624120712280e-01 8.3456538617610931e-02</leafValues></_>
    <_>
      <internalNodes>
        0 -1 191349 -4.1148040327243507e-04</internalNodes>
      <leafValues>
        3.2024881243705750e-01 -1.9717128574848175e-01</leafValues></_>
    <_>
      <internalNodes>
        0 -1 176941 -7.5421971268951893e-04</internalNodes>
      <leafValues>
        4.0023708343505859e-01 -1.4357648789882660e-01</leafValues></_>
    <_>
      <internalNodes>
        0 -1 142297 -1.4225002378225327e-03</internalNodes>
      <leafValues>
        3.7437936663627625e-01 -1.8073855340480804e-01</leafValues></_>
    <_>
      <internalNodes>
        0 -1 223696 -2.9291054233908653e-03</internalNodes>
      <leafValues>
        -7.0587384700775146e-01 9.6791081130504608e-02</leafValues></_>
    <_>
      <internalNodes>
        0 -1 124781 6.2057554721832275e-02</internalNodes>
      <leafValues>
        8.9760638773441315e-02 -6.3826501369476318e-01</leafValues></_>
    <_>
      <internalNodes>
        0 -1 218094 6.4291511080227792e-05</internalNodes>
      <leafValues>
        -2.6528143882751465e-01 2.3434813320636749e-01</leafValues></_>
    <_>
      <internalNodes>
        0 -1 153964 -5.0865091383457184e-02</internalNodes>
      <leafValues>
        -6.9202220439910889e-01 1.0976260155439377e-01</leafValues></_>
    <_>
      <internalNodes>
        0 -1 170054 1.8436785787343979e-02</internalNodes>
      <leafValues>
        6.4720988273620605e-02 -7.3986661434173584e-01</leafValues></_>
    <_>
      <internalNodes>
        0 -1 180505 6.8698421819135547e-04</internalNodes>
      <leafValues>
        -2.3395539820194244e-01 2.9370731115341187e-01</leafValues></_>
    <_>
      <internalNodes>
        0 -1 200134 -3.2169292680919170e-03</internalNodes>
      <leafValues>
        3.0202665925025940e-01 -2.2959427535533905e-01</leafValues></_>
    <_>
      <internalNodes>
        0 -1 195884 1.7787624150514603e-02</internalNodes>
      <leafValues>
        -1.6987188160419464e-01 4.3186411261558533e-01</leafValues></_>
    <_>
      <internalNodes>
        0 -1 77592 3.3368328586220741e-03</internalNodes>
      <leafValues>
        8.3385556936264038e-02 -9.1097766160964966e-01</leafValues></_>
    <_>
      <internalNodes>
        0 -1 232545 3.7448406219482422e-03</internalNodes>
      <leafValues>
        -1.2961849570274353e-01 5.3671717643737793e-01</leafValues></_></weakClassifiers></stage9>
</opencv_storage>
