<?xml version="1.0"?>
<opencv_storage>
<stage3>
  <maxWeakCount>35</maxWeakCount>
  <stageThreshold>-6.3034838438034058e-01</stageThreshold>
  <weakClassifiers>
    <_>
      <internalNodes>
        0 -1 136640 2.9858048073947430e-03</internalNodes>
      <leafValues>
        3.8902148604393005e-01 -4.1935482621192932e-01</leafValues></_>
    <_>
      <internalNodes>
        0 -1 197880 -2.7392085641622543e-02</internalNodes>
      <leafValues>
        8.2597285509109497e-01 -3.5194072406738997e-03</leafValues></_>
    <_>
      <internalNodes>
        0 -1 43425 2.6719359681010246e-02</internalNodes>
      <leafValues>
        -1.7732489109039307e-01 3.0913043022155762e-01</leafValues></_>
    <_>
      <internalNodes>
        0 -1 26707 3.5485908389091492e-02</internalNodes>
      <leafValues>
        -4.6371474862098694e-02 8.7043750286102295e-01</leafValues></_>
    <_>
      <internalNodes>
        0 -1 80781 -4.8828339204192162e-03</internalNodes>
      <leafValues>
        -4.8699137568473816e-01 7.7625170350074768e-02</leafValues></_>
    <_>
      <internalNodes>
        0 -1 177869 2.3175724782049656e-03</internalNodes>
      <leafValues>
        1.1240547895431519e-01 -3.9140284061431885e-01</leafValues></_>
    <_>
      <internalNodes>
        0 -1 10740 1.8010228872299194e-02</internalNodes>
      <leafValues>
        -7.8740641474723816e-02 4.6844059228897095e-01</leafValues></_>
    <_>
      <internalNodes>
        0 -1 75588 -8.9013408869504929e-03</internalNodes>
      <leafValues>
        -7.6072257757186890e-01 4.7156885266304016e-02</leafValues></_>
    <_>
      <internalNodes>
        0 -1 99830 5.0289347767829895e-02</internalNodes>
      <leafValues>
        4.8860907554626465e-02 -6.7383998632431030e-01</leafValues></_>
    <_>
      <internalNodes>
        0 -1 197209 -7.3197213932871819e-03</internalNodes>
      <leafValues>
        4.5306473970413208e-01 -9.3310229480266571e-02</leafValues></_>
    <_>
      <internalNodes>
        0 -1 21816 -1.3563921675086021e-03</internalNodes>
      <leafValues>
        -5.7607138156890869e-01 7.0114627480506897e-02</leafValues></_>
    <_>
      <internalNodes>
        0 -1 118715 -8.0812666565179825e-03</internalNodes>
      <leafValues>
        3.1996688246726990e-01 -1.2322124093770981e-01</leafValues></_>
    <_>
      <internalNodes>
        0 -1 193251 -2.6556465309113264e-03</internalNodes>
      <leafValues>
        3.4440752863883972e-01 -1.2072118371725082e-01</leafValues></_>
    <_>
      <internalNodes>
        0 -1 185360 -6.2435894506052136e-04</internalNodes>
      <leafValues>
        2.4705798923969269e-01 -1.6056521236896515e-01</leafValues></_>
    <_>
      <internalNodes>
        0 -1 181996 1.3759041205048561e-02</internalNodes>
      <leafValues>
        -1.1911724507808685e-01 4.5807674527168274e-01</leafValues></_>
    <_>
      <internalNodes>
        0 -1 46007 -5.8304145932197571e-03</internalNodes>
      <leafValues>
        -5.0846582651138306e-01 8.4413491189479828e-02</leafValues></_>
    <_>
      <internalNodes>
        0 -1 123812 -1.8247585743665695e-02</internalNodes>
      <leafValues>
        6.6957253217697144e-01 -6.5234832465648651e-02</leafValues></_>
    <_>
      <internalNodes>
        0 -1 197130 1.3592662289738655e-02</internalNodes>
      <leafValues>
        9.6756860613822937e-02 -4.5891731977462769e-01</leafValues></_>
    <_>
      <internalNodes>
        0 -1 26745 -1.4079103711992502e-03</internalNodes>
      <leafValues>
        -4.5365974307060242e-01 8.8450111448764801e-02</leafValues></_>
    <_>
      <internalNodes>
        0 -1 69992 -3.2097432762384415e-02</internalNodes>
      <leafValues>
        6.2923610210418701e-01 -6.9977901875972748e-02</leafValues></_>
    <_>
      <internalNodes>
        0 -1 24163 -2.7755449991673231e-04</internalNodes>
      <leafValues>
        -3.1530302762985229e-01 1.3104812800884247e-01</leafValues></_>
    <_>
      <internalNodes>
        0 -1 185709 -4.7418131725862622e-04</internalNodes>
      <leafValues>
        2.5600606203079224e-01 -1.5944044291973114e-01</leafValues></_>
    <_>
      <internalNodes>
        0 -1 87166 -1.9230615580454469e-03</internalNodes>
      <leafValues>
        3.6222949624061584e-01 -1.0500711202621460e-01</leafValues></_>
    <_>
      <internalNodes>
        0 -1 151384 -1.0906289098784328e-03</internalNodes>
      <leafValues>
        -3.4941545128822327e-01 1.0647046566009521e-01</leafValues></_>
    <_>
      <internalNodes>
        0 -1 105735 -1.4906817814335227e-03</internalNodes>
      <leafValues>
        3.2880321145057678e-01 -1.1617018282413483e-01</leafValues></_>
    <_>
      <internalNodes>
        0 -1 161734 6.1952169053256512e-03</internalNodes>
      <leafValues>
        -1.1023525148630142e-01 3.8280415534973145e-01</leafValues></_>
    <_>
      <internalNodes>
        0 -1 19620 -3.2265058252960443e-03</internalNodes>
      <leafValues>
        -5.8425116539001465e-01 7.5150415301322937e-02</leafValues></_>
    <_>
      <internalNodes>
        0 -1 14906 8.8313110172748566e-03</internalNodes>
      <leafValues>
        -1.1396300047636032e-01 3.6599344015121460e-01</leafValues></_>
    <_>
      <internalNodes>
        0 -1 162377 -2.8841439634561539e-02</internalNodes>
      <leafValues>
        6.8280893564224243e-01 -5.2930824458599091e-02</leafValues></_>
    <_>
      <internalNodes>
        0 -1 194897 1.1494261212646961e-02</internalNodes>
      <leafValues>
        -5.5343903601169586e-02 6.4513432979583740e-01</leafValues></_>
    <_>
      <internalNodes>
        0 -1 171472 1.2084981426596642e-03</internalNodes>
      <leafValues>
        -1.0441378504037857e-01 3.3426055312156677e-01</leafValues></_>
    <_>
      <internalNodes>
        0 -1 171309 -2.2275187075138092e-03</internalNodes>
      <leafValues>
        3.2339456677436829e-01 -1.2607116997241974e-01</leafValues></_>
    <_>
      <internalNodes>
        0 -1 66001 -3.2225633040070534e-03</internalNodes>
      <leafValues>
        -4.2277714610099792e-01 1.0534635186195374e-01</leafValues></_>
    <_>
      <internalNodes>
        0 -1 172260 -1.5728540718555450e-02</internalNodes>
      <leafValues>
        3.6436387896537781e-01 -1.1462941020727158e-01</leafValues></_>
    <_>
      <internalNodes>
        0 -1 175407 1.8838364630937576e-03</internalNodes>
      <leafValues>
        -1.3107003271579742e-01 2.9723018407821655e-01</leafValues></_></weakClassifiers></stage3>
</opencv_storage>
