<?xml version="1.0"?>
<opencv_storage>
<stage8>
  <maxWeakCount>25</maxWeakCount>
  <stageThreshold>-7.3170536756515503e-01</stageThreshold>
  <weakClassifiers>
    <_>
      <internalNodes>
        0 -1 123694 4.2901298729702830e-04</internalNodes>
      <leafValues>
        -7.0351757109165192e-02 5.0210082530975342e-01</leafValues></_>
    <_>
      <internalNodes>
        0 -1 203450 -6.3052051700651646e-03</internalNodes>
      <leafValues>
        4.2108148336410522e-01 -1.6489413380622864e-01</leafValues></_>
    <_>
      <internalNodes>
        0 -1 185338 -9.1572828590869904e-02</internalNodes>
      <leafValues>
        -7.2127538919448853e-01 9.2262133955955505e-02</leafValues></_>
    <_>
      <internalNodes>
        0 -1 190999 3.1502320780418813e-04</internalNodes>
      <leafValues>
        -2.9466536641120911e-01 2.1424543857574463e-01</leafValues></_>
    <_>
      <internalNodes>
        0 -1 223141 -2.3772497661411762e-03</internalNodes>
      <leafValues>
        -8.5754036903381348e-01 8.3341762423515320e-02</leafValues></_>
    <_>
      <internalNodes>
        0 -1 192355 4.5018939999863505e-04</internalNodes>
      <leafValues>
        -2.5627756118774414e-01 2.4870643019676208e-01</leafValues></_>
    <_>
      <internalNodes>
        0 -1 157058 3.0329611152410507e-02</internalNodes>
      <leafValues>
        -1.5385644137859344e-01 5.1168352365493774e-01</leafValues></_>
    <_>
      <internalNodes>
        0 -1 114224 5.9132013469934464e-02</internalNodes>
      <leafValues>
        1.0704003274440765e-01 -6.7145502567291260e-01</leafValues></_>
    <_>
      <internalNodes>
        0 -1 183064 1.3620659708976746e-01</internalNodes>
      <leafValues>
        -9.4438150525093079e-02 7.2889113426208496e-01</leafValues></_>
    <_>
      <internalNodes>
        0 -1 205515 -1.9631121307611465e-02</internalNodes>
      <leafValues>
        3.4398740530014038e-01 -2.0161829888820648e-01</leafValues></_>
    <_>
      <internalNodes>
        0 -1 161490 2.0216770935803652e-03</internalNodes>
      <leafValues>
        1.1587493121623993e-01 -5.1264870166778564e-01</leafValues></_>
    <_>
      <internalNodes>
        0 -1 216918 -3.1290976330637932e-03</internalNodes>
      <leafValues>
        5.0385785102844238e-01 -1.3344398140907288e-01</leafValues></_>
    <_>
      <internalNodes>
        0 -1 55157 3.3646099269390106e-02</internalNodes>
      <leafValues>
        -1.6782025992870331e-01 3.6952483654022217e-01</leafValues></_>
    <_>
      <internalNodes>
        0 -1 182745 -1.8164652283303440e-04</internalNodes>
      <leafValues>
        2.9803460836410522e-01 -2.0979328453540802e-01</leafValues></_>
    <_>
      <internalNodes>
        0 -1 120280 -4.0041245520114899e-02</internalNodes>
      <leafValues>
        -6.1784845590591431e-01 1.0923551023006439e-01</leafValues></_>
    <_>
      <internalNodes>
        0 -1 192722 -7.0322584360837936e-04</internalNodes>
      <leafValues>
        1.9681715965270996e-01 -3.5703924298286438e-01</leafValues></_>
    <_>
      <internalNodes>
        0 -1 240029 -9.8046362400054932e-03</internalNodes>
      <leafValues>
        5.2814853191375732e-01 -1.2886093556880951e-01</leafValues></_>
    <_>
      <internalNodes>
        0 -1 224170 1.0391244431957603e-03</internalNodes>
      <leafValues>
        1.0592814534902573e-01 -6.3294881582260132e-01</leafValues></_>
    <_>
      <internalNodes>
        0 -1 207273 2.5341347791254520e-03</internalNodes>
      <leafValues>
        6.4205631613731384e-02 -8.0143558979034424e-01</leafValues></_>
    <_>
      <internalNodes>
        0 -1 158629 9.8627596162259579e-04</internalNodes>
      <leafValues>
        -1.8617855012416840e-01 3.5341265797615051e-01</leafValues></_>
    <_>
      <internalNodes>
        0 -1 190223 -2.9644917231053114e-04</internalNodes>
      <leafValues>
        3.6969861388206482e-01 -2.0548354089260101e-01</leafValues></_>
    <_>
      <internalNodes>
        0 -1 226181 1.4266078360378742e-03</internalNodes>
      <leafValues>
        1.0905174911022186e-01 -6.2521910667419434e-01</leafValues></_>
    <_>
      <internalNodes>
        0 -1 205843 -6.1010220088064671e-03</internalNodes>
      <leafValues>
        4.5043629407882690e-01 -1.6387207806110382e-01</leafValues></_>
    <_>
      <internalNodes>
        0 -1 212843 7.5687551870942116e-03</internalNodes>
      <leafValues>
        1.3634182512760162e-01 -4.9428644776344299e-01</leafValues></_>
    <_>
      <internalNodes>
        0 -1 199536 4.8172641545534134e-03</internalNodes>
      <leafValues>
        8.6187377572059631e-02 -7.0708107948303223e-01</leafValues></_></weakClassifiers></stage8>
</opencv_storage>
