<?xml version="1.0"?>
<opencv_storage>
<stage6>
  <maxWeakCount>18</maxWeakCount>
  <stageThreshold>-5.7844847440719604e-01</stageThreshold>
  <weakClassifiers>
    <_>
      <internalNodes>
        0 -1 145884 5.7750940322875977e-04</internalNodes>
      <leafValues>
        3.7735849618911743e-03 5.4634147882461548e-01</leafValues></_>
    <_>
      <internalNodes>
        0 -1 225700 4.0208618156611919e-03</internalNodes>
      <leafValues>
        -1.2241849303245544e-01 5.7556116580963135e-01</leafValues></_>
    <_>
      <internalNodes>
        0 -1 147394 1.8680951325222850e-03</internalNodes>
      <leafValues>
        -1.4362144470214844e-01 4.5827218890190125e-01</leafValues></_>
    <_>
      <internalNodes>
        0 -1 225577 -5.2799601107835770e-03</internalNodes>
      <leafValues>
        3.5106763243675232e-01 -2.0060351490974426e-01</leafValues></_>
    <_>
      <internalNodes>
        0 -1 164432 -1.8633950501680374e-02</internalNodes>
      <leafValues>
        -8.0742985010147095e-01 6.3436046242713928e-02</leafValues></_>
    <_>
      <internalNodes>
        0 -1 142057 8.1827685236930847e-02</internalNodes>
      <leafValues>
        6.1519462615251541e-02 -8.7017232179641724e-01</leafValues></_>
    <_>
      <internalNodes>
        0 -1 161478 -8.8049122132360935e-04</internalNodes>
      <leafValues>
        4.2901796102523804e-01 -1.5759961307048798e-01</leafValues></_>
    <_>
      <internalNodes>
        0 -1 178330 -7.1874808054417372e-04</internalNodes>
      <leafValues>
        5.0374996662139893e-01 -1.2686565518379211e-01</leafValues></_>
    <_>
      <internalNodes>
        0 -1 213180 4.4309571385383606e-03</internalNodes>
      <leafValues>
        9.0887725353240967e-02 -7.8305476903915405e-01</leafValues></_>
    <_>
      <internalNodes>
        0 -1 141266 -3.8913204334676266e-03</internalNodes>
      <leafValues>
        -5.5746966600418091e-01 1.0841520130634308e-01</leafValues></_>
    <_>
      <internalNodes>
        0 -1 121147 1.6963176894932985e-03</internalNodes>
      <leafValues>
        -2.2988492250442505e-01 2.8713285923004150e-01</leafValues></_>
    <_>
      <internalNodes>
        0 -1 186064 6.4134756103157997e-03</internalNodes>
      <leafValues>
        -1.4783640205860138e-01 4.6623522043228149e-01</leafValues></_>
    <_>
      <internalNodes>
        0 -1 207182 -2.3548814933747053e-03</internalNodes>
      <leafValues>
        -6.2830919027328491e-01 1.1378065496683121e-01</leafValues></_>
    <_>
      <internalNodes>
        0 -1 100620 -1.6483190702274442e-03</internalNodes>
      <leafValues>
        4.6097895503044128e-01 -1.5091389417648315e-01</leafValues></_>
    <_>
      <internalNodes>
        0 -1 101951 7.3027424514293671e-04</internalNodes>
      <leafValues>
        -1.6207264363765717e-01 3.9951515197753906e-01</leafValues></_>
    <_>
      <internalNodes>
        0 -1 138761 2.5428351014852524e-02</internalNodes>
      <leafValues>
        8.4291338920593262e-02 -8.2858538627624512e-01</leafValues></_>
    <_>
      <internalNodes>
        0 -1 78430 4.6804831363260746e-03</internalNodes>
      <leafValues>
        -1.4110717177391052e-01 5.1882863044738770e-01</leafValues></_>
    <_>
      <internalNodes>
        0 -1 47318 -1.3811513781547546e-03</internalNodes>
      <leafValues>
        -5.8121442794799805e-01 1.2846073508262634e-01</leafValues></_></weakClassifiers></stage6>
</opencv_storage>
