<?xml version="1.0"?>
<opencv_storage>
<stage8>
  <maxWeakCount>39</maxWeakCount>
  <stageThreshold>-5.5285865068435669e-01</stageThreshold>
  <weakClassifiers>
    <_>
      <internalNodes>
        0 -1 178921 2.3526060394942760e-03</internalNodes>
      <leafValues>
        3.7509787082672119e-01 -3.9726027846336365e-01</leafValues></_>
    <_>
      <internalNodes>
        0 -1 171096 -5.3447154350578785e-03</internalNodes>
      <leafValues>
        4.1381293535232544e-01 -6.3426777720451355e-02</leafValues></_>
    <_>
      <internalNodes>
        0 -1 160178 2.2058932110667229e-02</internalNodes>
      <leafValues>
        2.7211705222725868e-02 -6.9565087556838989e-01</leafValues></_>
    <_>
      <internalNodes>
        0 -1 14116 -1.7148483544588089e-02</internalNodes>
      <leafValues>
        6.8428713083267212e-01 -5.5512018501758575e-02</leafValues></_>
    <_>
      <internalNodes>
        0 -1 61767 -2.2553207818418741e-03</internalNodes>
      <leafValues>
        -4.5586714148521423e-01 5.6880004703998566e-02</leafValues></_>
    <_>
      <internalNodes>
        0 -1 136717 1.1238070437684655e-03</internalNodes>
      <leafValues>
        -1.2833423912525177e-01 2.3730348050594330e-01</leafValues></_>
    <_>
      <internalNodes>
        0 -1 179621 -3.7236451171338558e-03</internalNodes>
      <leafValues>
        -5.9516793489456177e-01 3.7705682218074799e-02</leafValues></_>
    <_>
      <internalNodes>
        0 -1 195362 -2.0981263369321823e-02</internalNodes>
      <leafValues>
        6.0719305276870728e-01 -5.9257686138153076e-02</leafValues></_>
    <_>
      <internalNodes>
        0 -1 47838 4.4515510089695454e-03</internalNodes>
      <leafValues>
        7.4413463473320007e-02 -4.3759408593177795e-01</leafValues></_>
    <_>
      <internalNodes>
        0 -1 125965 -1.5243022935464978e-03</internalNodes>
      <leafValues>
        3.0594703555107117e-01 -1.0750806331634521e-01</leafValues></_>
    <_>
      <internalNodes>
        0 -1 140378 -1.1951344786211848e-03</internalNodes>
      <leafValues>
        4.1694244742393494e-01 -9.0412557125091553e-02</leafValues></_>
    <_>
      <internalNodes>
        0 -1 134212 -6.9822639226913452e-02</internalNodes>
      <leafValues>
        -4.3474388122558594e-01 8.7764151394367218e-02</leafValues></_>
    <_>
      <internalNodes>
        0 -1 46566 1.4982044696807861e-02</internalNodes>
      <leafValues>
        5.3816959261894226e-02 -5.4846632480621338e-01</leafValues></_>
    <_>
      <internalNodes>
        0 -1 138409 -8.6347654461860657e-02</internalNodes>
      <leafValues>
        -5.7179665565490723e-01 4.2898118495941162e-02</leafValues></_>
    <_>
      <internalNodes>
        0 -1 82100 -3.7894034758210182e-03</internalNodes>
      <leafValues>
        -5.0637054443359375e-01 5.9456326067447662e-02</leafValues></_>
    <_>
      <internalNodes>
        0 -1 128158 -4.8196635907515883e-04</internalNodes>
      <leafValues>
        2.6195067167282104e-01 -1.2070814520120621e-01</leafValues></_>
    <_>
      <internalNodes>
        0 -1 110621 -1.9949430227279663e-01</internalNodes>
      <leafValues>
        -7.6923745870590210e-01 3.7618231028318405e-02</leafValues></_>
    <_>
      <internalNodes>
        0 -1 135086 1.0660199914127588e-03</internalNodes>
      <leafValues>
        6.2334120273590088e-02 -4.7028616070747375e-01</leafValues></_>
    <_>
      <internalNodes>
        0 -1 104771 -4.6910217497497797e-04</internalNodes>
      <leafValues>
        2.3834581673145294e-01 -1.3390576839447021e-01</leafValues></_>
    <_>
      <internalNodes>
        0 -1 139217 1.0934770107269287e-03</internalNodes>
      <leafValues>
        -5.7948499917984009e-02 6.0673123598098755e-01</leafValues></_>
    <_>
      <internalNodes>
        0 -1 187365 -4.8242807388305664e-03</internalNodes>
      <leafValues>
        -6.7772257328033447e-01 5.3569339215755463e-02</leafValues></_>
    <_>
      <internalNodes>
        0 -1 160275 -6.5240898402407765e-04</internalNodes>
      <leafValues>
        2.2923430800437927e-01 -1.5165694057941437e-01</leafValues></_>
    <_>
      <internalNodes>
        0 -1 20150 -1.6037438064813614e-02</internalNodes>
      <leafValues>
        -6.0836780071258545e-01 6.1336267739534378e-02</leafValues></_>
    <_>
      <internalNodes>
        0 -1 5 -1.5454520471394062e-03</internalNodes>
      <leafValues>
        4.2628502845764160e-01 -8.8636629283428192e-02</leafValues></_>
    <_>
      <internalNodes>
        0 -1 192146 -1.9002952612936497e-03</internalNodes>
      <leafValues>
        -5.3469228744506836e-01 7.7409215271472931e-02</leafValues></_>
    <_>
      <internalNodes>
        0 -1 181983 -1.9553754478693008e-02</internalNodes>
      <leafValues>
        6.7402452230453491e-01 -6.0267440974712372e-02</leafValues></_>
    <_>
      <internalNodes>
        0 -1 172731 -2.4324627593159676e-03</internalNodes>
      <leafValues>
        -5.8743351697921753e-01 6.9797210395336151e-02</leafValues></_>
    <_>
      <internalNodes>
        0 -1 39 -1.5223531983792782e-02</internalNodes>
      <leafValues>
        7.5625443458557129e-01 -5.4639346897602081e-02</leafValues></_>
    <_>
      <internalNodes>
        0 -1 37493 1.6895063221454620e-02</internalNodes>
      <leafValues>
        -8.1835366785526276e-02 3.8169798254966736e-01</leafValues></_>
    <_>
      <internalNodes>
        0 -1 37473 -1.6742752864956856e-02</internalNodes>
      <leafValues>
        4.2623901367187500e-01 -7.9483024775981903e-02</leafValues></_>
    <_>
      <internalNodes>
        0 -1 152023 2.2102752700448036e-03</internalNodes>
      <leafValues>
        -1.5663512051105499e-01 2.1582420170307159e-01</leafValues></_>
    <_>
      <internalNodes>
        0 -1 105281 -1.8959917128086090e-02</internalNodes>
      <leafValues>
        -5.5937767028808594e-01 5.6812580674886703e-02</leafValues></_>
    <_>
      <internalNodes>
        0 -1 158883 -6.2634889036417007e-04</internalNodes>
      <leafValues>
        3.0339464545249939e-01 -1.2175538390874863e-01</leafValues></_>
    <_>
      <internalNodes>
        0 -1 140236 4.8272674903273582e-03</internalNodes>
      <leafValues>
        -4.9460373818874359e-02 6.6833138465881348e-01</leafValues></_>
    <_>
      <internalNodes>
        0 -1 182175 -9.6497917547821999e-04</internalNodes>
      <leafValues>
        -2.8489002585411072e-01 1.3383972644805908e-01</leafValues></_>
    <_>
      <internalNodes>
        0 -1 116323 1.7617117613554001e-02</internalNodes>
      <leafValues>
        -4.1475959122180939e-02 7.8741502761840820e-01</leafValues></_>
    <_>
      <internalNodes>
        0 -1 112730 -5.9320842847228050e-03</internalNodes>
      <leafValues>
        -5.1396608352661133e-01 7.3105484247207642e-02</leafValues></_>
    <_>
      <internalNodes>
        0 -1 158658 1.2387520400807261e-03</internalNodes>
      <leafValues>
        -1.6679058969020844e-01 2.0352479815483093e-01</leafValues></_>
    <_>
      <internalNodes>
        0 -1 77202 -6.2731029465794563e-03</internalNodes>
      <leafValues>
        -5.6075322628021240e-01 6.6271930932998657e-02</leafValues></_></weakClassifiers></stage8>
</opencv_storage>
