<?xml version="1.0"?>
<opencv_storage>
<cascade>
  <stageType>BOOST</stageType>
  <featureType>HAAR</featureType>
  <height>12</height>
  <width>28</width>
  <stageParams>
    <boostType>GAB</boostType>
    <minHitRate>9.9500000476837158e-01</minHitRate>
    <maxFalseAlarm>5.0000000000000000e-01</maxFalseAlarm>
    <weightTrimRate>9.4999999999999996e-01</weightTrimRate>
    <maxDepth>1</maxDepth>
    <maxWeakCount>100</maxWeakCount></stageParams>
  <featureParams>
    <maxCatCount>0</maxCatCount>
    <featSize>1</featSize>
    <mode>BASIC</mode></featureParams>
  <stageNum>15</stageNum>
  <stages>
    <!-- stage 0 -->
    <_>
      <maxWeakCount>6</maxWeakCount>
      <stageThreshold>-7.1213346719741821e-01</stageThreshold>
      <weakClassifiers>
        <_>
          <internalNodes>
            0 -1 124 2.7584685012698174e-03</internalNodes>
          <leafValues>
            -3.3333334326744080e-01 8.5243743658065796e-01</leafValues></_>
        <_>
          <internalNodes>
            0 -1 105 4.8725311644375324e-03</internalNodes>
          <leafValues>
            -3.0693757534027100e-01 7.9449981451034546e-01</leafValues></_>
        <_>
          <internalNodes>
            0 -1 41 1.7244924092665315e-03</internalNodes>
          <leafValues>
            -2.9485195875167847e-01 5.5628705024719238e-01</leafValues></_>
        <_>
          <internalNodes>
            0 -1 101 -5.7652699761092663e-03</internalNodes>
          <leafValues>
            7.9385876655578613e-01 -2.0291456580162048e-01</leafValues></_>
        <_>
          <internalNodes>
            0 -1 13 -7.0564486086368561e-02</internalNodes>
          <leafValues>
            8.1946778297424316e-01 -1.9327694177627563e-01</leafValues></_>
        <_>
          <internalNodes>
            0 -1 83 3.5208275076001883e-03</internalNodes>
          <leafValues>
            -2.3195812106132507e-01 6.9660156965255737e-01</leafValues></_></weakClassifiers></_>
    <!-- stage 1 -->
    <_>
      <maxWeakCount>9</maxWeakCount>
      <stageThreshold>-8.0376321077346802e-01</stageThreshold>
      <weakClassifiers>
        <_>
          <internalNodes>
            0 -1 86 9.8441038280725479e-03</internalNodes>
          <leafValues>
            -2.1351766586303711e-01 8.4263235330581665e-01</leafValues></_>
        <_>
          <internalNodes>
            0 -1 135 -1.3500117929652333e-03</internalNodes>
          <leafValues>
            6.2074458599090576e-01 -3.1870847940444946e-01</leafValues></_>
        <_>
          <internalNodes>
            0 -1 10 -2.0129891345277429e-04</internalNodes>
          <leafValues>
            3.7799158692359924e-01 -4.3715953826904297e-01</leafValues></_>
        <_>
          <internalNodes>
            0 -1 138 -1.4069819590076804e-03</internalNodes>
          <leafValues>
            4.4812905788421631e-01 -3.4969085454940796e-01</leafValues></_>
        <_>
          <internalNodes>
            0 -1 148 1.5698862262070179e-03</internalNodes>
          <leafValues>
            -2.9388377070426941e-01 5.3949564695358276e-01</leafValues></_>
        <_>
          <internalNodes>
            0 -1 65 -5.6139011867344379e-03</internalNodes>
          <leafValues>
            -8.1460636854171753e-01 1.8928901851177216e-01</leafValues></_>
        <_>
          <internalNodes>
            0 -1 84 5.2527184598147869e-03</internalNodes>
          <leafValues>
            -2.9127576947212219e-01 4.9677550792694092e-01</leafValues></_>
        <_>
          <internalNodes>
            0 -1 91 -3.9483945816755295e-02</internalNodes>
          <leafValues>
            5.5578577518463135e-01 -2.5332775712013245e-01</leafValues></_>
        <_>
          <internalNodes>
            0 -1 94 6.9674765691161156e-03</internalNodes>
          <leafValues>
            -2.3936225473880768e-01 5.6520462036132812e-01</leafValues></_></weakClassifiers></_>
    <!-- stage 2 -->
    <_>
      <maxWeakCount>10</maxWeakCount>
      <stageThreshold>-1.0965008735656738e+00</stageThreshold>
      <weakClassifiers>
        <_>
          <internalNodes>
            0 -1 71 1.5377007424831390e-02</internalNodes>
          <leafValues>
            -1.5542522072792053e-01 8.3233535289764404e-01</leafValues></_>
        <_>
          <internalNodes>
            0 -1 60 8.9292787015438080e-04</internalNodes>
          <leafValues>
            -3.2941654324531555e-01 5.5777406692504883e-01</leafValues></_>
        <_>
          <internalNodes>
            0 -1 131 2.1142084151506424e-03</internalNodes>
          <leafValues>
            -3.9898729324340820e-01 3.8610559701919556e-01</leafValues></_>
        <_>
          <internalNodes>
            0 -1 66 1.9542118534445763e-02</internalNodes>
          <leafValues>
            1.5832515060901642e-01 -8.3459025621414185e-01</leafValues></_>
        <_>
          <internalNodes>
            0 -1 6 -1.2173390388488770e-01</internalNodes>
          <leafValues>
            6.0526311397552490e-01 -2.4050183594226837e-01</leafValues></_>
        <_>
          <internalNodes>
            0 -1 74 -4.2132646776735783e-03</internalNodes>
          <leafValues>
            -8.3087772130966187e-01 1.6799114644527435e-01</leafValues></_>
        <_>
          <internalNodes>
            0 -1 24 -4.2532067745923996e-03</internalNodes>
          <leafValues>
            -7.3730969429016113e-01 1.5702590346336365e-01</leafValues></_>
        <_>
          <internalNodes>
            0 -1 7 -1.0005769133567810e-01</internalNodes>
          <leafValues>
            7.1311104297637939e-01 -1.9128882884979248e-01</leafValues></_>
        <_>
          <internalNodes>
            0 -1 4 1.4269365929067135e-03</internalNodes>
          <leafValues>
            -3.9638322591781616e-01 3.2920047640800476e-01</leafValues></_>
        <_>
          <internalNodes>
            0 -1 119 -3.3285329118371010e-03</internalNodes>
          <leafValues>
            -8.9602816104888916e-01 1.3215987384319305e-01</leafValues></_></weakClassifiers></_>
    <!-- stage 3 -->
    <_>
      <maxWeakCount>9</maxWeakCount>
      <stageThreshold>-7.1530222892761230e-01</stageThreshold>
      <weakClassifiers>
        <_>
          <internalNodes>
            0 -1 85 1.6634861240163445e-03</internalNodes>
          <leafValues>
            -2.1847246587276459e-01 7.2808134555816650e-01</leafValues></_>
        <_>
          <internalNodes>
            0 -1 121 1.4410276198759675e-03</internalNodes>
          <leafValues>
            -3.7993142008781433e-01 5.2636575698852539e-01</leafValues></_>
        <_>
          <internalNodes>
            0 -1 78 -2.7931497897952795e-03</internalNodes>
          <leafValues>
            6.6223001480102539e-01 -2.3536553978919983e-01</leafValues></_>
        <_>
          <internalNodes>
            0 -1 150 1.0255766101181507e-03</internalNodes>
          <leafValues>
            -3.9219990372657776e-01 4.0186420083045959e-01</leafValues></_>
        <_>
          <internalNodes>
            0 -1 99 2.4754272308200598e-03</internalNodes>
          <leafValues>
            -4.0097403526306152e-01 3.7994691729545593e-01</leafValues></_>
        <_>
          <internalNodes>
            0 -1 107 -3.3238884061574936e-03</internalNodes>
          <leafValues>
            -8.8665258884429932e-01 1.8222744762897491e-01</leafValues></_>
        <_>
          <internalNodes>
            0 -1 133 -1.8349468708038330e-02</internalNodes>
          <leafValues>
            -7.4487400054931641e-01 1.3892647624015808e-01</leafValues></_>
        <_>
          <internalNodes>
            0 -1 33 4.3847281485795975e-03</internalNodes>
          <leafValues>
            -3.3649146556854248e-01 4.7144851088523865e-01</leafValues></_>
        <_>
          <internalNodes>
            0 -1 129 -3.5525306593626738e-03</internalNodes>
          <leafValues>
            -7.8725844621658325e-01 2.2027465701103210e-01</leafValues></_></weakClassifiers></_>
    <!-- stage 4 -->
    <_>
      <maxWeakCount>13</maxWeakCount>
      <stageThreshold>-8.0721050500869751e-01</stageThreshold>
      <weakClassifiers>
        <_>
          <internalNodes>
            0 -1 111 -8.9632589370012283e-03</internalNodes>
          <leafValues>
            8.1677019596099854e-01 -1.0764872282743454e-01</leafValues></_>
        <_>
          <internalNodes>
            0 -1 126 2.8660087846219540e-03</internalNodes>
          <leafValues>
            -1.9495154917240143e-01 6.9968849420547485e-01</leafValues></_>
        <_>
          <internalNodes>
            0 -1 160 1.8641937058418989e-03</internalNodes>
          <leafValues>
            -2.8324750065803528e-01 4.7039633989334106e-01</leafValues></_>
        <_>
          <internalNodes>
            0 -1 28 1.5908337081782520e-04</internalNodes>
          <leafValues>
            -4.8480993509292603e-01 2.3811118304729462e-01</leafValues></_>
        <_>
          <internalNodes>
            0 -1 73 -4.0147723630070686e-03</internalNodes>
          <leafValues>
            -7.6800566911697388e-01 1.2520565092563629e-01</leafValues></_>
        <_>
          <internalNodes>
            0 -1 29 -5.9573039412498474e-02</internalNodes>
          <leafValues>
            6.0453677177429199e-01 -1.8813639879226685e-01</leafValues></_>
        <_>
          <internalNodes>
            0 -1 98 -1.9572684541344643e-03</internalNodes>
          <leafValues>
            5.0032508373260498e-01 -2.2585196793079376e-01</leafValues></_>
        <_>
          <internalNodes>
            0 -1 89 -1.0016654618084431e-02</internalNodes>
          <leafValues>
            6.6071361303329468e-01 -1.9040153920650482e-01</leafValues></_>
        <_>
          <internalNodes>
            0 -1 0 -4.1104732081294060e-03</internalNodes>
          <leafValues>
            4.5735639333724976e-01 -2.2588221728801727e-01</leafValues></_>
        <_>
          <internalNodes>
            0 -1 37 2.2044489160180092e-03</internalNodes>
          <leafValues>
            -2.9669019579887390e-01 3.3865934610366821e-01</leafValues></_>
        <_>
          <internalNodes>
            0 -1 96 -8.7977619841694832e-03</internalNodes>
          <leafValues>
            6.1672574281692505e-01 -1.6179513931274414e-01</leafValues></_>
        <_>
          <internalNodes>
            0 -1 104 3.0887132743373513e-04</internalNodes>
          <leafValues>
            3.0460315942764282e-01 -3.4666797518730164e-01</leafValues></_>
        <_>
          <internalNodes>
            0 -1 169 -1.0332233272492886e-02</internalNodes>
          <leafValues>
            4.1234368085861206e-01 -2.6784229278564453e-01</leafValues></_></weakClassifiers></_>
    <!-- stage 5 -->
    <_>
      <maxWeakCount>12</maxWeakCount>
      <stageThreshold>-1.0132592916488647e+00</stageThreshold>
      <weakClassifiers>
        <_>
          <internalNodes>
            0 -1 109 1.6005951911211014e-02</internalNodes>
          <leafValues>
            -1.6159999370574951e-01 7.5999999046325684e-01</leafValues></_>
        <_>
          <internalNodes>
            0 -1 71 2.3812521249055862e-02</internalNodes>
          <leafValues>
            -1.6546928882598877e-01 7.2003579139709473e-01</leafValues></_>
        <_>
          <internalNodes>
            0 -1 73 3.2894434407353401e-03</internalNodes>
          <leafValues>
            2.4200415611267090e-01 -7.4753600358963013e-01</leafValues></_>
        <_>
          <internalNodes>
            0 -1 16 1.8422985449433327e-03</internalNodes>
          <leafValues>
            -3.9538952708244324e-01 3.4642398357391357e-01</leafValues></_>
        <_>
          <internalNodes>
            0 -1 26 -7.0191938430070877e-03</internalNodes>
          <leafValues>
            -8.2793116569519043e-01 1.2613877654075623e-01</leafValues></_>
        <_>
          <internalNodes>
            0 -1 27 1.0765961371362209e-02</internalNodes>
          <leafValues>
            1.0139762610197067e-01 -7.9223471879959106e-01</leafValues></_>
        <_>
          <internalNodes>
            0 -1 143 -6.3251564279198647e-04</internalNodes>
          <leafValues>
            2.7547946572303772e-01 -3.5439670085906982e-01</leafValues></_>
        <_>
          <internalNodes>
            0 -1 48 -4.9831755459308624e-03</internalNodes>
          <leafValues>
            5.7993894815444946e-01 -2.1141617000102997e-01</leafValues></_>
        <_>
          <internalNodes>
            0 -1 141 -1.3806872302666306e-03</internalNodes>
          <leafValues>
            -7.4672573804855347e-01 1.4876176416873932e-01</leafValues></_>
        <_>
          <internalNodes>
            0 -1 3 2.7143270708620548e-03</internalNodes>
          <leafValues>
            -2.3707228899002075e-01 4.5554533600807190e-01</leafValues></_>
        <_>
          <internalNodes>
            0 -1 40 -2.5714822113513947e-02</internalNodes>
          <leafValues>
            6.0050189495086670e-01 -1.8927447497844696e-01</leafValues></_>
        <_>
          <internalNodes>
            0 -1 56 1.3752735685557127e-03</internalNodes>
          <leafValues>
            1.8533404171466827e-01 -6.9701737165451050e-01</leafValues></_></weakClassifiers></_>
    <!-- stage 6 -->
    <_>
      <maxWeakCount>11</maxWeakCount>
      <stageThreshold>-8.8952213525772095e-01</stageThreshold>
      <weakClassifiers>
        <_>
          <internalNodes>
            0 -1 131 5.1689911633729935e-03</internalNodes>
          <leafValues>
            -1.7171716690063477e-01 7.3015874624252319e-01</leafValues></_>
        <_>
          <internalNodes>
            0 -1 45 3.8305677007883787e-03</internalNodes>
          <leafValues>
            -3.3054482936859131e-01 5.8108747005462646e-01</leafValues></_>
        <_>
          <internalNodes>
            0 -1 67 -1.4558158814907074e-02</internalNodes>
          <leafValues>
            6.4017248153686523e-01 -2.2298796474933624e-01</leafValues></_>
        <_>
          <internalNodes>
            0 -1 56 -1.8421257846057415e-03</internalNodes>
          <leafValues>
            -8.5976427793502808e-01 1.5181039273738861e-01</leafValues></_>
        <_>
          <internalNodes>
            0 -1 62 3.0277939513325691e-03</internalNodes>
          <leafValues>
            -2.5030076503753662e-01 5.3749853372573853e-01</leafValues></_>
        <_>
          <internalNodes>
            0 -1 69 1.6134734032675624e-03</internalNodes>
          <leafValues>
            -1.8293114006519318e-01 5.2282106876373291e-01</leafValues></_>
        <_>
          <internalNodes>
            0 -1 163 -1.3331889640539885e-03</internalNodes>
          <leafValues>
            -5.7411134243011475e-01 1.7091034352779388e-01</leafValues></_>
        <_>
          <internalNodes>
            0 -1 141 1.6307856421917677e-03</internalNodes>
          <leafValues>
            1.0741351544857025e-01 -7.2591561079025269e-01</leafValues></_>
        <_>
          <internalNodes>
            0 -1 158 2.9563521966338158e-02</internalNodes>
          <leafValues>
            -2.3587675392627716e-01 3.8937699794769287e-01</leafValues></_>
        <_>
          <internalNodes>
            0 -1 52 -1.4074590057134628e-02</internalNodes>
          <leafValues>
            6.6960316896438599e-01 -1.5458932518959045e-01</leafValues></_>
        <_>
          <internalNodes>
            0 -1 82 1.3658232055604458e-02</internalNodes>
          <leafValues>
            1.7758767306804657e-01 -6.8234074115753174e-01</leafValues></_></weakClassifiers></_>
    <!-- stage 7 -->
    <_>
      <maxWeakCount>16</maxWeakCount>
      <stageThreshold>-8.2157385349273682e-01</stageThreshold>
      <weakClassifiers>
        <_>
          <internalNodes>
            0 -1 22 -8.4946136921644211e-03</internalNodes>
          <leafValues>
            7.3011362552642822e-01 -9.9071204662322998e-02</leafValues></_>
        <_>
          <internalNodes>
            0 -1 124 9.3763079494237900e-03</internalNodes>
          <leafValues>
            -1.8409784138202667e-01 6.3127970695495605e-01</leafValues></_>
        <_>
          <internalNodes>
            0 -1 42 8.8425650028511882e-04</internalNodes>
          <leafValues>
            -3.1553050875663757e-01 3.8927283883094788e-01</leafValues></_>
        <_>
          <internalNodes>
            0 -1 23 8.8748405687510967e-04</internalNodes>
          <leafValues>
            -4.1092029213905334e-01 2.8493744134902954e-01</leafValues></_>
        <_>
          <internalNodes>
            0 -1 149 1.3435522851068527e-04</internalNodes>
          <leafValues>
            -4.6464693546295166e-01 1.7943163216114044e-01</leafValues></_>
        <_>
          <internalNodes>
            0 -1 47 1.1107453145086765e-02</internalNodes>
          <leafValues>
            -1.6169705986976624e-01 5.4386967420578003e-01</leafValues></_>
        <_>
          <internalNodes>
            0 -1 39 9.8514556884765625e-03</internalNodes>
          <leafValues>
            1.4247213304042816e-01 -7.4954515695571899e-01</leafValues></_>
        <_>
          <internalNodes>
            0 -1 46 -3.8414797745645046e-03</internalNodes>
          <leafValues>
            -8.0458390712738037e-01 1.0807748883962631e-01</leafValues></_>
        <_>
          <internalNodes>
            0 -1 168 -4.9561830237507820e-03</internalNodes>
          <leafValues>
            4.5722126960754395e-01 -2.0464943349361420e-01</leafValues></_>
        <_>
          <internalNodes>
            0 -1 136 1.3066511601209641e-03</internalNodes>
          <leafValues>
            -3.3900758624076843e-01 3.1479442119598389e-01</leafValues></_>
        <_>
          <internalNodes>
            0 -1 88 1.0000901296734810e-02</internalNodes>
          <leafValues>
            1.0693190991878510e-01 -8.6332738399505615e-01</leafValues></_>
        <_>
          <internalNodes>
            0 -1 132 3.3272141590714455e-03</internalNodes>
          <leafValues>
            9.3505173921585083e-02 -7.7890551090240479e-01</leafValues></_>
        <_>
          <internalNodes>
            0 -1 79 -4.8349848948419094e-03</internalNodes>
          <leafValues>
            -8.0722087621688843e-01 8.3184890449047089e-02</leafValues></_>
        <_>
          <internalNodes>
            0 -1 93 -2.2283243015408516e-03</internalNodes>
          <leafValues>
            -5.9102714061737061e-01 1.4471668004989624e-01</leafValues></_>
        <_>
          <internalNodes>
            0 -1 80 9.5943594351410866e-03</internalNodes>
          <leafValues>
            1.4203318953514099e-01 -5.5093955993652344e-01</leafValues></_>
        <_>
          <internalNodes>
            0 -1 27 1.1915094219148159e-02</internalNodes>
          <leafValues>
            9.0418227016925812e-02 -8.8343501091003418e-01</leafValues></_></weakClassifiers></_>
    <!-- stage 8 -->
    <_>
      <maxWeakCount>14</maxWeakCount>
      <stageThreshold>-9.2725014686584473e-01</stageThreshold>
      <weakClassifiers>
        <_>
          <internalNodes>
            0 -1 63 5.6330813094973564e-04</internalNodes>
          <leafValues>
            -2.4726477265357971e-01 6.3045912981033325e-01</leafValues></_>
        <_>
          <internalNodes>
            0 -1 105 8.2192104309797287e-03</internalNodes>
          <leafValues>
            -3.0487605929374695e-01 5.0816154479980469e-01</leafValues></_>
        <_>
          <internalNodes>
            0 -1 47 -1.2992568314075470e-02</internalNodes>
          <leafValues>
            5.6577801704406738e-01 -1.8597042560577393e-01</leafValues></_>
        <_>
          <internalNodes>
            0 -1 112 2.5613245088607073e-04</internalNodes>
          <leafValues>
            -4.2600908875465393e-01 2.7506831288337708e-01</leafValues></_>
        <_>
          <internalNodes>
            0 -1 5 -2.9702160507440567e-02</internalNodes>
          <leafValues>
            -6.6924470663070679e-01 1.1904955655336380e-01</leafValues></_>
        <_>
          <internalNodes>
            0 -1 55 7.5605716556310654e-03</internalNodes>
          <leafValues>
            1.4058828353881836e-01 -7.1259027719497681e-01</leafValues></_>
        <_>
          <internalNodes>
            0 -1 129 3.6180000752210617e-03</internalNodes>
          <leafValues>
            1.4393118023872375e-01 -6.4408236742019653e-01</leafValues></_>
        <_>
          <internalNodes>
            0 -1 147 -2.4307447019964457e-03</internalNodes>
          <leafValues>
            3.2136735320091248e-01 -3.3253532648086548e-01</leafValues></_>
        <_>
          <internalNodes>
            0 -1 81 -1.3015178963541985e-02</internalNodes>
          <leafValues>
            -6.0839670896530151e-01 1.5163633227348328e-01</leafValues></_>
        <_>
          <internalNodes>
            0 -1 171 -8.2933343946933746e-04</internalNodes>
          <leafValues>
            3.2571256160736084e-01 -3.0452477931976318e-01</leafValues></_>
        <_>
          <internalNodes>
            0 -1 72 -3.7701863329857588e-03</internalNodes>
          <leafValues>
            -8.7904804944992065e-01 1.2999238073825836e-01</leafValues></_>
        <_>
          <internalNodes>
            0 -1 70 6.2961541116237640e-03</internalNodes>
          <leafValues>
            8.0860361456871033e-02 -7.3796087503433228e-01</leafValues></_>
        <_>
          <internalNodes>
            0 -1 49 -7.0530112134292722e-04</internalNodes>
          <leafValues>
            2.6717236638069153e-01 -3.1145155429840088e-01</leafValues></_>
        <_>
          <internalNodes>
            0 -1 17 -3.2871211878955364e-03</internalNodes>
          <leafValues>
            5.2403593063354492e-01 -1.5930020809173584e-01</leafValues></_></weakClassifiers></_>
    <!-- stage 9 -->
    <_>
      <maxWeakCount>16</maxWeakCount>
      <stageThreshold>-9.9927133321762085e-01</stageThreshold>
      <weakClassifiers>
        <_>
          <internalNodes>
            0 -1 125 7.0411380147561431e-04</internalNodes>
          <leafValues>
            -3.1000000238418579e-01 6.0421055555343628e-01</leafValues></_>
        <_>
          <internalNodes>
            0 -1 38 1.5074855647981167e-02</internalNodes>
          <leafValues>
            -2.1950244903564453e-01 6.4883661270141602e-01</leafValues></_>
        <_>
          <internalNodes>
            0 -1 10 -5.4059873946243897e-05</internalNodes>
          <leafValues>
            2.8933638334274292e-01 -4.4140160083770752e-01</leafValues></_>
        <_>
          <internalNodes>
            0 -1 142 -1.5746103599667549e-03</internalNodes>
          <leafValues>
            2.7111458778381348e-01 -3.5340934991836548e-01</leafValues></_>
        <_>
          <internalNodes>
            0 -1 108 -9.8473508842289448e-04</internalNodes>
          <leafValues>
            3.2978659868240356e-01 -2.7319905161857605e-01</leafValues></_>
        <_>
          <internalNodes>
            0 -1 56 -8.0193224130198359e-04</internalNodes>
          <leafValues>
            -5.7605773210525513e-01 1.2954965233802795e-01</leafValues></_>
        <_>
          <internalNodes>
            0 -1 12 -5.4232957772910595e-03</internalNodes>
          <leafValues>
            3.9746493101119995e-01 -2.3749038577079773e-01</leafValues></_>
        <_>
          <internalNodes>
            0 -1 123 -3.4092932939529419e-02</internalNodes>
          <leafValues>
            -7.3457652330398560e-01 1.1003316193819046e-01</leafValues></_>
        <_>
          <internalNodes>
            0 -1 77 -8.2460567355155945e-03</internalNodes>
          <leafValues>
            -4.8891159892082214e-01 1.7124703526496887e-01</leafValues></_>
        <_>
          <internalNodes>
            0 -1 15 -5.6013520807027817e-03</internalNodes>
          <leafValues>
            5.1290571689605713e-01 -1.6418828070163727e-01</leafValues></_>
        <_>
          <internalNodes>
            0 -1 100 -4.7775711864233017e-03</internalNodes>
          <leafValues>
            5.1863878965377808e-01 -1.6557967662811279e-01</leafValues></_>
        <_>
          <internalNodes>
            0 -1 116 1.5514832921326160e-03</internalNodes>
          <leafValues>
            1.6022124886512756e-01 -5.7386291027069092e-01</leafValues></_>
        <_>
          <internalNodes>
            0 -1 54 -1.0587146971374750e-03</internalNodes>
          <leafValues>
            3.1374478340148926e-01 -2.7795213460922241e-01</leafValues></_>
        <_>
          <internalNodes>
            0 -1 92 -7.0171365514397621e-03</internalNodes>
          <leafValues>
            -8.3993828296661377e-01 1.0197666287422180e-01</leafValues></_>
        <_>
          <internalNodes>
            0 -1 144 8.4299070294946432e-04</internalNodes>
          <leafValues>
            -2.5694018602371216e-01 2.9986318945884705e-01</leafValues></_>
        <_>
          <internalNodes>
            0 -1 30 5.0800312310457230e-03</internalNodes>
          <leafValues>
            1.4878818392753601e-01 -5.3431457281112671e-01</leafValues></_></weakClassifiers></_>
    <!-- stage 10 -->
    <_>
      <maxWeakCount>18</maxWeakCount>
      <stageThreshold>-9.4651949405670166e-01</stageThreshold>
      <weakClassifiers>
        <_>
          <internalNodes>
            0 -1 58 1.0220685973763466e-02</internalNodes>
          <leafValues>
            2.4937656708061695e-03 8.1751823425292969e-01</leafValues></_>
        <_>
          <internalNodes>
            0 -1 145 2.0109629258513451e-03</internalNodes>
          <leafValues>
            -2.9340657591819763e-01 3.9380419254302979e-01</leafValues></_>
        <_>
          <internalNodes>
            0 -1 36 -5.8955857530236244e-03</internalNodes>
          <leafValues>
            3.5349899530410767e-01 -2.6380771398544312e-01</leafValues></_>
        <_>
          <internalNodes>
            0 -1 20 -1.4659678563475609e-02</internalNodes>
          <leafValues>
            -7.6428782939910889e-01 1.1436786502599716e-01</leafValues></_>
        <_>
          <internalNodes>
            0 -1 68 -4.6845171600580215e-03</internalNodes>
          <leafValues>
            2.4670097231864929e-01 -3.3947899937629700e-01</leafValues></_>
        <_>
          <internalNodes>
            0 -1 143 -8.1119104288518429e-04</internalNodes>
          <leafValues>
            2.0550929009914398e-01 -3.6990955471992493e-01</leafValues></_>
        <_>
          <internalNodes>
            0 -1 141 -1.0036099702119827e-03</internalNodes>
          <leafValues>
            -6.3777846097946167e-01 1.1405868083238602e-01</leafValues></_>
        <_>
          <internalNodes>
            0 -1 141 1.3091141590848565e-03</internalNodes>
          <leafValues>
            1.2565594911575317e-01 -6.5651643276214600e-01</leafValues></_>
        <_>
          <internalNodes>
            0 -1 151 -1.6059868037700653e-02</internalNodes>
          <leafValues>
            5.5428534746170044e-01 -1.7347444593906403e-01</leafValues></_>
        <_>
          <internalNodes>
            0 -1 164 7.5574479997158051e-03</internalNodes>
          <leafValues>
            -1.0115899890661240e-01 7.3235851526260376e-01</leafValues></_>
        <_>
          <internalNodes>
            0 -1 18 1.0174872353672981e-02</internalNodes>
          <leafValues>
            -1.9116005301475525e-01 4.4326171278953552e-01</leafValues></_>
        <_>
          <internalNodes>
            0 -1 159 -2.6344279758632183e-03</internalNodes>
          <leafValues>
            -6.7728036642074585e-01 1.2261223793029785e-01</leafValues></_>
        <_>
          <internalNodes>
            0 -1 44 6.2736049294471741e-03</internalNodes>
          <leafValues>
            -1.5314459800720215e-01 5.4674834012985229e-01</leafValues></_>
        <_>
          <internalNodes>
            0 -1 113 3.9839223027229309e-03</internalNodes>
          <leafValues>
            -1.7190505564212799e-01 4.5376640558242798e-01</leafValues></_>
        <_>
          <internalNodes>
            0 -1 150 -2.1466421894729137e-03</internalNodes>
          <leafValues>
            -8.0277079343795776e-01 1.0417226701974869e-01</leafValues></_>
        <_>
          <internalNodes>
            0 -1 64 6.0944249853491783e-03</internalNodes>
          <leafValues>
            1.0862875729799271e-01 -6.1193692684173584e-01</leafValues></_>
        <_>
          <internalNodes>
            0 -1 25 -6.3614956161472946e-05</internalNodes>
          <leafValues>
            1.9914181530475616e-01 -4.0733727812767029e-01</leafValues></_>
        <_>
          <internalNodes>
            0 -1 76 7.2557148523628712e-03</internalNodes>
          <leafValues>
            -1.9015286862850189e-01 4.9919512867927551e-01</leafValues></_></weakClassifiers></_>
    <!-- stage 11 -->
    <_>
      <maxWeakCount>17</maxWeakCount>
      <stageThreshold>-7.5194579362869263e-01</stageThreshold>
      <weakClassifiers>
        <_>
          <internalNodes>
            0 -1 95 1.8031220883131027e-02</internalNodes>
          <leafValues>
            -1.4569536782801151e-02 7.7478992938995361e-01</leafValues></_>
        <_>
          <internalNodes>
            0 -1 50 8.1930365413427353e-03</internalNodes>
          <leafValues>
            -2.0172108709812164e-01 5.5617266893386841e-01</leafValues></_>
        <_>
          <internalNodes>
            0 -1 2 9.5599535852670670e-03</internalNodes>
          <leafValues>
            -2.5064060091972351e-01 3.6950591206550598e-01</leafValues></_>
        <_>
          <internalNodes>
            0 -1 11 -4.2217068374156952e-02</internalNodes>
          <leafValues>
            -7.1043926477432251e-01 1.2002728879451752e-01</leafValues></_>
        <_>
          <internalNodes>
            0 -1 56 -1.1412396561354399e-03</internalNodes>
          <leafValues>
            -7.7040910720825195e-01 9.7786583006381989e-02</leafValues></_>
        <_>
          <internalNodes>
            0 -1 154 5.4154486861079931e-04</internalNodes>
          <leafValues>
            -3.8500097393989563e-01 1.7814677953720093e-01</leafValues></_>
        <_>
          <internalNodes>
            0 -1 98 -1.1342855868861079e-03</internalNodes>
          <leafValues>
            3.3987849950790405e-01 -2.2635658085346222e-01</leafValues></_>
        <_>
          <internalNodes>
            0 -1 166 -7.9055735841393471e-04</internalNodes>
          <leafValues>
            -4.6610850095748901e-01 1.8535143136978149e-01</leafValues></_>
        <_>
          <internalNodes>
            0 -1 167 -3.2802582718431950e-03</internalNodes>
          <leafValues>
            3.9350429177284241e-01 -1.9169373810291290e-01</leafValues></_>
        <_>
          <internalNodes>
            0 -1 161 -3.3196471631526947e-02</internalNodes>
          <leafValues>
            6.9595068693161011e-01 -1.2928384542465210e-01</leafValues></_>
        <_>
          <internalNodes>
            0 -1 103 -8.2343043759465218e-03</internalNodes>
          <leafValues>
            -8.0261033773422241e-01 1.3636912405490875e-01</leafValues></_>
        <_>
          <internalNodes>
            0 -1 102 1.8867526669055223e-03</internalNodes>
          <leafValues>
            1.0515376925468445e-01 -5.6698048114776611e-01</leafValues></_>
        <_>
          <internalNodes>
            0 -1 56 9.3353824922814965e-04</internalNodes>
          <leafValues>
            1.2387061119079590e-01 -5.8548992872238159e-01</leafValues></_>
        <_>
          <internalNodes>
            0 -1 120 -3.9449088275432587e-02</internalNodes>
          <leafValues>
            -6.7139911651611328e-01 1.1662388592958450e-01</leafValues></_>
        <_>
          <internalNodes>
            0 -1 122 1.3632642105221748e-02</internalNodes>
          <leafValues>
            1.0792566835880280e-01 -6.3404351472854614e-01</leafValues></_>
        <_>
          <internalNodes>
            0 -1 35 -5.4943276336416602e-04</internalNodes>
          <leafValues>
            -4.3911114335060120e-01 1.5709170699119568e-01</leafValues></_>
        <_>
          <internalNodes>
            0 -1 61 -9.5731690526008606e-03</internalNodes>
          <leafValues>
            3.9563927054405212e-01 -1.7823188006877899e-01</leafValues></_></weakClassifiers></_>
    <!-- stage 12 -->
    <_>
      <maxWeakCount>20</maxWeakCount>
      <stageThreshold>-9.2267084121704102e-01</stageThreshold>
      <weakClassifiers>
        <_>
          <internalNodes>
            0 -1 90 7.7384751057252288e-04</internalNodes>
          <leafValues>
            -9.5406360924243927e-02 6.4285713434219360e-01</leafValues></_>
        <_>
          <internalNodes>
            0 -1 139 7.3383357375860214e-03</internalNodes>
          <leafValues>
            -2.9331064224243164e-01 4.0772971510887146e-01</leafValues></_>
        <_>
          <internalNodes>
            0 -1 127 -8.9915061835199594e-04</internalNodes>
          <leafValues>
            2.9735922813415527e-01 -2.8739252686500549e-01</leafValues></_>
        <_>
          <internalNodes>
            0 -1 43 -9.1722235083580017e-03</internalNodes>
          <leafValues>
            -8.9628624916076660e-01 9.9185831844806671e-02</leafValues></_>
        <_>
          <internalNodes>
            0 -1 4 3.6675683222711086e-03</internalNodes>
          <leafValues>
            -3.4554389119148254e-01 2.5319817662239075e-01</leafValues></_>
        <_>
          <internalNodes>
            0 -1 129 5.5463956668972969e-03</internalNodes>
          <leafValues>
            8.0810800194740295e-02 -8.1490957736968994e-01</leafValues></_>
        <_>
          <internalNodes>
            0 -1 130 -4.8071332275867462e-03</internalNodes>
          <leafValues>
            -6.0407847166061401e-01 1.3117453455924988e-01</leafValues></_>
        <_>
          <internalNodes>
            0 -1 106 -5.7888943701982498e-03</internalNodes>
          <leafValues>
            4.7630271315574646e-01 -2.1971091628074646e-01</leafValues></_>
        <_>
          <internalNodes>
            0 -1 114 1.2723421677947044e-02</internalNodes>
          <leafValues>
            -1.2064652889966965e-01 5.4309451580047607e-01</leafValues></_>
        <_>
          <internalNodes>
            0 -1 65 1.0146526619791985e-02</internalNodes>
          <leafValues>
            9.3435734510421753e-02 -6.6458183526992798e-01</leafValues></_>
        <_>
          <internalNodes>
            0 -1 128 3.0294563621282578e-03</internalNodes>
          <leafValues>
            1.1474250257015228e-01 -6.7435014247894287e-01</leafValues></_>
        <_>
          <internalNodes>
            0 -1 125 -3.5403161309659481e-03</internalNodes>
          <leafValues>
            -9.6680116653442383e-01 6.3343532383441925e-02</leafValues></_>
        <_>
          <internalNodes>
            0 -1 170 6.7960051819682121e-03</internalNodes>
          <leafValues>
            -1.6964864730834961e-01 4.6807917952537537e-01</leafValues></_>
        <_>
          <internalNodes>
            0 -1 59 -1.3860410545021296e-03</internalNodes>
          <leafValues>
            3.2279211282730103e-01 -2.3672218620777130e-01</leafValues></_>
        <_>
          <internalNodes>
            0 -1 51 7.4537140317261219e-03</internalNodes>
          <leafValues>
            -1.4498485624790192e-01 4.8930907249450684e-01</leafValues></_>
        <_>
          <internalNodes>
            0 -1 57 -8.5199559107422829e-03</internalNodes>
          <leafValues>
            4.1312181949615479e-01 -1.7100833356380463e-01</leafValues></_>
        <_>
          <internalNodes>
            0 -1 146 3.1554032466374338e-04</internalNodes>
          <leafValues>
            -2.9485586285591125e-01 2.3896257579326630e-01</leafValues></_>
        <_>
          <internalNodes>
            0 -1 157 1.9940896891057491e-03</internalNodes>
          <leafValues>
            1.3763800263404846e-01 -5.0428402423858643e-01</leafValues></_>
        <_>
          <internalNodes>
            0 -1 14 5.8992640115320683e-03</internalNodes>
          <leafValues>
            -2.3526404798030853e-01 2.9834428429603577e-01</leafValues></_>
        <_>
          <internalNodes>
            0 -1 156 -3.5934187471866608e-03</internalNodes>
          <leafValues>
            3.3784654736518860e-01 -2.0536376535892487e-01</leafValues></_></weakClassifiers></_>
    <!-- stage 13 -->
    <_>
      <maxWeakCount>19</maxWeakCount>
      <stageThreshold>-8.2345116138458252e-01</stageThreshold>
      <weakClassifiers>
        <_>
          <internalNodes>
            0 -1 118 -1.6495414311066270e-03</internalNodes>
          <leafValues>
            6.7833983898162842e-01 -1.2607944011688232e-01</leafValues></_>
        <_>
          <internalNodes>
            0 -1 87 -1.3861663173884153e-03</internalNodes>
          <leafValues>
            4.2744207382202148e-01 -2.7434775233268738e-01</leafValues></_>
        <_>
          <internalNodes>
            0 -1 155 -1.0702526196837425e-03</internalNodes>
          <leafValues>
            3.3856633305549622e-01 -2.9285842180252075e-01</leafValues></_>
        <_>
          <internalNodes>
            0 -1 53 -1.3481152709573507e-03</internalNodes>
          <leafValues>
            -5.6645601987838745e-01 1.5505532920360565e-01</leafValues></_>
        <_>
          <internalNodes>
            0 -1 34 -9.7000040113925934e-03</internalNodes>
          <leafValues>
            -6.7375636100769043e-01 1.0046059638261795e-01</leafValues></_>
        <_>
          <internalNodes>
            0 -1 8 -3.7490031681954861e-03</internalNodes>
          <leafValues>
            2.8457859158515930e-01 -2.6104044914245605e-01</leafValues></_>
        <_>
          <internalNodes>
            0 -1 165 -3.7057185545563698e-03</internalNodes>
          <leafValues>
            4.0106400847434998e-01 -2.0840696990489960e-01</leafValues></_>
        <_>
          <internalNodes>
            0 -1 74 -4.5267837122082710e-03</internalNodes>
          <leafValues>
            -7.5374650955200195e-01 1.0090507566928864e-01</leafValues></_>
        <_>
          <internalNodes>
            0 -1 32 1.8611511215567589e-02</internalNodes>
          <leafValues>
            -1.8341892957687378e-01 4.3033662438392639e-01</leafValues></_>
        <_>
          <internalNodes>
            0 -1 26 2.6846383698284626e-03</internalNodes>
          <leafValues>
            2.0594602823257446e-01 -4.5167860388755798e-01</leafValues></_>
        <_>
          <internalNodes>
            0 -1 97 1.4131853356957436e-02</internalNodes>
          <leafValues>
            -1.6737803816795349e-01 5.7286435365676880e-01</leafValues></_>
        <_>
          <internalNodes>
            0 -1 125 8.5995136760175228e-04</internalNodes>
          <leafValues>
            -3.8506206870079041e-01 2.7482146024703979e-01</leafValues></_>
        <_>
          <internalNodes>
            0 -1 153 7.0836907252669334e-04</internalNodes>
          <leafValues>
            1.9663807749748230e-01 -3.4874829649925232e-01</leafValues></_>
        <_>
          <internalNodes>
            0 -1 31 -5.2588072139769793e-04</internalNodes>
          <leafValues>
            2.7175122499465942e-01 -2.6770642399787903e-01</leafValues></_>
        <_>
          <internalNodes>
            0 -1 125 7.3703406378626823e-03</internalNodes>
          <leafValues>
            8.5142225027084351e-02 -9.2696875333786011e-01</leafValues></_>
        <_>
          <internalNodes>
            0 -1 21 1.3396265916526318e-02</internalNodes>
          <leafValues>
            6.5831966698169708e-02 -7.6650243997573853e-01</leafValues></_>
        <_>
          <internalNodes>
            0 -1 134 3.0503845773637295e-03</internalNodes>
          <leafValues>
            1.6047833859920502e-01 -4.3395629525184631e-01</leafValues></_>
        <_>
          <internalNodes>
            0 -1 56 -5.8782403357326984e-04</internalNodes>
          <leafValues>
            -5.6874471902847290e-01 1.4289297163486481e-01</leafValues></_>
        <_>
          <internalNodes>
            0 -1 56 3.5044882679358125e-04</internalNodes>
          <leafValues>
            1.8922020494937897e-01 -4.5306599140167236e-01</leafValues></_></weakClassifiers></_>
    <!-- stage 14 -->
    <_>
      <maxWeakCount>20</maxWeakCount>
      <stageThreshold>-9.1565728187561035e-01</stageThreshold>
      <weakClassifiers>
        <_>
          <internalNodes>
            0 -1 110 1.9083168357610703e-02</internalNodes>
          <leafValues>
            -5.4380666464567184e-02 7.0639532804489136e-01</leafValues></_>
        <_>
          <internalNodes>
            0 -1 78 -2.8733434155583382e-03</internalNodes>
          <leafValues>
            4.9330523610115051e-01 -2.1360315382480621e-01</leafValues></_>
        <_>
          <internalNodes>
            0 -1 1 3.6842473782598972e-03</internalNodes>
          <leafValues>
            -2.0701065659523010e-01 4.1559752821922302e-01</leafValues></_>
        <_>
          <internalNodes>
            0 -1 74 7.2831483557820320e-03</internalNodes>
          <leafValues>
            6.4013123512268066e-02 -7.6789307594299316e-01</leafValues></_>
        <_>
          <internalNodes>
            0 -1 117 -4.3655987828969955e-03</internalNodes>
          <leafValues>
            3.0997541546821594e-01 -2.5662800669670105e-01</leafValues></_>
        <_>
          <internalNodes>
            0 -1 9 -1.2972691655158997e-01</internalNodes>
          <leafValues>
            8.3460813760757446e-01 -9.7051247954368591e-02</leafValues></_>
        <_>
          <internalNodes>
            0 -1 73 2.6287739165127277e-03</internalNodes>
          <leafValues>
            1.2641946971416473e-01 -6.5363466739654541e-01</leafValues></_>
        <_>
          <internalNodes>
            0 -1 73 -4.7385953366756439e-03</internalNodes>
          <leafValues>
            -8.3218646049499512e-01 9.9449262022972107e-02</leafValues></_>
        <_>
          <internalNodes>
            0 -1 150 8.3140638889744878e-04</internalNodes>
          <leafValues>
            -4.0658077597618103e-01 1.7788568139076233e-01</leafValues></_>
        <_>
          <internalNodes>
            0 -1 65 -1.0211201151832938e-03</internalNodes>
          <leafValues>
            -4.1211354732513428e-01 1.6954955458641052e-01</leafValues></_>
        <_>
          <internalNodes>
            0 -1 152 1.0105252265930176e-02</internalNodes>
          <leafValues>
            -1.6693495213985443e-01 4.7682279348373413e-01</leafValues></_>
        <_>
          <internalNodes>
            0 -1 162 -5.4176466073840857e-04</internalNodes>
          <leafValues>
            -4.6748343110084534e-01 1.6675868630409241e-01</leafValues></_>
        <_>
          <internalNodes>
            0 -1 140 2.9101620384608395e-05</internalNodes>
          <leafValues>
            -3.7747153639793396e-01 1.8560674786567688e-01</leafValues></_>
        <_>
          <internalNodes>
            0 -1 47 8.7295025587081909e-03</internalNodes>
          <leafValues>
            -1.6710352897644043e-01 4.5409128069877625e-01</leafValues></_>
        <_>
          <internalNodes>
            0 -1 75 -2.1273309364914894e-02</internalNodes>
          <leafValues>
            6.1211144924163818e-01 -1.0786935687065125e-01</leafValues></_>
        <_>
          <internalNodes>
            0 -1 129 1.7173428786918521e-03</internalNodes>
          <leafValues>
            1.6900777816772461e-01 -4.2313671112060547e-01</leafValues></_>
        <_>
          <internalNodes>
            0 -1 19 -1.6431154217571020e-03</internalNodes>
          <leafValues>
            2.9090285301208496e-01 -2.4160681664943695e-01</leafValues></_>
        <_>
          <internalNodes>
            0 -1 115 -4.5317336916923523e-03</internalNodes>
          <leafValues>
            -5.8436816930770874e-01 1.2745517492294312e-01</leafValues></_>
        <_>
          <internalNodes>
            0 -1 137 -3.1169934663921595e-03</internalNodes>
          <leafValues>
            3.6427509784698486e-01 -2.0716968178749084e-01</leafValues></_>
        <_>
          <internalNodes>
            0 -1 73 -1.9102182704955339e-03</internalNodes>
          <leafValues>
            -4.8244470357894897e-01 1.5960672497749329e-01</leafValues></_></weakClassifiers></_></stages>
  <features>
    <_>
      <rects>
        <_>
          0 3 3 6 -1.</_>
        <_>
          1 3 1 6 3.</_></rects>
      <tilted>0</tilted></_>
    <_>
      <rects>
        <_>
          0 4 2 3 -1.</_>
        <_>
          1 4 1 3 2.</_></rects>
      <tilted>0</tilted></_>
    <_>
      <rects>
        <_>
          0 4 6 4 -1.</_>
        <_>
          2 4 2 4 3.</_></rects>
      <tilted>0</tilted></_>
    <_>
      <rects>
        <_>
          0 5 2 2 -1.</_>
        <_>
          1 5 1 2 2.</_></rects>
      <tilted>0</tilted></_>
    <_>
      <rects>
        <_>
          1 4 3 4 -1.</_>
        <_>
          2 4 1 4 3.</_></rects>
      <tilted>0</tilted></_>
    <_>
      <rects>
        <_>
          1 5 24 2 -1.</_>
        <_>
          13 5 12 2 2.</_></rects>
      <tilted>0</tilted></_>
    <_>
      <rects>
        <_>
          1 5 24 6 -1.</_>
        <_>
          1 8 24 3 2.</_></rects>
      <tilted>0</tilted></_>
    <_>
      <rects>
        <_>
          2 0 13 9 -1.</_>
        <_>
          2 3 13 3 3.</_></rects>
      <tilted>0</tilted></_>
    <_>
      <rects>
        <_>
          2 1 4 6 -1.</_>
        <_>
          2 1 2 3 2.</_>
        <_>
          4 4 2 3 2.</_></rects>
      <tilted>0</tilted></_>
    <_>
      <rects>
        <_>
          2 3 24 6 -1.</_>
        <_>
          2 3 12 3 2.</_>
        <_>
          14 6 12 3 2.</_></rects>
      <tilted>0</tilted></_>
    <_>
      <rects>
        <_>
          2 5 2 1 -1.</_>
        <_>
          3 5 1 1 2.</_></rects>
      <tilted>0</tilted></_>
    <_>
      <rects>
        <_>
          2 5 24 2 -1.</_>
        <_>
          14 5 12 2 2.</_></rects>
      <tilted>0</tilted></_>
    <_>
      <rects>
        <_>
          2 7 2 4 -1.</_>
        <_>
          2 9 2 2 2.</_></rects>
      <tilted>0</tilted></_>
    <_>
      <rects>
        <_>
          2 7 23 4 -1.</_>
        <_>
          2 9 23 2 2.</_></rects>
      <tilted>0</tilted></_>
    <_>
      <rects>
        <_>
          2 8 12 1 -1.</_>
        <_>
          6 8 4 1 3.</_></rects>
      <tilted>0</tilted></_>
    <_>
      <rects>
        <_>
          3 3 1 4 -1.</_>
        <_>
          3 5 1 2 2.</_></rects>
      <tilted>0</tilted></_>
    <_>
      <rects>
        <_>
          4 5 6 1 -1.</_>
        <_>
          6 5 2 1 3.</_></rects>
      <tilted>0</tilted></_>
    <_>
      <rects>
        <_>
          4 6 2 2 -1.</_>
        <_>
          4 7 2 1 2.</_></rects>
      <tilted>0</tilted></_>
    <_>
      <rects>
        <_>
          4 8 9 1 -1.</_>
        <_>
          7 8 3 1 3.</_></rects>
      <tilted>0</tilted></_>
    <_>
      <rects>
        <_>
          5 2 1 4 -1.</_>
        <_>
          5 4 1 2 2.</_></rects>
      <tilted>0</tilted></_>
    <_>
      <rects>
        <_>
          5 4 6 2 -1.</_>
        <_>
          8 4 3 2 2.</_></rects>
      <tilted>0</tilted></_>
    <_>
      <rects>
        <_>
          5 7 12 1 -1.</_>
        <_>
          9 7 4 1 3.</_></rects>
      <tilted>0</tilted></_>
    <_>
      <rects>
        <_>
          6 4 10 2 -1.</_>
        <_>
          6 4 5 1 2.</_>
        <_>
          11 5 5 1 2.</_></rects>
      <tilted>0</tilted></_>
    <_>
      <rects>
        <_>
          6 5 3 2 -1.</_>
        <_>
          7 5 1 2 3.</_></rects>
      <tilted>0</tilted></_>
    <_>
      <rects>
        <_>
          6 5 2 4 -1.</_>
        <_>
          7 5 1 4 2.</_></rects>
      <tilted>0</tilted></_>
    <_>
      <rects>
        <_>
          6 5 4 2 -1.</_>
        <_>
          8 5 2 2 2.</_></rects>
      <tilted>0</tilted></_>
    <_>
      <rects>
        <_>
          6 5 6 1 -1.</_>
        <_>
          9 5 3 1 2.</_></rects>
      <tilted>0</tilted></_>
    <_>
      <rects>
        <_>
          6 5 6 2 -1.</_>
        <_>
          9 5 3 2 2.</_></rects>
      <tilted>0</tilted></_>
    <_>
      <rects>
        <_>
          6 6 3 1 -1.</_>
        <_>
          7 6 1 1 3.</_></rects>
      <tilted>0</tilted></_>
    <_>
      <rects>
        <_>
          6 7 14 4 -1.</_>
        <_>
          6 9 14 2 2.</_></rects>
      <tilted>0</tilted></_>
    <_>
      <rects>
        <_>
          6 8 3 3 -1.</_>
        <_>
          7 8 1 3 3.</_></rects>
      <tilted>0</tilted></_>
    <_>
      <rects>
        <_>
          7 4 2 2 -1.</_>
        <_>
          7 4 1 1 2.</_>
        <_>
          8 5 1 1 2.</_></rects>
      <tilted>0</tilted></_>
    <_>
      <rects>
        <_>
          7 5 3 6 -1.</_>
        <_>
          7 7 3 2 3.</_></rects>
      <tilted>0</tilted></_>
    <_>
      <rects>
        <_>
          7 7 3 3 -1.</_>
        <_>
          7 8 3 1 3.</_></rects>
      <tilted>0</tilted></_>
    <_>
      <rects>
        <_>
          7 7 8 1 -1.</_>
        <_>
          11 7 4 1 2.</_></rects>
      <tilted>0</tilted></_>
    <_>
      <rects>
        <_>
          7 8 2 1 -1.</_>
        <_>
          8 8 1 1 2.</_></rects>
      <tilted>0</tilted></_>
    <_>
      <rects>
        <_>
          8 4 3 4 -1.</_>
        <_>
          9 4 1 4 3.</_></rects>
      <tilted>0</tilted></_>
    <_>
      <rects>
        <_>
          8 5 4 2 -1.</_>
        <_>
          10 5 2 2 2.</_></rects>
      <tilted>0</tilted></_>
    <_>
      <rects>
        <_>
          8 5 6 2 -1.</_>
        <_>
          10 5 2 2 3.</_></rects>
      <tilted>0</tilted></_>
    <_>
      <rects>
        <_>
          8 5 5 3 -1.</_>
        <_>
          8 6 5 1 3.</_></rects>
      <tilted>0</tilted></_>
    <_>
      <rects>
        <_>
          9 1 3 6 -1.</_>
        <_>
          9 4 3 3 2.</_></rects>
      <tilted>0</tilted></_>
    <_>
      <rects>
        <_>
          9 3 2 4 -1.</_>
        <_>
          9 3 1 2 2.</_>
        <_>
          10 5 1 2 2.</_></rects>
      <tilted>0</tilted></_>
    <_>
      <rects>
        <_>
          9 4 2 2 -1.</_>
        <_>
          9 4 1 1 2.</_>
        <_>
          10 5 1 1 2.</_></rects>
      <tilted>0</tilted></_>
    <_>
      <rects>
        <_>
          9 4 3 3 -1.</_>
        <_>
          9 5 3 1 3.</_></rects>
      <tilted>0</tilted></_>
    <_>
      <rects>
        <_>
          9 4 6 2 -1.</_>
        <_>
          9 4 3 1 2.</_>
        <_>
          12 5 3 1 2.</_></rects>
      <tilted>0</tilted></_>
    <_>
      <rects>
        <_>
          9 5 3 2 -1.</_>
        <_>
          10 5 1 2 3.</_></rects>
      <tilted>0</tilted></_>
    <_>
      <rects>
        <_>
          9 5 2 2 -1.</_>
        <_>
          9 6 2 1 2.</_></rects>
      <tilted>0</tilted></_>
    <_>
      <rects>
        <_>
          9 6 9 1 -1.</_>
        <_>
          12 6 3 1 3.</_></rects>
      <tilted>0</tilted></_>
    <_>
      <rects>
        <_>
          9 7 4 2 -1.</_>
        <_>
          9 7 2 1 2.</_>
        <_>
          11 8 2 1 2.</_></rects>
      <tilted>0</tilted></_>
    <_>
      <rects>
        <_>
          10 3 1 3 -1.</_>
        <_>
          10 4 1 1 3.</_></rects>
      <tilted>0</tilted></_>
    <_>
      <rects>
        <_>
          10 3 1 6 -1.</_>
        <_>
          10 5 1 2 3.</_></rects>
      <tilted>0</tilted></_>
    <_>
      <rects>
        <_>
          10 3 4 4 -1.</_>
        <_>
          10 3 2 2 2.</_>
        <_>
          12 5 2 2 2.</_></rects>
      <tilted>0</tilted></_>
    <_>
      <rects>
        <_>
          10 3 6 3 -1.</_>
        <_>
          10 4 6 1 3.</_></rects>
      <tilted>0</tilted></_>
    <_>
      <rects>
        <_>
          10 4 3 1 -1.</_>
        <_>
          11 4 1 1 3.</_></rects>
      <tilted>0</tilted></_>
    <_>
      <rects>
        <_>
          10 4 2 2 -1.</_>
        <_>
          10 4 1 1 2.</_>
        <_>
          11 5 1 1 2.</_></rects>
      <tilted>0</tilted></_>
    <_>
      <rects>
        <_>
          10 4 6 1 -1.</_>
        <_>
          13 4 3 1 2.</_></rects>
      <tilted>0</tilted></_>
    <_>
      <rects>
        <_>
          10 5 1 2 -1.</_>
        <_>
          10 6 1 1 2.</_></rects>
      <tilted>0</tilted></_>
    <_>
      <rects>
        <_>
          10 5 1 6 -1.</_>
        <_>
          10 8 1 3 2.</_></rects>
      <tilted>0</tilted></_>
    <_>
      <rects>
        <_>
          10 5 4 4 -1.</_>
        <_>
          10 5 2 2 2.</_>
        <_>
          12 7 2 2 2.</_></rects>
      <tilted>0</tilted></_>
    <_>
      <rects>
        <_>
          10 6 1 3 -1.</_>
        <_>
          10 7 1 1 3.</_></rects>
      <tilted>0</tilted></_>
    <_>
      <rects>
        <_>
          10 6 2 2 -1.</_>
        <_>
          10 6 1 1 2.</_>
        <_>
          11 7 1 1 2.</_></rects>
      <tilted>0</tilted></_>
    <_>
      <rects>
        <_>
          10 6 9 1 -1.</_>
        <_>
          13 6 3 1 3.</_></rects>
      <tilted>0</tilted></_>
    <_>
      <rects>
        <_>
          10 7 1 2 -1.</_>
        <_>
          10 8 1 1 2.</_></rects>
      <tilted>0</tilted></_>
    <_>
      <rects>
        <_>
          10 7 3 1 -1.</_>
        <_>
          11 7 1 1 3.</_></rects>
      <tilted>0</tilted></_>
    <_>
      <rects>
        <_>
          10 7 6 1 -1.</_>
        <_>
          13 7 3 1 2.</_></rects>
      <tilted>0</tilted></_>
    <_>
      <rects>
        <_>
          10 7 8 1 -1.</_>
        <_>
          14 7 4 1 2.</_></rects>
      <tilted>0</tilted></_>
    <_>
      <rects>
        <_>
          10 7 12 1 -1.</_>
        <_>
          14 7 4 1 3.</_></rects>
      <tilted>0</tilted></_>
    <_>
      <rects>
        <_>
          10 7 8 2 -1.</_>
        <_>
          10 8 8 1 2.</_></rects>
      <tilted>0</tilted></_>
    <_>
      <rects>
        <_>
          11 2 6 3 -1.</_>
        <_>
          11 3 6 1 3.</_></rects>
      <tilted>0</tilted></_>
    <_>
      <rects>
        <_>
          11 3 1 2 -1.</_>
        <_>
          11 4 1 1 2.</_></rects>
      <tilted>0</tilted></_>
    <_>
      <rects>
        <_>
          11 3 3 2 -1.</_>
        <_>
          12 3 1 2 3.</_></rects>
      <tilted>0</tilted></_>
    <_>
      <rects>
        <_>
          11 3 6 3 -1.</_>
        <_>
          11 4 6 1 3.</_></rects>
      <tilted>0</tilted></_>
    <_>
      <rects>
        <_>
          11 4 3 1 -1.</_>
        <_>
          12 4 1 1 3.</_></rects>
      <tilted>0</tilted></_>
    <_>
      <rects>
        <_>
          11 4 1 4 -1.</_>
        <_>
          11 6 1 2 2.</_></rects>
      <tilted>0</tilted></_>
    <_>
      <rects>
        <_>
          11 4 6 1 -1.</_>
        <_>
          14 4 3 1 2.</_></rects>
      <tilted>0</tilted></_>
    <_>
      <rects>
        <_>
          11 5 6 2 -1.</_>
        <_>
          13 5 2 2 3.</_></rects>
      <tilted>0</tilted></_>
    <_>
      <rects>
        <_>
          11 6 6 1 -1.</_>
        <_>
          13 6 2 1 3.</_></rects>
      <tilted>0</tilted></_>
    <_>
      <rects>
        <_>
          11 6 12 2 -1.</_>
        <_>
          15 6 4 2 3.</_></rects>
      <tilted>0</tilted></_>
    <_>
      <rects>
        <_>
          11 7 1 2 -1.</_>
        <_>
          11 8 1 1 2.</_></rects>
      <tilted>0</tilted></_>
    <_>
      <rects>
        <_>
          11 7 2 2 -1.</_>
        <_>
          12 7 1 2 2.</_></rects>
      <tilted>0</tilted></_>
    <_>
      <rects>
        <_>
          11 7 10 1 -1.</_>
        <_>
          16 7 5 1 2.</_></rects>
      <tilted>0</tilted></_>
    <_>
      <rects>
        <_>
          11 7 15 1 -1.</_>
        <_>
          16 7 5 1 3.</_></rects>
      <tilted>0</tilted></_>
    <_>
      <rects>
        <_>
          11 7 12 1 -1.</_>
        <_>
          17 7 6 1 2.</_></rects>
      <tilted>0</tilted></_>
    <_>
      <rects>
        <_>
          11 8 2 2 -1.</_>
        <_>
          11 9 2 1 2.</_></rects>
      <tilted>0</tilted></_>
    <_>
      <rects>
        <_>
          12 1 5 3 -1.</_>
        <_>
          12 2 5 1 3.</_></rects>
      <tilted>0</tilted></_>
    <_>
      <rects>
        <_>
          12 3 1 3 -1.</_>
        <_>
          12 4 1 1 3.</_></rects>
      <tilted>0</tilted></_>
    <_>
      <rects>
        <_>
          12 3 5 3 -1.</_>
        <_>
          12 4 5 1 3.</_></rects>
      <tilted>0</tilted></_>
    <_>
      <rects>
        <_>
          12 4 1 2 -1.</_>
        <_>
          12 5 1 1 2.</_></rects>
      <tilted>0</tilted></_>
    <_>
      <rects>
        <_>
          12 4 6 1 -1.</_>
        <_>
          15 4 3 1 2.</_></rects>
      <tilted>0</tilted></_>
    <_>
      <rects>
        <_>
          12 5 4 3 -1.</_>
        <_>
          12 6 4 1 3.</_></rects>
      <tilted>0</tilted></_>
    <_>
      <rects>
        <_>
          12 6 1 2 -1.</_>
        <_>
          12 7 1 1 2.</_></rects>
      <tilted>0</tilted></_>
    <_>
      <rects>
        <_>
          12 6 7 6 -1.</_>
        <_>
          12 9 7 3 2.</_></rects>
      <tilted>0</tilted></_>
    <_>
      <rects>
        <_>
          12 7 3 2 -1.</_>
        <_>
          13 7 1 2 3.</_></rects>
      <tilted>0</tilted></_>
    <_>
      <rects>
        <_>
          12 7 6 1 -1.</_>
        <_>
          15 7 3 1 2.</_></rects>
      <tilted>0</tilted></_>
    <_>
      <rects>
        <_>
          12 8 5 2 -1.</_>
        <_>
          12 9 5 1 2.</_></rects>
      <tilted>0</tilted></_>
    <_>
      <rects>
        <_>
          13 3 6 4 -1.</_>
        <_>
          13 3 3 2 2.</_>
        <_>
          16 5 3 2 2.</_></rects>
      <tilted>0</tilted></_>
    <_>
      <rects>
        <_>
          13 3 6 2 -1.</_>
        <_>
          13 4 6 1 2.</_></rects>
      <tilted>0</tilted></_>
    <_>
      <rects>
        <_>
          13 5 6 4 -1.</_>
        <_>
          13 5 3 2 2.</_>
        <_>
          16 7 3 2 2.</_></rects>
      <tilted>0</tilted></_>
    <_>
      <rects>
        <_>
          13 6 1 2 -1.</_>
        <_>
          13 7 1 1 2.</_></rects>
      <tilted>0</tilted></_>
    <_>
      <rects>
        <_>
          13 6 4 2 -1.</_>
        <_>
          13 6 2 1 2.</_>
        <_>
          15 7 2 1 2.</_></rects>
      <tilted>0</tilted></_>
    <_>
      <rects>
        <_>
          13 6 3 2 -1.</_>
        <_>
          13 7 3 1 2.</_></rects>
      <tilted>0</tilted></_>
    <_>
      <rects>
        <_>
          13 6 3 3 -1.</_>
        <_>
          13 7 3 1 3.</_></rects>
      <tilted>0</tilted></_>
    <_>
      <rects>
        <_>
          13 7 3 1 -1.</_>
        <_>
          14 7 1 1 3.</_></rects>
      <tilted>0</tilted></_>
    <_>
      <rects>
        <_>
          13 7 3 2 -1.</_>
        <_>
          14 7 1 2 3.</_></rects>
      <tilted>0</tilted></_>
    <_>
      <rects>
        <_>
          13 7 4 3 -1.</_>
        <_>
          13 8 4 1 3.</_></rects>
      <tilted>0</tilted></_>
    <_>
      <rects>
        <_>
          14 3 3 3 -1.</_>
        <_>
          14 4 3 1 3.</_></rects>
      <tilted>0</tilted></_>
    <_>
      <rects>
        <_>
          14 3 4 2 -1.</_>
        <_>
          14 4 4 1 2.</_></rects>
      <tilted>0</tilted></_>
    <_>
      <rects>
        <_>
          14 4 3 1 -1.</_>
        <_>
          15 4 1 1 3.</_></rects>
      <tilted>0</tilted></_>
    <_>
      <rects>
        <_>
          14 4 2 2 -1.</_>
        <_>
          14 4 1 1 2.</_>
        <_>
          15 5 1 1 2.</_></rects>
      <tilted>0</tilted></_>
    <_>
      <rects>
        <_>
          14 4 6 3 -1.</_>
        <_>
          16 4 2 3 3.</_></rects>
      <tilted>0</tilted></_>
    <_>
      <rects>
        <_>
          14 5 6 2 -1.</_>
        <_>
          16 5 2 2 3.</_></rects>
      <tilted>0</tilted></_>
    <_>
      <rects>
        <_>
          14 5 4 4 -1.</_>
        <_>
          14 5 2 2 2.</_>
        <_>
          16 7 2 2 2.</_></rects>
      <tilted>0</tilted></_>
    <_>
      <rects>
        <_>
          14 6 2 2 -1.</_>
        <_>
          14 6 1 1 2.</_>
        <_>
          15 7 1 1 2.</_></rects>
      <tilted>0</tilted></_>
    <_>
      <rects>
        <_>
          14 6 2 2 -1.</_>
        <_>
          14 7 2 1 2.</_></rects>
      <tilted>0</tilted></_>
    <_>
      <rects>
        <_>
          14 6 3 3 -1.</_>
        <_>
          14 7 3 1 3.</_></rects>
      <tilted>0</tilted></_>
    <_>
      <rects>
        <_>
          14 7 3 2 -1.</_>
        <_>
          15 7 1 2 3.</_></rects>
      <tilted>0</tilted></_>
    <_>
      <rects>
        <_>
          14 8 2 1 -1.</_>
        <_>
          15 8 1 1 2.</_></rects>
      <tilted>0</tilted></_>
    <_>
      <rects>
        <_>
          15 2 2 3 -1.</_>
        <_>
          15 3 2 1 3.</_></rects>
      <tilted>0</tilted></_>
    <_>
      <rects>
        <_>
          15 4 1 2 -1.</_>
        <_>
          15 5 1 1 2.</_></rects>
      <tilted>0</tilted></_>
    <_>
      <rects>
        <_>
          15 4 3 1 -1.</_>
        <_>
          16 4 1 1 3.</_></rects>
      <tilted>0</tilted></_>
    <_>
      <rects>
        <_>
          15 4 10 4 -1.</_>
        <_>
          20 4 5 4 2.</_></rects>
      <tilted>0</tilted></_>
    <_>
      <rects>
        <_>
          15 5 2 2 -1.</_>
        <_>
          16 5 1 2 2.</_></rects>
      <tilted>0</tilted></_>
    <_>
      <rects>
        <_>
          15 5 6 3 -1.</_>
        <_>
          18 5 3 3 2.</_></rects>
      <tilted>0</tilted></_>
    <_>
      <rects>
        <_>
          15 5 12 3 -1.</_>
        <_>
          19 5 4 3 3.</_></rects>
      <tilted>0</tilted></_>
    <_>
      <rects>
        <_>
          15 6 2 3 -1.</_>
        <_>
          15 7 2 1 3.</_></rects>
      <tilted>0</tilted></_>
    <_>
      <rects>
        <_>
          15 7 3 1 -1.</_>
        <_>
          16 7 1 1 3.</_></rects>
      <tilted>0</tilted></_>
    <_>
      <rects>
        <_>
          16 3 1 2 -1.</_>
        <_>
          16 4 1 1 2.</_></rects>
      <tilted>0</tilted></_>
    <_>
      <rects>
        <_>
          16 3 2 2 -1.</_>
        <_>
          16 3 1 1 2.</_>
        <_>
          17 4 1 1 2.</_></rects>
      <tilted>0</tilted></_>
    <_>
      <rects>
        <_>
          16 4 1 3 -1.</_>
        <_>
          16 5 1 1 3.</_></rects>
      <tilted>0</tilted></_>
    <_>
      <rects>
        <_>
          16 4 1 4 -1.</_>
        <_>
          16 6 1 2 2.</_></rects>
      <tilted>0</tilted></_>
    <_>
      <rects>
        <_>
          16 4 2 4 -1.</_>
        <_>
          16 6 2 2 2.</_></rects>
      <tilted>0</tilted></_>
    <_>
      <rects>
        <_>
          16 5 3 2 -1.</_>
        <_>
          17 5 1 2 3.</_></rects>
      <tilted>0</tilted></_>
    <_>
      <rects>
        <_>
          16 5 2 2 -1.</_>
        <_>
          16 6 2 1 2.</_></rects>
      <tilted>0</tilted></_>
    <_>
      <rects>
        <_>
          16 5 8 2 -1.</_>
        <_>
          20 5 4 2 2.</_></rects>
      <tilted>0</tilted></_>
    <_>
      <rects>
        <_>
          16 5 12 1 -1.</_>
        <_>
          22 5 6 1 2.</_></rects>
      <tilted>0</tilted></_>
    <_>
      <rects>
        <_>
          16 6 2 2 -1.</_>
        <_>
          16 6 1 1 2.</_>
        <_>
          17 7 1 1 2.</_></rects>
      <tilted>0</tilted></_>
    <_>
      <rects>
        <_>
          16 8 6 1 -1.</_>
        <_>
          18 8 2 1 3.</_></rects>
      <tilted>0</tilted></_>
    <_>
      <rects>
        <_>
          16 8 4 2 -1.</_>
        <_>
          16 8 2 1 2.</_>
        <_>
          18 9 2 1 2.</_></rects>
      <tilted>0</tilted></_>
    <_>
      <rects>
        <_>
          17 3 1 3 -1.</_>
        <_>
          17 4 1 1 3.</_></rects>
      <tilted>0</tilted></_>
    <_>
      <rects>
        <_>
          17 3 1 6 -1.</_>
        <_>
          17 5 1 2 3.</_></rects>
      <tilted>0</tilted></_>
    <_>
      <rects>
        <_>
          17 4 1 2 -1.</_>
        <_>
          17 5 1 1 2.</_></rects>
      <tilted>0</tilted></_>
    <_>
      <rects>
        <_>
          17 5 1 2 -1.</_>
        <_>
          17 6 1 1 2.</_></rects>
      <tilted>0</tilted></_>
    <_>
      <rects>
        <_>
          17 5 2 3 -1.</_>
        <_>
          18 5 1 3 2.</_></rects>
      <tilted>0</tilted></_>
    <_>
      <rects>
        <_>
          17 6 2 3 -1.</_>
        <_>
          17 7 2 1 3.</_></rects>
      <tilted>0</tilted></_>
    <_>
      <rects>
        <_>
          18 6 2 2 -1.</_>
        <_>
          18 6 1 1 2.</_>
        <_>
          19 7 1 1 2.</_></rects>
      <tilted>0</tilted></_>
    <_>
      <rects>
        <_>
          18 6 4 1 -1.</_>
        <_>
          20 6 2 1 2.</_></rects>
      <tilted>0</tilted></_>
    <_>
      <rects>
        <_>
          18 7 1 2 -1.</_>
        <_>
          18 8 1 1 2.</_></rects>
      <tilted>0</tilted></_>
    <_>
      <rects>
        <_>
          18 7 4 2 -1.</_>
        <_>
          18 7 2 1 2.</_>
        <_>
          20 8 2 1 2.</_></rects>
      <tilted>0</tilted></_>
    <_>
      <rects>
        <_>
          19 6 2 1 -1.</_>
        <_>
          20 6 1 1 2.</_></rects>
      <tilted>0</tilted></_>
    <_>
      <rects>
        <_>
          19 6 3 2 -1.</_>
        <_>
          20 6 1 2 3.</_></rects>
      <tilted>0</tilted></_>
    <_>
      <rects>
        <_>
          19 7 3 1 -1.</_>
        <_>
          20 7 1 1 3.</_></rects>
      <tilted>0</tilted></_>
    <_>
      <rects>
        <_>
          19 7 2 4 -1.</_>
        <_>
          19 9 2 2 2.</_></rects>
      <tilted>0</tilted></_>
    <_>
      <rects>
        <_>
          20 2 4 8 -1.</_>
        <_>
          20 2 2 4 2.</_>
        <_>
          22 6 2 4 2.</_></rects>
      <tilted>0</tilted></_>
    <_>
      <rects>
        <_>
          20 3 2 3 -1.</_>
        <_>
          20 4 2 1 3.</_></rects>
      <tilted>0</tilted></_>
    <_>
      <rects>
        <_>
          20 6 3 1 -1.</_>
        <_>
          21 6 1 1 3.</_></rects>
      <tilted>0</tilted></_>
    <_>
      <rects>
        <_>
          20 6 2 2 -1.</_>
        <_>
          20 6 1 1 2.</_>
        <_>
          21 7 1 1 2.</_></rects>
      <tilted>0</tilted></_>
    <_>
      <rects>
        <_>
          20 6 6 1 -1.</_>
        <_>
          22 6 2 1 3.</_></rects>
      <tilted>0</tilted></_>
    <_>
      <rects>
        <_>
          21 0 3 1 -1.</_>
        <_>
          22 0 1 1 3.</_></rects>
      <tilted>0</tilted></_>
    <_>
      <rects>
        <_>
          21 1 7 8 -1.</_>
        <_>
          21 5 7 4 2.</_></rects>
      <tilted>0</tilted></_>
    <_>
      <rects>
        <_>
          21 3 2 1 -1.</_>
        <_>
          22 3 1 1 2.</_></rects>
      <tilted>0</tilted></_>
    <_>
      <rects>
        <_>
          21 6 2 4 -1.</_>
        <_>
          21 6 1 2 2.</_>
        <_>
          22 8 1 2 2.</_></rects>
      <tilted>0</tilted></_>
    <_>
      <rects>
        <_>
          22 3 6 6 -1.</_>
        <_>
          22 3 3 3 2.</_>
        <_>
          25 6 3 3 2.</_></rects>
      <tilted>0</tilted></_>
    <_>
      <rects>
        <_>
          22 4 2 1 -1.</_>
        <_>
          23 4 1 1 2.</_></rects>
      <tilted>0</tilted></_>
    <_>
      <rects>
        <_>
          22 4 3 1 -1.</_>
        <_>
          23 4 1 1 3.</_></rects>
      <tilted>0</tilted></_>
    <_>
      <rects>
        <_>
          22 4 4 2 -1.</_>
        <_>
          22 4 2 1 2.</_>
        <_>
          24 5 2 1 2.</_></rects>
      <tilted>0</tilted></_>
    <_>
      <rects>
        <_>
          22 5 2 3 -1.</_>
        <_>
          22 6 2 1 3.</_></rects>
      <tilted>0</tilted></_>
    <_>
      <rects>
        <_>
          22 7 2 1 -1.</_>
        <_>
          23 7 1 1 2.</_></rects>
      <tilted>0</tilted></_>
    <_>
      <rects>
        <_>
          23 3 4 2 -1.</_>
        <_>
          23 3 2 1 2.</_>
        <_>
          25 4 2 1 2.</_></rects>
      <tilted>0</tilted></_>
    <_>
      <rects>
        <_>
          23 4 4 1 -1.</_>
        <_>
          25 4 2 1 2.</_></rects>
      <tilted>0</tilted></_>
    <_>
      <rects>
        <_>
          24 1 4 6 -1.</_>
        <_>
          24 1 2 3 2.</_>
        <_>
          26 4 2 3 2.</_></rects>
      <tilted>0</tilted></_>
    <_>
      <rects>
        <_>
          24 2 1 4 -1.</_>
        <_>
          24 4 1 2 2.</_></rects>
      <tilted>0</tilted></_>
    <_>
      <rects>
        <_>
          26 5 2 2 -1.</_>
        <_>
          27 5 1 2 2.</_></rects>
      <tilted>0</tilted></_></features></cascade>
</opencv_storage>
