<?xml version="1.0"?>
<opencv_storage>
<cascade>
  <stageType>BOOST</stageType>
  <featureType>HAAR</featureType>
  <height>12</height>
  <width>28</width>
  <stageParams>
    <boostType>GAB</boostType>
    <minHitRate>9.9500000476837158e-01</minHitRate>
    <maxFalseAlarm>5.0000000000000000e-01</maxFalseAlarm>
    <weightTrimRate>9.4999999999999996e-01</weightTrimRate>
    <maxDepth>1</maxDepth>
    <maxWeakCount>100</maxWeakCount></stageParams>
  <featureParams>
    <maxCatCount>0</maxCatCount>
    <featSize>1</featSize>
    <mode>BASIC</mode></featureParams>
  <stageNum>10</stageNum>
  <stages>
    <!-- stage 0 -->
    <_>
      <maxWeakCount>6</maxWeakCount>
      <stageThreshold>-7.1213346719741821e-01</stageThreshold>
      <weakClassifiers>
        <_>
          <internalNodes>
            0 -1 80 2.7584685012698174e-03</internalNodes>
          <leafValues>
            -3.3333334326744080e-01 8.5243743658065796e-01</leafValues></_>
        <_>
          <internalNodes>
            0 -1 70 4.8725311644375324e-03</internalNodes>
          <leafValues>
            -3.0693757534027100e-01 7.9449981451034546e-01</leafValues></_>
        <_>
          <internalNodes>
            0 -1 25 1.7244924092665315e-03</internalNodes>
          <leafValues>
            -2.9485195875167847e-01 5.5628705024719238e-01</leafValues></_>
        <_>
          <internalNodes>
            0 -1 68 -5.7652699761092663e-03</internalNodes>
          <leafValues>
            7.9385876655578613e-01 -2.0291456580162048e-01</leafValues></_>
        <_>
          <internalNodes>
            0 -1 8 -7.0564486086368561e-02</internalNodes>
          <leafValues>
            8.1946778297424316e-01 -1.9327694177627563e-01</leafValues></_>
        <_>
          <internalNodes>
            0 -1 54 3.5208275076001883e-03</internalNodes>
          <leafValues>
            -2.3195812106132507e-01 6.9660156965255737e-01</leafValues></_></weakClassifiers></_>
    <!-- stage 1 -->
    <_>
      <maxWeakCount>9</maxWeakCount>
      <stageThreshold>-8.0376321077346802e-01</stageThreshold>
      <weakClassifiers>
        <_>
          <internalNodes>
            0 -1 57 9.8441038280725479e-03</internalNodes>
          <leafValues>
            -2.1351766586303711e-01 8.4263235330581665e-01</leafValues></_>
        <_>
          <internalNodes>
            0 -1 87 -1.3500117929652333e-03</internalNodes>
          <leafValues>
            6.2074458599090576e-01 -3.1870847940444946e-01</leafValues></_>
        <_>
          <internalNodes>
            0 -1 6 -2.0129891345277429e-04</internalNodes>
          <leafValues>
            3.7799158692359924e-01 -4.3715953826904297e-01</leafValues></_>
        <_>
          <internalNodes>
            0 -1 89 -1.4069819590076804e-03</internalNodes>
          <leafValues>
            4.4812905788421631e-01 -3.4969085454940796e-01</leafValues></_>
        <_>
          <internalNodes>
            0 -1 95 1.5698862262070179e-03</internalNodes>
          <leafValues>
            -2.9388377070426941e-01 5.3949564695358276e-01</leafValues></_>
        <_>
          <internalNodes>
            0 -1 39 -5.6139011867344379e-03</internalNodes>
          <leafValues>
            -8.1460636854171753e-01 1.8928901851177216e-01</leafValues></_>
        <_>
          <internalNodes>
            0 -1 55 5.2527184598147869e-03</internalNodes>
          <leafValues>
            -2.9127576947212219e-01 4.9677550792694092e-01</leafValues></_>
        <_>
          <internalNodes>
            0 -1 60 -3.9483945816755295e-02</internalNodes>
          <leafValues>
            5.5578577518463135e-01 -2.5332775712013245e-01</leafValues></_>
        <_>
          <internalNodes>
            0 -1 63 6.9674765691161156e-03</internalNodes>
          <leafValues>
            -2.3936225473880768e-01 5.6520462036132812e-01</leafValues></_></weakClassifiers></_>
    <!-- stage 2 -->
    <_>
      <maxWeakCount>10</maxWeakCount>
      <stageThreshold>-1.0965008735656738e+00</stageThreshold>
      <weakClassifiers>
        <_>
          <internalNodes>
            0 -1 44 1.5377007424831390e-02</internalNodes>
          <leafValues>
            -1.5542522072792053e-01 8.3233535289764404e-01</leafValues></_>
        <_>
          <internalNodes>
            0 -1 36 8.9292787015438080e-04</internalNodes>
          <leafValues>
            -3.2941654324531555e-01 5.5777406692504883e-01</leafValues></_>
        <_>
          <internalNodes>
            0 -1 84 2.1142084151506424e-03</internalNodes>
          <leafValues>
            -3.9898729324340820e-01 3.8610559701919556e-01</leafValues></_>
        <_>
          <internalNodes>
            0 -1 40 1.9542118534445763e-02</internalNodes>
          <leafValues>
            1.5832515060901642e-01 -8.3459025621414185e-01</leafValues></_>
        <_>
          <internalNodes>
            0 -1 4 -1.2173390388488770e-01</internalNodes>
          <leafValues>
            6.0526311397552490e-01 -2.4050183594226837e-01</leafValues></_>
        <_>
          <internalNodes>
            0 -1 47 -4.2132646776735783e-03</internalNodes>
          <leafValues>
            -8.3087772130966187e-01 1.6799114644527435e-01</leafValues></_>
        <_>
          <internalNodes>
            0 -1 14 -4.2532067745923996e-03</internalNodes>
          <leafValues>
            -7.3730969429016113e-01 1.5702590346336365e-01</leafValues></_>
        <_>
          <internalNodes>
            0 -1 5 -1.0005769133567810e-01</internalNodes>
          <leafValues>
            7.1311104297637939e-01 -1.9128882884979248e-01</leafValues></_>
        <_>
          <internalNodes>
            0 -1 2 1.4269365929067135e-03</internalNodes>
          <leafValues>
            -3.9638322591781616e-01 3.2920047640800476e-01</leafValues></_>
        <_>
          <internalNodes>
            0 -1 77 -3.3285329118371010e-03</internalNodes>
          <leafValues>
            -8.9602816104888916e-01 1.3215987384319305e-01</leafValues></_></weakClassifiers></_>
    <!-- stage 3 -->
    <_>
      <maxWeakCount>9</maxWeakCount>
      <stageThreshold>-7.1530222892761230e-01</stageThreshold>
      <weakClassifiers>
        <_>
          <internalNodes>
            0 -1 56 1.6634861240163445e-03</internalNodes>
          <leafValues>
            -2.1847246587276459e-01 7.2808134555816650e-01</leafValues></_>
        <_>
          <internalNodes>
            0 -1 78 1.4410276198759675e-03</internalNodes>
          <leafValues>
            -3.7993142008781433e-01 5.2636575698852539e-01</leafValues></_>
        <_>
          <internalNodes>
            0 -1 49 -2.7931497897952795e-03</internalNodes>
          <leafValues>
            6.6223001480102539e-01 -2.3536553978919983e-01</leafValues></_>
        <_>
          <internalNodes>
            0 -1 97 1.0255766101181507e-03</internalNodes>
          <leafValues>
            -3.9219990372657776e-01 4.0186420083045959e-01</leafValues></_>
        <_>
          <internalNodes>
            0 -1 66 2.4754272308200598e-03</internalNodes>
          <leafValues>
            -4.0097403526306152e-01 3.7994691729545593e-01</leafValues></_>
        <_>
          <internalNodes>
            0 -1 71 -3.3238884061574936e-03</internalNodes>
          <leafValues>
            -8.8665258884429932e-01 1.8222744762897491e-01</leafValues></_>
        <_>
          <internalNodes>
            0 -1 86 -1.8349468708038330e-02</internalNodes>
          <leafValues>
            -7.4487400054931641e-01 1.3892647624015808e-01</leafValues></_>
        <_>
          <internalNodes>
            0 -1 20 4.3847281485795975e-03</internalNodes>
          <leafValues>
            -3.3649146556854248e-01 4.7144851088523865e-01</leafValues></_>
        <_>
          <internalNodes>
            0 -1 83 -3.5525306593626738e-03</internalNodes>
          <leafValues>
            -7.8725844621658325e-01 2.2027465701103210e-01</leafValues></_></weakClassifiers></_>
    <!-- stage 4 -->
    <_>
      <maxWeakCount>13</maxWeakCount>
      <stageThreshold>-8.0721050500869751e-01</stageThreshold>
      <weakClassifiers>
        <_>
          <internalNodes>
            0 -1 74 -8.9632589370012283e-03</internalNodes>
          <leafValues>
            8.1677019596099854e-01 -1.0764872282743454e-01</leafValues></_>
        <_>
          <internalNodes>
            0 -1 82 2.8660087846219540e-03</internalNodes>
          <leafValues>
            -1.9495154917240143e-01 6.9968849420547485e-01</leafValues></_>
        <_>
          <internalNodes>
            0 -1 99 1.8641937058418989e-03</internalNodes>
          <leafValues>
            -2.8324750065803528e-01 4.7039633989334106e-01</leafValues></_>
        <_>
          <internalNodes>
            0 -1 17 1.5908337081782520e-04</internalNodes>
          <leafValues>
            -4.8480993509292603e-01 2.3811118304729462e-01</leafValues></_>
        <_>
          <internalNodes>
            0 -1 46 -4.0147723630070686e-03</internalNodes>
          <leafValues>
            -7.6800566911697388e-01 1.2520565092563629e-01</leafValues></_>
        <_>
          <internalNodes>
            0 -1 18 -5.9573039412498474e-02</internalNodes>
          <leafValues>
            6.0453677177429199e-01 -1.8813639879226685e-01</leafValues></_>
        <_>
          <internalNodes>
            0 -1 65 -1.9572684541344643e-03</internalNodes>
          <leafValues>
            5.0032508373260498e-01 -2.2585196793079376e-01</leafValues></_>
        <_>
          <internalNodes>
            0 -1 59 -1.0016654618084431e-02</internalNodes>
          <leafValues>
            6.6071361303329468e-01 -1.9040153920650482e-01</leafValues></_>
        <_>
          <internalNodes>
            0 -1 0 -4.1104732081294060e-03</internalNodes>
          <leafValues>
            4.5735639333724976e-01 -2.2588221728801727e-01</leafValues></_>
        <_>
          <internalNodes>
            0 -1 21 2.2044489160180092e-03</internalNodes>
          <leafValues>
            -2.9669019579887390e-01 3.3865934610366821e-01</leafValues></_>
        <_>
          <internalNodes>
            0 -1 64 -8.7977619841694832e-03</internalNodes>
          <leafValues>
            6.1672574281692505e-01 -1.6179513931274414e-01</leafValues></_>
        <_>
          <internalNodes>
            0 -1 69 3.0887132743373513e-04</internalNodes>
          <leafValues>
            3.0460315942764282e-01 -3.4666797518730164e-01</leafValues></_>
        <_>
          <internalNodes>
            0 -1 102 -1.0332233272492886e-02</internalNodes>
          <leafValues>
            4.1234368085861206e-01 -2.6784229278564453e-01</leafValues></_></weakClassifiers></_>
    <!-- stage 5 -->
    <_>
      <maxWeakCount>12</maxWeakCount>
      <stageThreshold>-1.0132592916488647e+00</stageThreshold>
      <weakClassifiers>
        <_>
          <internalNodes>
            0 -1 73 1.6005951911211014e-02</internalNodes>
          <leafValues>
            -1.6159999370574951e-01 7.5999999046325684e-01</leafValues></_>
        <_>
          <internalNodes>
            0 -1 44 2.3812521249055862e-02</internalNodes>
          <leafValues>
            -1.6546928882598877e-01 7.2003579139709473e-01</leafValues></_>
        <_>
          <internalNodes>
            0 -1 46 3.2894434407353401e-03</internalNodes>
          <leafValues>
            2.4200415611267090e-01 -7.4753600358963013e-01</leafValues></_>
        <_>
          <internalNodes>
            0 -1 10 1.8422985449433327e-03</internalNodes>
          <leafValues>
            -3.9538952708244324e-01 3.4642398357391357e-01</leafValues></_>
        <_>
          <internalNodes>
            0 -1 15 -7.0191938430070877e-03</internalNodes>
          <leafValues>
            -8.2793116569519043e-01 1.2613877654075623e-01</leafValues></_>
        <_>
          <internalNodes>
            0 -1 16 1.0765961371362209e-02</internalNodes>
          <leafValues>
            1.0139762610197067e-01 -7.9223471879959106e-01</leafValues></_>
        <_>
          <internalNodes>
            0 -1 92 -6.3251564279198647e-04</internalNodes>
          <leafValues>
            2.7547946572303772e-01 -3.5439670085906982e-01</leafValues></_>
        <_>
          <internalNodes>
            0 -1 30 -4.9831755459308624e-03</internalNodes>
          <leafValues>
            5.7993894815444946e-01 -2.1141617000102997e-01</leafValues></_>
        <_>
          <internalNodes>
            0 -1 90 -1.3806872302666306e-03</internalNodes>
          <leafValues>
            -7.4672573804855347e-01 1.4876176416873932e-01</leafValues></_>
        <_>
          <internalNodes>
            0 -1 1 2.7143270708620548e-03</internalNodes>
          <leafValues>
            -2.3707228899002075e-01 4.5554533600807190e-01</leafValues></_>
        <_>
          <internalNodes>
            0 -1 24 -2.5714822113513947e-02</internalNodes>
          <leafValues>
            6.0050189495086670e-01 -1.8927447497844696e-01</leafValues></_>
        <_>
          <internalNodes>
            0 -1 35 1.3752735685557127e-03</internalNodes>
          <leafValues>
            1.8533404171466827e-01 -6.9701737165451050e-01</leafValues></_></weakClassifiers></_>
    <!-- stage 6 -->
    <_>
      <maxWeakCount>11</maxWeakCount>
      <stageThreshold>-8.8952213525772095e-01</stageThreshold>
      <weakClassifiers>
        <_>
          <internalNodes>
            0 -1 84 5.1689911633729935e-03</internalNodes>
          <leafValues>
            -1.7171716690063477e-01 7.3015874624252319e-01</leafValues></_>
        <_>
          <internalNodes>
            0 -1 27 3.8305677007883787e-03</internalNodes>
          <leafValues>
            -3.3054482936859131e-01 5.8108747005462646e-01</leafValues></_>
        <_>
          <internalNodes>
            0 -1 41 -1.4558158814907074e-02</internalNodes>
          <leafValues>
            6.4017248153686523e-01 -2.2298796474933624e-01</leafValues></_>
        <_>
          <internalNodes>
            0 -1 35 -1.8421257846057415e-03</internalNodes>
          <leafValues>
            -8.5976427793502808e-01 1.5181039273738861e-01</leafValues></_>
        <_>
          <internalNodes>
            0 -1 37 3.0277939513325691e-03</internalNodes>
          <leafValues>
            -2.5030076503753662e-01 5.3749853372573853e-01</leafValues></_>
        <_>
          <internalNodes>
            0 -1 42 1.6134734032675624e-03</internalNodes>
          <leafValues>
            -1.8293114006519318e-01 5.2282106876373291e-01</leafValues></_>
        <_>
          <internalNodes>
            0 -1 100 -1.3331889640539885e-03</internalNodes>
          <leafValues>
            -5.7411134243011475e-01 1.7091034352779388e-01</leafValues></_>
        <_>
          <internalNodes>
            0 -1 90 1.6307856421917677e-03</internalNodes>
          <leafValues>
            1.0741351544857025e-01 -7.2591561079025269e-01</leafValues></_>
        <_>
          <internalNodes>
            0 -1 98 2.9563521966338158e-02</internalNodes>
          <leafValues>
            -2.3587675392627716e-01 3.8937699794769287e-01</leafValues></_>
        <_>
          <internalNodes>
            0 -1 32 -1.4074590057134628e-02</internalNodes>
          <leafValues>
            6.6960316896438599e-01 -1.5458932518959045e-01</leafValues></_>
        <_>
          <internalNodes>
            0 -1 53 1.3658232055604458e-02</internalNodes>
          <leafValues>
            1.7758767306804657e-01 -6.8234074115753174e-01</leafValues></_></weakClassifiers></_>
    <!-- stage 7 -->
    <_>
      <maxWeakCount>16</maxWeakCount>
      <stageThreshold>-8.2157385349273682e-01</stageThreshold>
      <weakClassifiers>
        <_>
          <internalNodes>
            0 -1 12 -8.4946136921644211e-03</internalNodes>
          <leafValues>
            7.3011362552642822e-01 -9.9071204662322998e-02</leafValues></_>
        <_>
          <internalNodes>
            0 -1 80 9.3763079494237900e-03</internalNodes>
          <leafValues>
            -1.8409784138202667e-01 6.3127970695495605e-01</leafValues></_>
        <_>
          <internalNodes>
            0 -1 26 8.8425650028511882e-04</internalNodes>
          <leafValues>
            -3.1553050875663757e-01 3.8927283883094788e-01</leafValues></_>
        <_>
          <internalNodes>
            0 -1 13 8.8748405687510967e-04</internalNodes>
          <leafValues>
            -4.1092029213905334e-01 2.8493744134902954e-01</leafValues></_>
        <_>
          <internalNodes>
            0 -1 96 1.3435522851068527e-04</internalNodes>
          <leafValues>
            -4.6464693546295166e-01 1.7943163216114044e-01</leafValues></_>
        <_>
          <internalNodes>
            0 -1 29 1.1107453145086765e-02</internalNodes>
          <leafValues>
            -1.6169705986976624e-01 5.4386967420578003e-01</leafValues></_>
        <_>
          <internalNodes>
            0 -1 23 9.8514556884765625e-03</internalNodes>
          <leafValues>
            1.4247213304042816e-01 -7.4954515695571899e-01</leafValues></_>
        <_>
          <internalNodes>
            0 -1 28 -3.8414797745645046e-03</internalNodes>
          <leafValues>
            -8.0458390712738037e-01 1.0807748883962631e-01</leafValues></_>
        <_>
          <internalNodes>
            0 -1 101 -4.9561830237507820e-03</internalNodes>
          <leafValues>
            4.5722126960754395e-01 -2.0464943349361420e-01</leafValues></_>
        <_>
          <internalNodes>
            0 -1 88 1.3066511601209641e-03</internalNodes>
          <leafValues>
            -3.3900758624076843e-01 3.1479442119598389e-01</leafValues></_>
        <_>
          <internalNodes>
            0 -1 58 1.0000901296734810e-02</internalNodes>
          <leafValues>
            1.0693190991878510e-01 -8.6332738399505615e-01</leafValues></_>
        <_>
          <internalNodes>
            0 -1 85 3.3272141590714455e-03</internalNodes>
          <leafValues>
            9.3505173921585083e-02 -7.7890551090240479e-01</leafValues></_>
        <_>
          <internalNodes>
            0 -1 50 -4.8349848948419094e-03</internalNodes>
          <leafValues>
            -8.0722087621688843e-01 8.3184890449047089e-02</leafValues></_>
        <_>
          <internalNodes>
            0 -1 62 -2.2283243015408516e-03</internalNodes>
          <leafValues>
            -5.9102714061737061e-01 1.4471668004989624e-01</leafValues></_>
        <_>
          <internalNodes>
            0 -1 51 9.5943594351410866e-03</internalNodes>
          <leafValues>
            1.4203318953514099e-01 -5.5093955993652344e-01</leafValues></_>
        <_>
          <internalNodes>
            0 -1 16 1.1915094219148159e-02</internalNodes>
          <leafValues>
            9.0418227016925812e-02 -8.8343501091003418e-01</leafValues></_></weakClassifiers></_>
    <!-- stage 8 -->
    <_>
      <maxWeakCount>14</maxWeakCount>
      <stageThreshold>-9.2725014686584473e-01</stageThreshold>
      <weakClassifiers>
        <_>
          <internalNodes>
            0 -1 38 5.6330813094973564e-04</internalNodes>
          <leafValues>
            -2.4726477265357971e-01 6.3045912981033325e-01</leafValues></_>
        <_>
          <internalNodes>
            0 -1 70 8.2192104309797287e-03</internalNodes>
          <leafValues>
            -3.0487605929374695e-01 5.0816154479980469e-01</leafValues></_>
        <_>
          <internalNodes>
            0 -1 29 -1.2992568314075470e-02</internalNodes>
          <leafValues>
            5.6577801704406738e-01 -1.8597042560577393e-01</leafValues></_>
        <_>
          <internalNodes>
            0 -1 75 2.5613245088607073e-04</internalNodes>
          <leafValues>
            -4.2600908875465393e-01 2.7506831288337708e-01</leafValues></_>
        <_>
          <internalNodes>
            0 -1 3 -2.9702160507440567e-02</internalNodes>
          <leafValues>
            -6.6924470663070679e-01 1.1904955655336380e-01</leafValues></_>
        <_>
          <internalNodes>
            0 -1 34 7.5605716556310654e-03</internalNodes>
          <leafValues>
            1.4058828353881836e-01 -7.1259027719497681e-01</leafValues></_>
        <_>
          <internalNodes>
            0 -1 83 3.6180000752210617e-03</internalNodes>
          <leafValues>
            1.4393118023872375e-01 -6.4408236742019653e-01</leafValues></_>
        <_>
          <internalNodes>
            0 -1 94 -2.4307447019964457e-03</internalNodes>
          <leafValues>
            3.2136735320091248e-01 -3.3253532648086548e-01</leafValues></_>
        <_>
          <internalNodes>
            0 -1 52 -1.3015178963541985e-02</internalNodes>
          <leafValues>
            -6.0839670896530151e-01 1.5163633227348328e-01</leafValues></_>
        <_>
          <internalNodes>
            0 -1 103 -8.2933343946933746e-04</internalNodes>
          <leafValues>
            3.2571256160736084e-01 -3.0452477931976318e-01</leafValues></_>
        <_>
          <internalNodes>
            0 -1 45 -3.7701863329857588e-03</internalNodes>
          <leafValues>
            -8.7904804944992065e-01 1.2999238073825836e-01</leafValues></_>
        <_>
          <internalNodes>
            0 -1 43 6.2961541116237640e-03</internalNodes>
          <leafValues>
            8.0860361456871033e-02 -7.3796087503433228e-01</leafValues></_>
        <_>
          <internalNodes>
            0 -1 31 -7.0530112134292722e-04</internalNodes>
          <leafValues>
            2.6717236638069153e-01 -3.1145155429840088e-01</leafValues></_>
        <_>
          <internalNodes>
            0 -1 11 -3.2871211878955364e-03</internalNodes>
          <leafValues>
            5.2403593063354492e-01 -1.5930020809173584e-01</leafValues></_></weakClassifiers></_>
    <!-- stage 9 -->
    <_>
      <maxWeakCount>16</maxWeakCount>
      <stageThreshold>-9.9927133321762085e-01</stageThreshold>
      <weakClassifiers>
        <_>
          <internalNodes>
            0 -1 81 7.0411380147561431e-04</internalNodes>
          <leafValues>
            -3.1000000238418579e-01 6.0421055555343628e-01</leafValues></_>
        <_>
          <internalNodes>
            0 -1 22 1.5074855647981167e-02</internalNodes>
          <leafValues>
            -2.1950244903564453e-01 6.4883661270141602e-01</leafValues></_>
        <_>
          <internalNodes>
            0 -1 6 -5.4059873946243897e-05</internalNodes>
          <leafValues>
            2.8933638334274292e-01 -4.4140160083770752e-01</leafValues></_>
        <_>
          <internalNodes>
            0 -1 91 -1.5746103599667549e-03</internalNodes>
          <leafValues>
            2.7111458778381348e-01 -3.5340934991836548e-01</leafValues></_>
        <_>
          <internalNodes>
            0 -1 72 -9.8473508842289448e-04</internalNodes>
          <leafValues>
            3.2978659868240356e-01 -2.7319905161857605e-01</leafValues></_>
        <_>
          <internalNodes>
            0 -1 35 -8.0193224130198359e-04</internalNodes>
          <leafValues>
            -5.7605773210525513e-01 1.2954965233802795e-01</leafValues></_>
        <_>
          <internalNodes>
            0 -1 7 -5.4232957772910595e-03</internalNodes>
          <leafValues>
            3.9746493101119995e-01 -2.3749038577079773e-01</leafValues></_>
        <_>
          <internalNodes>
            0 -1 79 -3.4092932939529419e-02</internalNodes>
          <leafValues>
            -7.3457652330398560e-01 1.1003316193819046e-01</leafValues></_>
        <_>
          <internalNodes>
            0 -1 48 -8.2460567355155945e-03</internalNodes>
          <leafValues>
            -4.8891159892082214e-01 1.7124703526496887e-01</leafValues></_>
        <_>
          <internalNodes>
            0 -1 9 -5.6013520807027817e-03</internalNodes>
          <leafValues>
            5.1290571689605713e-01 -1.6418828070163727e-01</leafValues></_>
        <_>
          <internalNodes>
            0 -1 67 -4.7775711864233017e-03</internalNodes>
          <leafValues>
            5.1863878965377808e-01 -1.6557967662811279e-01</leafValues></_>
        <_>
          <internalNodes>
            0 -1 76 1.5514832921326160e-03</internalNodes>
          <leafValues>
            1.6022124886512756e-01 -5.7386291027069092e-01</leafValues></_>
        <_>
          <internalNodes>
            0 -1 33 -1.0587146971374750e-03</internalNodes>
          <leafValues>
            3.1374478340148926e-01 -2.7795213460922241e-01</leafValues></_>
        <_>
          <internalNodes>
            0 -1 61 -7.0171365514397621e-03</internalNodes>
          <leafValues>
            -8.3993828296661377e-01 1.0197666287422180e-01</leafValues></_>
        <_>
          <internalNodes>
            0 -1 93 8.4299070294946432e-04</internalNodes>
          <leafValues>
            -2.5694018602371216e-01 2.9986318945884705e-01</leafValues></_>
        <_>
          <internalNodes>
            0 -1 19 5.0800312310457230e-03</internalNodes>
          <leafValues>
            1.4878818392753601e-01 -5.3431457281112671e-01</leafValues></_></weakClassifiers></_></stages>
  <features>
    <_>
      <rects>
        <_>
          0 3 3 6 -1.</_>
        <_>
          1 3 1 6 3.</_></rects>
      <tilted>0</tilted></_>
    <_>
      <rects>
        <_>
          0 5 2 2 -1.</_>
        <_>
          1 5 1 2 2.</_></rects>
      <tilted>0</tilted></_>
    <_>
      <rects>
        <_>
          1 4 3 4 -1.</_>
        <_>
          2 4 1 4 3.</_></rects>
      <tilted>0</tilted></_>
    <_>
      <rects>
        <_>
          1 5 24 2 -1.</_>
        <_>
          13 5 12 2 2.</_></rects>
      <tilted>0</tilted></_>
    <_>
      <rects>
        <_>
          1 5 24 6 -1.</_>
        <_>
          1 8 24 3 2.</_></rects>
      <tilted>0</tilted></_>
    <_>
      <rects>
        <_>
          2 0 13 9 -1.</_>
        <_>
          2 3 13 3 3.</_></rects>
      <tilted>0</tilted></_>
    <_>
      <rects>
        <_>
          2 5 2 1 -1.</_>
        <_>
          3 5 1 1 2.</_></rects>
      <tilted>0</tilted></_>
    <_>
      <rects>
        <_>
          2 7 2 4 -1.</_>
        <_>
          2 9 2 2 2.</_></rects>
      <tilted>0</tilted></_>
    <_>
      <rects>
        <_>
          2 7 23 4 -1.</_>
        <_>
          2 9 23 2 2.</_></rects>
      <tilted>0</tilted></_>
    <_>
      <rects>
        <_>
          3 3 1 4 -1.</_>
        <_>
          3 5 1 2 2.</_></rects>
      <tilted>0</tilted></_>
    <_>
      <rects>
        <_>
          4 5 6 1 -1.</_>
        <_>
          6 5 2 1 3.</_></rects>
      <tilted>0</tilted></_>
    <_>
      <rects>
        <_>
          4 6 2 2 -1.</_>
        <_>
          4 7 2 1 2.</_></rects>
      <tilted>0</tilted></_>
    <_>
      <rects>
        <_>
          6 4 10 2 -1.</_>
        <_>
          6 4 5 1 2.</_>
        <_>
          11 5 5 1 2.</_></rects>
      <tilted>0</tilted></_>
    <_>
      <rects>
        <_>
          6 5 3 2 -1.</_>
        <_>
          7 5 1 2 3.</_></rects>
      <tilted>0</tilted></_>
    <_>
      <rects>
        <_>
          6 5 2 4 -1.</_>
        <_>
          7 5 1 4 2.</_></rects>
      <tilted>0</tilted></_>
    <_>
      <rects>
        <_>
          6 5 6 1 -1.</_>
        <_>
          9 5 3 1 2.</_></rects>
      <tilted>0</tilted></_>
    <_>
      <rects>
        <_>
          6 5 6 2 -1.</_>
        <_>
          9 5 3 2 2.</_></rects>
      <tilted>0</tilted></_>
    <_>
      <rects>
        <_>
          6 6 3 1 -1.</_>
        <_>
          7 6 1 1 3.</_></rects>
      <tilted>0</tilted></_>
    <_>
      <rects>
        <_>
          6 7 14 4 -1.</_>
        <_>
          6 9 14 2 2.</_></rects>
      <tilted>0</tilted></_>
    <_>
      <rects>
        <_>
          6 8 3 3 -1.</_>
        <_>
          7 8 1 3 3.</_></rects>
      <tilted>0</tilted></_>
    <_>
      <rects>
        <_>
          7 7 3 3 -1.</_>
        <_>
          7 8 3 1 3.</_></rects>
      <tilted>0</tilted></_>
    <_>
      <rects>
        <_>
          8 5 4 2 -1.</_>
        <_>
          10 5 2 2 2.</_></rects>
      <tilted>0</tilted></_>
    <_>
      <rects>
        <_>
          8 5 6 2 -1.</_>
        <_>
          10 5 2 2 3.</_></rects>
      <tilted>0</tilted></_>
    <_>
      <rects>
        <_>
          8 5 5 3 -1.</_>
        <_>
          8 6 5 1 3.</_></rects>
      <tilted>0</tilted></_>
    <_>
      <rects>
        <_>
          9 1 3 6 -1.</_>
        <_>
          9 4 3 3 2.</_></rects>
      <tilted>0</tilted></_>
    <_>
      <rects>
        <_>
          9 3 2 4 -1.</_>
        <_>
          9 3 1 2 2.</_>
        <_>
          10 5 1 2 2.</_></rects>
      <tilted>0</tilted></_>
    <_>
      <rects>
        <_>
          9 4 2 2 -1.</_>
        <_>
          9 4 1 1 2.</_>
        <_>
          10 5 1 1 2.</_></rects>
      <tilted>0</tilted></_>
    <_>
      <rects>
        <_>
          9 5 3 2 -1.</_>
        <_>
          10 5 1 2 3.</_></rects>
      <tilted>0</tilted></_>
    <_>
      <rects>
        <_>
          9 5 2 2 -1.</_>
        <_>
          9 6 2 1 2.</_></rects>
      <tilted>0</tilted></_>
    <_>
      <rects>
        <_>
          9 6 9 1 -1.</_>
        <_>
          12 6 3 1 3.</_></rects>
      <tilted>0</tilted></_>
    <_>
      <rects>
        <_>
          9 7 4 2 -1.</_>
        <_>
          9 7 2 1 2.</_>
        <_>
          11 8 2 1 2.</_></rects>
      <tilted>0</tilted></_>
    <_>
      <rects>
        <_>
          10 3 1 3 -1.</_>
        <_>
          10 4 1 1 3.</_></rects>
      <tilted>0</tilted></_>
    <_>
      <rects>
        <_>
          10 3 6 3 -1.</_>
        <_>
          10 4 6 1 3.</_></rects>
      <tilted>0</tilted></_>
    <_>
      <rects>
        <_>
          10 4 2 2 -1.</_>
        <_>
          10 4 1 1 2.</_>
        <_>
          11 5 1 1 2.</_></rects>
      <tilted>0</tilted></_>
    <_>
      <rects>
        <_>
          10 4 6 1 -1.</_>
        <_>
          13 4 3 1 2.</_></rects>
      <tilted>0</tilted></_>
    <_>
      <rects>
        <_>
          10 5 1 2 -1.</_>
        <_>
          10 6 1 1 2.</_></rects>
      <tilted>0</tilted></_>
    <_>
      <rects>
        <_>
          10 6 2 2 -1.</_>
        <_>
          10 6 1 1 2.</_>
        <_>
          11 7 1 1 2.</_></rects>
      <tilted>0</tilted></_>
    <_>
      <rects>
        <_>
          10 7 1 2 -1.</_>
        <_>
          10 8 1 1 2.</_></rects>
      <tilted>0</tilted></_>
    <_>
      <rects>
        <_>
          10 7 3 1 -1.</_>
        <_>
          11 7 1 1 3.</_></rects>
      <tilted>0</tilted></_>
    <_>
      <rects>
        <_>
          10 7 8 1 -1.</_>
        <_>
          14 7 4 1 2.</_></rects>
      <tilted>0</tilted></_>
    <_>
      <rects>
        <_>
          10 7 12 1 -1.</_>
        <_>
          14 7 4 1 3.</_></rects>
      <tilted>0</tilted></_>
    <_>
      <rects>
        <_>
          10 7 8 2 -1.</_>
        <_>
          10 8 8 1 2.</_></rects>
      <tilted>0</tilted></_>
    <_>
      <rects>
        <_>
          11 3 1 2 -1.</_>
        <_>
          11 4 1 1 2.</_></rects>
      <tilted>0</tilted></_>
    <_>
      <rects>
        <_>
          11 3 3 2 -1.</_>
        <_>
          12 3 1 2 3.</_></rects>
      <tilted>0</tilted></_>
    <_>
      <rects>
        <_>
          11 3 6 3 -1.</_>
        <_>
          11 4 6 1 3.</_></rects>
      <tilted>0</tilted></_>
    <_>
      <rects>
        <_>
          11 4 3 1 -1.</_>
        <_>
          12 4 1 1 3.</_></rects>
      <tilted>0</tilted></_>
    <_>
      <rects>
        <_>
          11 4 1 4 -1.</_>
        <_>
          11 6 1 2 2.</_></rects>
      <tilted>0</tilted></_>
    <_>
      <rects>
        <_>
          11 4 6 1 -1.</_>
        <_>
          14 4 3 1 2.</_></rects>
      <tilted>0</tilted></_>
    <_>
      <rects>
        <_>
          11 6 12 2 -1.</_>
        <_>
          15 6 4 2 3.</_></rects>
      <tilted>0</tilted></_>
    <_>
      <rects>
        <_>
          11 7 1 2 -1.</_>
        <_>
          11 8 1 1 2.</_></rects>
      <tilted>0</tilted></_>
    <_>
      <rects>
        <_>
          11 7 2 2 -1.</_>
        <_>
          12 7 1 2 2.</_></rects>
      <tilted>0</tilted></_>
    <_>
      <rects>
        <_>
          11 7 10 1 -1.</_>
        <_>
          16 7 5 1 2.</_></rects>
      <tilted>0</tilted></_>
    <_>
      <rects>
        <_>
          11 7 15 1 -1.</_>
        <_>
          16 7 5 1 3.</_></rects>
      <tilted>0</tilted></_>
    <_>
      <rects>
        <_>
          11 7 12 1 -1.</_>
        <_>
          17 7 6 1 2.</_></rects>
      <tilted>0</tilted></_>
    <_>
      <rects>
        <_>
          11 8 2 2 -1.</_>
        <_>
          11 9 2 1 2.</_></rects>
      <tilted>0</tilted></_>
    <_>
      <rects>
        <_>
          12 1 5 3 -1.</_>
        <_>
          12 2 5 1 3.</_></rects>
      <tilted>0</tilted></_>
    <_>
      <rects>
        <_>
          12 3 1 3 -1.</_>
        <_>
          12 4 1 1 3.</_></rects>
      <tilted>0</tilted></_>
    <_>
      <rects>
        <_>
          12 3 5 3 -1.</_>
        <_>
          12 4 5 1 3.</_></rects>
      <tilted>0</tilted></_>
    <_>
      <rects>
        <_>
          12 4 6 1 -1.</_>
        <_>
          15 4 3 1 2.</_></rects>
      <tilted>0</tilted></_>
    <_>
      <rects>
        <_>
          12 5 4 3 -1.</_>
        <_>
          12 6 4 1 3.</_></rects>
      <tilted>0</tilted></_>
    <_>
      <rects>
        <_>
          12 6 7 6 -1.</_>
        <_>
          12 9 7 3 2.</_></rects>
      <tilted>0</tilted></_>
    <_>
      <rects>
        <_>
          12 7 3 2 -1.</_>
        <_>
          13 7 1 2 3.</_></rects>
      <tilted>0</tilted></_>
    <_>
      <rects>
        <_>
          12 7 6 1 -1.</_>
        <_>
          15 7 3 1 2.</_></rects>
      <tilted>0</tilted></_>
    <_>
      <rects>
        <_>
          12 8 5 2 -1.</_>
        <_>
          12 9 5 1 2.</_></rects>
      <tilted>0</tilted></_>
    <_>
      <rects>
        <_>
          13 3 6 2 -1.</_>
        <_>
          13 4 6 1 2.</_></rects>
      <tilted>0</tilted></_>
    <_>
      <rects>
        <_>
          13 6 1 2 -1.</_>
        <_>
          13 7 1 1 2.</_></rects>
      <tilted>0</tilted></_>
    <_>
      <rects>
        <_>
          13 6 4 2 -1.</_>
        <_>
          13 6 2 1 2.</_>
        <_>
          15 7 2 1 2.</_></rects>
      <tilted>0</tilted></_>
    <_>
      <rects>
        <_>
          13 6 3 2 -1.</_>
        <_>
          13 7 3 1 2.</_></rects>
      <tilted>0</tilted></_>
    <_>
      <rects>
        <_>
          13 6 3 3 -1.</_>
        <_>
          13 7 3 1 3.</_></rects>
      <tilted>0</tilted></_>
    <_>
      <rects>
        <_>
          13 7 4 3 -1.</_>
        <_>
          13 8 4 1 3.</_></rects>
      <tilted>0</tilted></_>
    <_>
      <rects>
        <_>
          14 3 3 3 -1.</_>
        <_>
          14 4 3 1 3.</_></rects>
      <tilted>0</tilted></_>
    <_>
      <rects>
        <_>
          14 4 3 1 -1.</_>
        <_>
          15 4 1 1 3.</_></rects>
      <tilted>0</tilted></_>
    <_>
      <rects>
        <_>
          14 4 2 2 -1.</_>
        <_>
          14 4 1 1 2.</_>
        <_>
          15 5 1 1 2.</_></rects>
      <tilted>0</tilted></_>
    <_>
      <rects>
        <_>
          14 4 6 3 -1.</_>
        <_>
          16 4 2 3 3.</_></rects>
      <tilted>0</tilted></_>
    <_>
      <rects>
        <_>
          14 5 4 4 -1.</_>
        <_>
          14 5 2 2 2.</_>
        <_>
          16 7 2 2 2.</_></rects>
      <tilted>0</tilted></_>
    <_>
      <rects>
        <_>
          14 6 2 2 -1.</_>
        <_>
          14 6 1 1 2.</_>
        <_>
          15 7 1 1 2.</_></rects>
      <tilted>0</tilted></_>
    <_>
      <rects>
        <_>
          14 8 2 1 -1.</_>
        <_>
          15 8 1 1 2.</_></rects>
      <tilted>0</tilted></_>
    <_>
      <rects>
        <_>
          15 4 3 1 -1.</_>
        <_>
          16 4 1 1 3.</_></rects>
      <tilted>0</tilted></_>
    <_>
      <rects>
        <_>
          15 5 2 2 -1.</_>
        <_>
          16 5 1 2 2.</_></rects>
      <tilted>0</tilted></_>
    <_>
      <rects>
        <_>
          15 5 12 3 -1.</_>
        <_>
          19 5 4 3 3.</_></rects>
      <tilted>0</tilted></_>
    <_>
      <rects>
        <_>
          15 6 2 3 -1.</_>
        <_>
          15 7 2 1 3.</_></rects>
      <tilted>0</tilted></_>
    <_>
      <rects>
        <_>
          15 7 3 1 -1.</_>
        <_>
          16 7 1 1 3.</_></rects>
      <tilted>0</tilted></_>
    <_>
      <rects>
        <_>
          16 3 1 2 -1.</_>
        <_>
          16 4 1 1 2.</_></rects>
      <tilted>0</tilted></_>
    <_>
      <rects>
        <_>
          16 4 1 4 -1.</_>
        <_>
          16 6 1 2 2.</_></rects>
      <tilted>0</tilted></_>
    <_>
      <rects>
        <_>
          16 5 3 2 -1.</_>
        <_>
          17 5 1 2 3.</_></rects>
      <tilted>0</tilted></_>
    <_>
      <rects>
        <_>
          16 5 2 2 -1.</_>
        <_>
          16 6 2 1 2.</_></rects>
      <tilted>0</tilted></_>
    <_>
      <rects>
        <_>
          16 5 8 2 -1.</_>
        <_>
          20 5 4 2 2.</_></rects>
      <tilted>0</tilted></_>
    <_>
      <rects>
        <_>
          16 6 2 2 -1.</_>
        <_>
          16 6 1 1 2.</_>
        <_>
          17 7 1 1 2.</_></rects>
      <tilted>0</tilted></_>
    <_>
      <rects>
        <_>
          16 8 6 1 -1.</_>
        <_>
          18 8 2 1 3.</_></rects>
      <tilted>0</tilted></_>
    <_>
      <rects>
        <_>
          17 3 1 3 -1.</_>
        <_>
          17 4 1 1 3.</_></rects>
      <tilted>0</tilted></_>
    <_>
      <rects>
        <_>
          17 5 1 2 -1.</_>
        <_>
          17 6 1 1 2.</_></rects>
      <tilted>0</tilted></_>
    <_>
      <rects>
        <_>
          17 5 2 3 -1.</_>
        <_>
          18 5 1 3 2.</_></rects>
      <tilted>0</tilted></_>
    <_>
      <rects>
        <_>
          17 6 2 3 -1.</_>
        <_>
          17 7 2 1 3.</_></rects>
      <tilted>0</tilted></_>
    <_>
      <rects>
        <_>
          18 6 2 2 -1.</_>
        <_>
          18 6 1 1 2.</_>
        <_>
          19 7 1 1 2.</_></rects>
      <tilted>0</tilted></_>
    <_>
      <rects>
        <_>
          18 7 4 2 -1.</_>
        <_>
          18 7 2 1 2.</_>
        <_>
          20 8 2 1 2.</_></rects>
      <tilted>0</tilted></_>
    <_>
      <rects>
        <_>
          19 6 2 1 -1.</_>
        <_>
          20 6 1 1 2.</_></rects>
      <tilted>0</tilted></_>
    <_>
      <rects>
        <_>
          19 6 3 2 -1.</_>
        <_>
          20 6 1 2 3.</_></rects>
      <tilted>0</tilted></_>
    <_>
      <rects>
        <_>
          19 7 3 1 -1.</_>
        <_>
          20 7 1 1 3.</_></rects>
      <tilted>0</tilted></_>
    <_>
      <rects>
        <_>
          21 1 7 8 -1.</_>
        <_>
          21 5 7 4 2.</_></rects>
      <tilted>0</tilted></_>
    <_>
      <rects>
        <_>
          21 6 2 4 -1.</_>
        <_>
          21 6 1 2 2.</_>
        <_>
          22 8 1 2 2.</_></rects>
      <tilted>0</tilted></_>
    <_>
      <rects>
        <_>
          22 4 3 1 -1.</_>
        <_>
          23 4 1 1 3.</_></rects>
      <tilted>0</tilted></_>
    <_>
      <rects>
        <_>
          23 4 4 1 -1.</_>
        <_>
          25 4 2 1 2.</_></rects>
      <tilted>0</tilted></_>
    <_>
      <rects>
        <_>
          24 1 4 6 -1.</_>
        <_>
          24 1 2 3 2.</_>
        <_>
          26 4 2 3 2.</_></rects>
      <tilted>0</tilted></_>
    <_>
      <rects>
        <_>
          26 5 2 2 -1.</_>
        <_>
          27 5 1 2 2.</_></rects>
      <tilted>0</tilted></_></features></cascade>
</opencv_storage>
