<?xml version="1.0"?>
<opencv_storage>
<stage1>
  <maxWeakCount>9</maxWeakCount>
  <stageThreshold>-8.0376321077346802e-01</stageThreshold>
  <weakClassifiers>
    <_>
      <internalNodes>
        0 -1 38508 9.8441038280725479e-03</internalNodes>
      <leafValues>
        -2.1351766586303711e-01 8.4263235330581665e-01</leafValues></_>
    <_>
      <internalNodes>
        0 -1 46640 -1.3500117929652333e-03</internalNodes>
      <leafValues>
        6.2074458599090576e-01 -3.1870847940444946e-01</leafValues></_>
    <_>
      <internalNodes>
        0 -1 10048 -2.0129891345277429e-04</internalNodes>
      <leafValues>
        3.7799158692359924e-01 -4.3715953826904297e-01</leafValues></_>
    <_>
      <internalNodes>
        0 -1 47701 -1.4069819590076804e-03</internalNodes>
      <leafValues>
        4.4812905788421631e-01 -3.4969085454940796e-01</leafValues></_>
    <_>
      <internalNodes>
        0 -1 50797 1.5698862262070179e-03</internalNodes>
      <leafValues>
        -2.9388377070426941e-01 5.3949564695358276e-01</leafValues></_>
    <_>
      <internalNodes>
        0 -1 34732 -5.6139011867344379e-03</internalNodes>
      <leafValues>
        -8.1460636854171753e-01 1.8928901851177216e-01</leafValues></_>
    <_>
      <internalNodes>
        0 -1 37923 5.2527184598147869e-03</internalNodes>
      <leafValues>
        -2.9127576947212219e-01 4.9677550792694092e-01</leafValues></_>
    <_>
      <internalNodes>
        0 -1 39200 -3.9483945816755295e-02</internalNodes>
      <leafValues>
        5.5578577518463135e-01 -2.5332775712013245e-01</leafValues></_>
    <_>
      <internalNodes>
        0 -1 39441 6.9674765691161156e-03</internalNodes>
      <leafValues>
        -2.3936225473880768e-01 5.6520462036132812e-01</leafValues></_></weakClassifiers></stage1>
</opencv_storage>
