<?xml version="1.0"?>
<opencv_storage>
<stage9>
  <maxWeakCount>52</maxWeakCount>
  <stageThreshold>-4.6581086516380310e-01</stageThreshold>
  <weakClassifiers>
    <_>
      <internalNodes>
        0 -1 22826 6.7536300048232079e-03</internalNodes>
      <leafValues>
        3.8164252042770386e-01 -2.2222222387790680e-01</leafValues></_>
    <_>
      <internalNodes>
        0 -1 41896 1.7607618123292923e-02</internalNodes>
      <leafValues>
        -4.2935684323310852e-02 4.9744719266891479e-01</leafValues></_>
    <_>
      <internalNodes>
        0 -1 41896 1.6717396676540375e-02</internalNodes>
      <leafValues>
        6.3275964930653572e-03 -8.1748181581497192e-01</leafValues></_>
    <_>
      <internalNodes>
        0 -1 41350 1.6741607338190079e-02</internalNodes>
      <leafValues>
        -8.0871637910604477e-03 7.4527192115783691e-01</leafValues></_>
    <_>
      <internalNodes>
        0 -1 48610 -3.7942905910313129e-03</internalNodes>
      <leafValues>
        -4.6677246689796448e-01 6.3482478260993958e-02</leafValues></_>
    <_>
      <internalNodes>
        0 -1 185531 -7.4799091089516878e-04</internalNodes>
      <leafValues>
        2.0150448381900787e-01 -1.7383264005184174e-01</leafValues></_>
    <_>
      <internalNodes>
        0 -1 101911 -6.1387913301587105e-03</internalNodes>
      <leafValues>
        -4.6609741449356079e-01 9.5686100423336029e-02</leafValues></_>
    <_>
      <internalNodes>
        0 -1 105607 -6.9871079176664352e-03</internalNodes>
      <leafValues>
        -5.1662665605545044e-01 4.9536630511283875e-02</leafValues></_>
    <_>
      <internalNodes>
        0 -1 20010 2.1550564095377922e-02</internalNodes>
      <leafValues>
        -6.2067605555057526e-02 8.0601078271865845e-01</leafValues></_>
    <_>
      <internalNodes>
        0 -1 84105 -1.0950653813779354e-03</internalNodes>
      <leafValues>
        -5.1606404781341553e-01 7.7925883233547211e-02</leafValues></_>
    <_>
      <internalNodes>
        0 -1 84104 -4.6409582137130201e-04</internalNodes>
      <leafValues>
        2.6153838634490967e-01 -1.3804480433464050e-01</leafValues></_>
    <_>
      <internalNodes>
        0 -1 67376 1.9458736060187221e-03</internalNodes>
      <leafValues>
        -1.0627358406782150e-01 2.7243083715438843e-01</leafValues></_>
    <_>
      <internalNodes>
        0 -1 81068 -2.4708490818738937e-03</internalNodes>
      <leafValues>
        -4.1904118657112122e-01 6.5629757940769196e-02</leafValues></_>
    <_>
      <internalNodes>
        0 -1 81317 1.8713949248194695e-04</internalNodes>
      <leafValues>
        1.8491715192794800e-01 -1.9807034730911255e-01</leafValues></_>
    <_>
      <internalNodes>
        0 -1 149690 3.8265385664999485e-03</internalNodes>
      <leafValues>
        -8.2485154271125793e-02 3.4220945835113525e-01</leafValues></_>
    <_>
      <internalNodes>
        0 -1 13269 -4.5933859655633569e-04</internalNodes>
      <leafValues>
        -3.0648037791252136e-01 9.1395892202854156e-02</leafValues></_>
    <_>
      <internalNodes>
        0 -1 127096 1.1936683440580964e-03</internalNodes>
      <leafValues>
        -8.9400008320808411e-02 3.4004271030426025e-01</leafValues></_>
    <_>
      <internalNodes>
        0 -1 142503 1.8582567572593689e-03</internalNodes>
      <leafValues>
        -8.4316067397594452e-02 3.0780366063117981e-01</leafValues></_>
    <_>
      <internalNodes>
        0 -1 190071 3.8654531817883253e-03</internalNodes>
      <leafValues>
        5.6631464511156082e-02 -4.9522119760513306e-01</leafValues></_>
    <_>
      <internalNodes>
        0 -1 197228 3.9033830398693681e-04</internalNodes>
      <leafValues>
        -1.3507051765918732e-01 2.1476507186889648e-01</leafValues></_>
    <_>
      <internalNodes>
        0 -1 140947 -6.0580680146813393e-03</internalNodes>
      <leafValues>
        -6.3915991783142090e-01 4.4657688587903976e-02</leafValues></_>
    <_>
      <internalNodes>
        0 -1 68972 3.9575595292262733e-04</internalNodes>
      <leafValues>
        8.7427526712417603e-02 -3.1099152565002441e-01</leafValues></_>
    <_>
      <internalNodes>
        0 -1 89018 1.9595238845795393e-03</internalNodes>
      <leafValues>
        -8.8380977511405945e-02 3.4659713506698608e-01</leafValues></_>
    <_>
      <internalNodes>
        0 -1 186941 2.9600732959806919e-03</internalNodes>
      <leafValues>
        -9.5252543687820435e-02 3.1847900152206421e-01</leafValues></_>
    <_>
      <internalNodes>
        0 -1 156487 3.0563762993551791e-04</internalNodes>
      <leafValues>
        -1.4063677191734314e-01 2.0646616816520691e-01</leafValues></_>
    <_>
      <internalNodes>
        0 -1 130426 -7.9657480120658875e-02</internalNodes>
      <leafValues>
        7.1262985467910767e-01 -4.1137225925922394e-02</leafValues></_>
    <_>
      <internalNodes>
        0 -1 135738 3.5700239823199809e-04</internalNodes>
      <leafValues>
        1.0341113060712814e-01 -2.8483581542968750e-01</leafValues></_>
    <_>
      <internalNodes>
        0 -1 161668 8.5084140300750732e-03</internalNodes>
      <leafValues>
        -5.1466260105371475e-02 5.0993275642395020e-01</leafValues></_>
    <_>
      <internalNodes>
        0 -1 125444 5.1754224114120007e-03</internalNodes>
      <leafValues>
        9.6616886556148529e-02 -3.0656775832176208e-01</leafValues></_>
    <_>
      <internalNodes>
        0 -1 172439 -2.2337287664413452e-02</internalNodes>
      <leafValues>
        4.4352927803993225e-01 -6.4706087112426758e-02</leafValues></_>
    <_>
      <internalNodes>
        0 -1 177803 6.5811518579721451e-03</internalNodes>
      <leafValues>
        1.4327928423881531e-01 -2.0456960797309875e-01</leafValues></_>
    <_>
      <internalNodes>
        0 -1 2282 5.3157240152359009e-01</internalNodes>
      <leafValues>
        -3.4834291785955429e-02 8.4450441598892212e-01</leafValues></_>
    <_>
      <internalNodes>
        0 -1 187209 -2.2206157445907593e-03</internalNodes>
      <leafValues>
        2.2842416167259216e-01 -1.2193308770656586e-01</leafValues></_>
    <_>
      <internalNodes>
        0 -1 155133 4.2173312976956367e-04</internalNodes>
      <leafValues>
        -1.1372064054012299e-01 2.4524566531181335e-01</leafValues></_>
    <_>
      <internalNodes>
        0 -1 142499 -6.6737714223563671e-04</internalNodes>
      <leafValues>
        3.3679834008216858e-01 -8.7264053523540497e-02</leafValues></_>
    <_>
      <internalNodes>
        0 -1 3606 -3.6867158487439156e-03</internalNodes>
      <leafValues>
        2.2608236968517303e-01 -1.2634074687957764e-01</leafValues></_>
    <_>
      <internalNodes>
        0 -1 17071 -2.5527826510369778e-03</internalNodes>
      <leafValues>
        -6.2362205982208252e-01 4.9483921378850937e-02</leafValues></_>
    <_>
      <internalNodes>
        0 -1 165848 -8.2136772107332945e-04</internalNodes>
      <leafValues>
        -2.0779781043529510e-01 1.4918400347232819e-01</leafValues></_>
    <_>
      <internalNodes>
        0 -1 157380 -9.0571976033970714e-04</internalNodes>
      <leafValues>
        -2.5133904814720154e-01 1.1652457714080811e-01</leafValues></_>
    <_>
      <internalNodes>
        0 -1 9636 -4.9300797283649445e-02</internalNodes>
      <leafValues>
        3.9837095141410828e-01 -7.6032169163227081e-02</leafValues></_>
    <_>
      <internalNodes>
        0 -1 12423 -8.3054968854412436e-05</internalNodes>
      <leafValues>
        -2.0123860239982605e-01 1.4780801534652710e-01</leafValues></_>
    <_>
      <internalNodes>
        0 -1 199968 -7.5349911639932543e-05</internalNodes>
      <leafValues>
        -1.9716264307498932e-01 1.4210268855094910e-01</leafValues></_>
    <_>
      <internalNodes>
        0 -1 105891 1.4162773266434669e-02</internalNodes>
      <leafValues>
        -9.5876283943653107e-02 2.8643411397933960e-01</leafValues></_>
    <_>
      <internalNodes>
        0 -1 181743 -2.1882712841033936e-02</internalNodes>
      <leafValues>
        6.2549847364425659e-01 -4.6690709888935089e-02</leafValues></_>
    <_>
      <internalNodes>
        0 -1 76271 -7.0801647379994392e-03</internalNodes>
      <leafValues>
        -2.0813603699207306e-01 1.5123099088668823e-01</leafValues></_>
    <_>
      <internalNodes>
        0 -1 93433 5.2988959942013025e-04</internalNodes>
      <leafValues>
        -1.4410661160945892e-01 2.1286378800868988e-01</leafValues></_>
    <_>
      <internalNodes>
        0 -1 200013 -1.0739827121142298e-04</internalNodes>
      <leafValues>
        -2.3497192561626434e-01 1.3857854902744293e-01</leafValues></_>
    <_>
      <internalNodes>
        0 -1 188398 3.8332156836986542e-03</internalNodes>
      <leafValues>
        -1.1277073621749878e-01 3.0059736967086792e-01</leafValues></_>
    <_>
      <internalNodes>
        0 -1 88119 1.2811523629352450e-04</internalNodes>
      <leafValues>
        1.4948375523090363e-01 -2.3728320002555847e-01</leafValues></_>
    <_>
      <internalNodes>
        0 -1 189967 -3.2901145517826080e-02</internalNodes>
      <leafValues>
        4.8900654911994934e-01 -7.2932213544845581e-02</leafValues></_>
    <_>
      <internalNodes>
        0 -1 93223 -2.1884471178054810e-02</internalNodes>
      <leafValues>
        -6.3983845710754395e-01 5.6769881397485733e-02</leafValues></_>
    <_>
      <internalNodes>
        0 -1 24485 -3.4864740446209908e-03</internalNodes>
      <leafValues>
        2.3626235127449036e-01 -1.3308340311050415e-01</leafValues></_></weakClassifiers></stage9>
</opencv_storage>
